<?xml version="1.0"?>
<opencv_storage>
<cascade>
  <stageType>BOOST</stageType>
  <featureType>HAAR</featureType>
  <height>24</height>
  <width>24</width>
  <stageParams>
    <boostType>RAB</boostType>
    <minHitRate>9.9500000476837158e-01</minHitRate>
    <maxFalseAlarm>5.0000000000000000e-01</maxFalseAlarm>
    <weightTrimRate>9.9000000953674316e-01</weightTrimRate>
    <maxDepth>1</maxDepth>
    <maxWeakCount>100</maxWeakCount></stageParams>
  <featureParams>
    <maxCatCount>0</maxCatCount>
    <featSize>1</featSize>
    <mode>ALL</mode></featureParams>
  <stageNum>25</stageNum>
  <stages>
    <!-- stage 0 -->
    <_>
      <maxWeakCount>1</maxWeakCount>
      <stageThreshold>1.5731525421142578e+00</stageThreshold>
      <weakClassifiers>
        <_>
          <internalNodes>
            0 -1 4 -2.9409382492303848e-02</internalNodes>
          <leafValues>
            1.5731525421142578e+00 -5.7564578056335449e+00</leafValues></_></weakClassifiers></_>
    <!-- stage 1 -->
    <_>
      <maxWeakCount>4</maxWeakCount>
      <stageThreshold>-1.3616315126419067e+00</stageThreshold>
      <weakClassifiers>
        <_>
          <internalNodes>
            0 -1 141 -1.1793095836765133e-05</internalNodes>
          <leafValues>
            7.2345948219299316e-01 -9.1080623865127563e-01</leafValues></_>
        <_>
          <internalNodes>
            0 -1 30 2.5412622839212418e-02</internalNodes>
          <leafValues>
            -4.6862831711769104e-01 1.1783580780029297e+00</leafValues></_>
        <_>
          <internalNodes>
            0 -1 94 -1.0920824715867639e-03</internalNodes>
          <leafValues>
            5.6650519371032715e-01 -6.5481245517730713e-01</leafValues></_>
        <_>
          <internalNodes>
            0 -1 79 9.7947253379970789e-04</internalNodes>
          <leafValues>
            -5.4870218038558960e-01 9.6176290512084961e-01</leafValues></_></weakClassifiers></_>
    <!-- stage 2 -->
    <_>
      <maxWeakCount>5</maxWeakCount>
      <stageThreshold>-6.1263388395309448e-01</stageThreshold>
      <weakClassifiers>
        <_>
          <internalNodes>
            0 -1 81 -5.9948243200778961e-02</internalNodes>
          <leafValues>
            -9.8761886358261108e-01 4.4145184755325317e-01</leafValues></_>
        <_>
          <internalNodes>
            0 -1 33 8.7054297327995300e-03</internalNodes>
          <leafValues>
            -5.3192263841629028e-01 7.2451865673065186e-01</leafValues></_>
        <_>
          <internalNodes>
            0 -1 40 1.3896781951189041e-02</internalNodes>
          <leafValues>
            -3.2645174860954285e-01 9.7978657484054565e-01</leafValues></_>
        <_>
          <internalNodes>
            0 -1 209 3.1991384923458099e-02</internalNodes>
          <leafValues>
            -3.2184958457946777e-01 1.3978985548019409e+00</leafValues></_>
        <_>
          <internalNodes>
            0 -1 149 -2.5379569269716740e-03</internalNodes>
          <leafValues>
            -1.1303031444549561e+00 3.8498163223266602e-01</leafValues></_></weakClassifiers></_>
    <!-- stage 3 -->
    <_>
      <maxWeakCount>7</maxWeakCount>
      <stageThreshold>-1.4402152299880981e+00</stageThreshold>
      <weakClassifiers>
        <_>
          <internalNodes>
            0 -1 215 -8.8734954595565796e-02</internalNodes>
          <leafValues>
            -6.3777148723602295e-01 9.6495491266250610e-01</leafValues></_>
        <_>
          <internalNodes>
            0 -1 130 -1.5133456145122182e-05</internalNodes>
          <leafValues>
            4.7037976980209351e-01 -6.8834739923477173e-01</leafValues></_>
        <_>
          <internalNodes>
            0 -1 32 3.7109050899744034e-02</internalNodes>
          <leafValues>
            -3.4879401326179504e-01 9.6165877580642700e-01</leafValues></_>
        <_>
          <internalNodes>
            0 -1 97 -1.4813330769538879e-01</internalNodes>
          <leafValues>
            1.2230932712554932e+00 -2.5480598211288452e-01</leafValues></_>
        <_>
          <internalNodes>
            0 -1 218 4.8662113840691745e-05</internalNodes>
          <leafValues>
            -4.1845560073852539e-01 5.5887162685394287e-01</leafValues></_>
        <_>
          <internalNodes>
            0 -1 43 9.2823561280965805e-03</internalNodes>
          <leafValues>
            -2.4971686303615570e-01 9.1460525989532471e-01</leafValues></_>
        <_>
          <internalNodes>
            0 -1 172 -2.7721405029296875e-02</internalNodes>
          <leafValues>
            -5.7564578056335449e+00 1.8034888803958893e-01</leafValues></_></weakClassifiers></_>
    <!-- stage 4 -->
    <_>
      <maxWeakCount>7</maxWeakCount>
      <stageThreshold>-1.1049938201904297e+00</stageThreshold>
      <weakClassifiers>
        <_>
          <internalNodes>
            0 -1 15 5.3021136671304703e-02</internalNodes>
          <leafValues>
            -4.5262044668197632e-01 9.2291337251663208e-01</leafValues></_>
        <_>
          <internalNodes>
            0 -1 23 -2.2758059203624725e-02</internalNodes>
          <leafValues>
            8.6661261320114136e-01 -3.7562215328216553e-01</leafValues></_>
        <_>
          <internalNodes>
            0 -1 133 -5.6998487561941147e-03</internalNodes>
          <leafValues>
            -2.6734891533851624e-01 1.3092777729034424e+00</leafValues></_>
        <_>
          <internalNodes>
            0 -1 147 -2.0888529717922211e-02</internalNodes>
          <leafValues>
            -1.6518336534500122e+00 2.5287160277366638e-01</leafValues></_>
        <_>
          <internalNodes>
            0 -1 11 1.7508396878838539e-02</internalNodes>
          <leafValues>
            -3.2367756962776184e-01 8.1257164478302002e-01</leafValues></_>
        <_>
          <internalNodes>
            0 -1 76 -1.7015546560287476e-02</internalNodes>
          <leafValues>
            -1.2718099355697632e+00 2.5731170177459717e-01</leafValues></_>
        <_>
          <internalNodes>
            0 -1 129 -1.5573067357763648e-03</internalNodes>
          <leafValues>
            -9.8116725683212280e-01 1.9696424901485443e-01</leafValues></_></weakClassifiers></_>
    <!-- stage 5 -->
    <_>
      <maxWeakCount>8</maxWeakCount>
      <stageThreshold>-1.1258811950683594e+00</stageThreshold>
      <weakClassifiers>
        <_>
          <internalNodes>
            0 -1 6 2.1252764761447906e-01</internalNodes>
          <leafValues>
            -3.8014325499534607e-01 1.0797420740127563e+00</leafValues></_>
        <_>
          <internalNodes>
            0 -1 183 1.4258260838687420e-02</internalNodes>
          <leafValues>
            -7.1707791090011597e-01 4.5737624168395996e-01</leafValues></_>
        <_>
          <internalNodes>
            0 -1 21 -3.0335363000631332e-02</internalNodes>
          <leafValues>
            1.4921439886093140e+00 -2.0943379402160645e-01</leafValues></_>
        <_>
          <internalNodes>
            0 -1 12 1.5215947292745113e-02</internalNodes>
          <leafValues>
            -3.6683025956153870e-01 8.2327544689178467e-01</leafValues></_>
        <_>
          <internalNodes>
            0 -1 182 -3.0750978738069534e-02</internalNodes>
          <leafValues>
            7.5791317224502563e-01 -3.4827181696891785e-01</leafValues></_>
        <_>
          <internalNodes>
            0 -1 175 -1.6154132783412933e-02</internalNodes>
          <leafValues>
            9.3278819322586060e-01 -3.1032615900039673e-01</leafValues></_>
        <_>
          <internalNodes>
            0 -1 38 -3.6564335227012634e-02</internalNodes>
          <leafValues>
            -4.6425738930702209e-01 5.4159986972808838e-01</leafValues></_>
        <_>
          <internalNodes>
            0 -1 132 -3.3787405118346214e-04</internalNodes>
          <leafValues>
            4.9600526690483093e-01 -4.5749437808990479e-01</leafValues></_></weakClassifiers></_>
    <!-- stage 6 -->
    <_>
      <maxWeakCount>7</maxWeakCount>
      <stageThreshold>-1.5147778987884521e+00</stageThreshold>
      <weakClassifiers>
        <_>
          <internalNodes>
            0 -1 29 4.9466658383607864e-03</internalNodes>
          <leafValues>
            -3.9164912700653076e-01 1.1512925624847412e+00</leafValues></_>
        <_>
          <internalNodes>
            0 -1 178 4.6226743143051863e-04</internalNodes>
          <leafValues>
            -3.6930510401725769e-01 6.1321556568145752e-01</leafValues></_>
        <_>
          <internalNodes>
            0 -1 193 6.3324550865218043e-05</internalNodes>
          <leafValues>
            -5.8115637302398682e-01 3.5142433643341064e-01</leafValues></_>
        <_>
          <internalNodes>
            0 -1 60 -4.4641754357144237e-04</internalNodes>
          <leafValues>
            9.3997156620025635e-01 -2.2264225780963898e-01</leafValues></_>
        <_>
          <internalNodes>
            0 -1 207 3.7299364339560270e-03</internalNodes>
          <leafValues>
            -2.4141655862331390e-01 1.1091009378433228e+00</leafValues></_>
        <_>
          <internalNodes>
            0 -1 200 -6.1903204768896103e-03</internalNodes>
          <leafValues>
            7.9382228851318359e-01 -2.9738509654998779e-01</leafValues></_>
        <_>
          <internalNodes>
            0 -1 219 1.3218654203228652e-04</internalNodes>
          <leafValues>
            -3.9374408125877380e-01 4.4678357243537903e-01</leafValues></_></weakClassifiers></_>
    <!-- stage 7 -->
    <_>
      <maxWeakCount>9</maxWeakCount>
      <stageThreshold>-9.6469300985336304e-01</stageThreshold>
      <weakClassifiers>
        <_>
          <internalNodes>
            0 -1 103 -1.5086153522133827e-02</internalNodes>
          <leafValues>
            1.1450031995773315e+00 -3.8695427775382996e-01</leafValues></_>
        <_>
          <internalNodes>
            0 -1 131 -6.2452154234051704e-03</internalNodes>
          <leafValues>
            -3.4111139178276062e-01 1.1516791582107544e+00</leafValues></_>
        <_>
          <internalNodes>
            0 -1 202 -8.9570268755778670e-04</internalNodes>
          <leafValues>
            -8.7676995992660522e-01 2.2930136322975159e-01</leafValues></_>
        <_>
          <internalNodes>
            0 -1 0 -7.4215279892086983e-03</internalNodes>
          <leafValues>
            -5.7838541269302368e-01 3.2185870409011841e-01</leafValues></_>
        <_>
          <internalNodes>
            0 -1 212 7.5512770563364029e-03</internalNodes>
          <leafValues>
            -2.6294016838073730e-01 7.5859260559082031e-01</leafValues></_>
        <_>
          <internalNodes>
            0 -1 176 1.4365289360284805e-02</internalNodes>
          <leafValues>
            1.9704580307006836e-01 -1.0716807842254639e+00</leafValues></_>
        <_>
          <internalNodes>
            0 -1 144 -2.8383056633174419e-03</internalNodes>
          <leafValues>
            -1.0890936851501465e+00 2.0311184227466583e-01</leafValues></_>
        <_>
          <internalNodes>
            0 -1 18 1.5992222353816032e-02</internalNodes>
          <leafValues>
            -2.1502220630645752e-01 9.3689340353012085e-01</leafValues></_>
        <_>
          <internalNodes>
            0 -1 64 -2.1977272990625352e-04</internalNodes>
          <leafValues>
            4.3745526671409607e-01 -4.1197708249092102e-01</leafValues></_></weakClassifiers></_>
    <!-- stage 8 -->
    <_>
      <maxWeakCount>9</maxWeakCount>
      <stageThreshold>-1.0276125669479370e+00</stageThreshold>
      <weakClassifiers>
        <_>
          <internalNodes>
            0 -1 101 -2.7313415557728149e-05</internalNodes>
          <leafValues>
            3.1001245975494385e-01 -6.8701213598251343e-01</leafValues></_>
        <_>
          <internalNodes>
            0 -1 162 -4.1699060238897800e-04</internalNodes>
          <leafValues>
            5.8739334344863892e-01 -3.8752013444900513e-01</leafValues></_>
        <_>
          <internalNodes>
            0 -1 85 -4.4934492558240891e-02</internalNodes>
          <leafValues>
            1.5720200538635254e+00 -2.2789055109024048e-01</leafValues></_>
        <_>
          <internalNodes>
            0 -1 210 -1.4833441004157066e-02</internalNodes>
          <leafValues>
            -1.2756289243698120e+00 1.7051295936107635e-01</leafValues></_>
        <_>
          <internalNodes>
            0 -1 9 -9.4420745968818665e-02</internalNodes>
          <leafValues>
            5.0678986310958862e-01 -3.7237676978111267e-01</leafValues></_>
        <_>
          <internalNodes>
            0 -1 160 -2.9640446882694960e-04</internalNodes>
          <leafValues>
            -6.7523133754730225e-01 3.0502235889434814e-01</leafValues></_>
        <_>
          <internalNodes>
            0 -1 192 1.9294040976092219e-04</internalNodes>
          <leafValues>
            -2.3475119471549988e-01 8.8268136978149414e-01</leafValues></_>
        <_>
          <internalNodes>
            0 -1 116 -1.6676094674039632e-05</internalNodes>
          <leafValues>
            2.9739922285079956e-01 -5.7910358905792236e-01</leafValues></_>
        <_>
          <internalNodes>
            0 -1 37 3.1365467293653637e-05</internalNodes>
          <leafValues>
            -4.1679263114929199e-01 4.0758177638053894e-01</leafValues></_></weakClassifiers></_>
    <!-- stage 9 -->
    <_>
      <maxWeakCount>7</maxWeakCount>
      <stageThreshold>-1.0071328878402710e+00</stageThreshold>
      <weakClassifiers>
        <_>
          <internalNodes>
            0 -1 3 5.2778692916035652e-03</internalNodes>
          <leafValues>
            -3.8585475087165833e-01 8.4933453798294067e-01</leafValues></_>
        <_>
          <internalNodes>
            0 -1 216 -1.8844243139028549e-02</internalNodes>
          <leafValues>
            3.4669670462608337e-01 -7.2955900430679321e-01</leafValues></_>
        <_>
          <internalNodes>
            0 -1 121 -5.7413861155509949e-02</internalNodes>
          <leafValues>
            5.3967738151550293e-01 -4.4503721594810486e-01</leafValues></_>
        <_>
          <internalNodes>
            0 -1 161 -3.0278225895017385e-03</internalNodes>
          <leafValues>
            -9.6048766374588013e-01 2.1428266167640686e-01</leafValues></_>
        <_>
          <internalNodes>
            0 -1 138 3.7034762499388307e-05</internalNodes>
          <leafValues>
            -4.9121451377868652e-01 4.0663278102874756e-01</leafValues></_>
        <_>
          <internalNodes>
            0 -1 74 -1.4255505520850420e-03</internalNodes>
          <leafValues>
            9.2076009511947632e-01 -2.5532624125480652e-01</leafValues></_>
        <_>
          <internalNodes>
            0 -1 167 -2.7500332798808813e-03</internalNodes>
          <leafValues>
            -1.5936169624328613e+00 1.8772888183593750e-01</leafValues></_></weakClassifiers></_>
    <!-- stage 10 -->
    <_>
      <maxWeakCount>10</maxWeakCount>
      <stageThreshold>-1.1708539724349976e+00</stageThreshold>
      <weakClassifiers>
        <_>
          <internalNodes>
            0 -1 180 -1.0843588970601559e-02</internalNodes>
          <leafValues>
            7.6302814483642578e-01 -3.2696324586868286e-01</leafValues></_>
        <_>
          <internalNodes>
            0 -1 89 -1.2626415118575096e-03</internalNodes>
          <leafValues>
            3.2509356737136841e-01 -5.1040327548980713e-01</leafValues></_>
        <_>
          <internalNodes>
            0 -1 221 -1.7798319458961487e-03</internalNodes>
          <leafValues>
            1.4235058426856995e-01 -1.6240044832229614e+00</leafValues></_>
        <_>
          <internalNodes>
            0 -1 151 1.2623406946659088e-03</internalNodes>
          <leafValues>
            -4.0761601924896240e-01 3.4128156304359436e-01</leafValues></_>
        <_>
          <internalNodes>
            0 -1 112 -1.5456646215170622e-03</internalNodes>
          <leafValues>
            -9.1467666625976563e-01 1.7826101183891296e-01</leafValues></_>
        <_>
          <internalNodes>
            0 -1 84 2.7328353375196457e-02</internalNodes>
          <leafValues>
            -1.9318285584449768e-01 6.8583244085311890e-01</leafValues></_>
        <_>
          <internalNodes>
            0 -1 187 -5.8198893384542316e-05</internalNodes>
          <leafValues>
            3.7251147627830505e-01 -3.8966217637062073e-01</leafValues></_>
        <_>
          <internalNodes>
            0 -1 158 1.6008052043616772e-03</internalNodes>
          <leafValues>
            -2.3543806374073029e-01 6.9327497482299805e-01</leafValues></_>
        <_>
          <internalNodes>
            0 -1 140 5.9616058133542538e-03</internalNodes>
          <leafValues>
            1.7315775156021118e-01 -9.5066636800765991e-01</leafValues></_>
        <_>
          <internalNodes>
            0 -1 117 3.3469386398792267e-03</internalNodes>
          <leafValues>
            2.2531761229038239e-01 -6.9015109539031982e-01</leafValues></_></weakClassifiers></_>
    <!-- stage 11 -->
    <_>
      <maxWeakCount>11</maxWeakCount>
      <stageThreshold>-1.0321309566497803e+00</stageThreshold>
      <weakClassifiers>
        <_>
          <internalNodes>
            0 -1 118 6.0548027977347374e-03</internalNodes>
          <leafValues>
            -3.9137968420982361e-01 5.4930615425109863e-01</leafValues></_>
        <_>
          <internalNodes>
            0 -1 168 -2.3589464835822582e-03</internalNodes>
          <leafValues>
            4.3841934204101563e-01 -3.9506387710571289e-01</leafValues></_>
        <_>
          <internalNodes>
            0 -1 148 -9.8330155014991760e-03</internalNodes>
          <leafValues>
            -7.5946074724197388e-01 2.0148761570453644e-01</leafValues></_>
        <_>
          <internalNodes>
            0 -1 105 5.2846670150756836e-03</internalNodes>
          <leafValues>
            1.3499671220779419e-01 -1.2714089155197144e+00</leafValues></_>
        <_>
          <internalNodes>
            0 -1 217 -1.7357357137370855e-04</internalNodes>
          <leafValues>
            -5.4170978069305420e-01 2.6961168646812439e-01</leafValues></_>
        <_>
          <internalNodes>
            0 -1 82 -3.6995584378018975e-04</internalNodes>
          <leafValues>
            4.2413547635078430e-01 -3.5464701056480408e-01</leafValues></_>
        <_>
          <internalNodes>
            0 -1 71 -1.0093262419104576e-02</internalNodes>
          <leafValues>
            6.4631718397140503e-01 -2.6428529620170593e-01</leafValues></_>
        <_>
          <internalNodes>
            0 -1 34 2.7336510829627514e-03</internalNodes>
          <leafValues>
            -2.0901997387409210e-01 8.0856943130493164e-01</leafValues></_>
        <_>
          <internalNodes>
            0 -1 197 -4.2861783877015114e-03</internalNodes>
          <leafValues>
            -1.2656939029693604e+00 1.4419102668762207e-01</leafValues></_>
        <_>
          <internalNodes>
            0 -1 90 -2.1195499598979950e-01</internalNodes>
          <leafValues>
            9.2317193746566772e-01 -1.8403607606887817e-01</leafValues></_>
        <_>
          <internalNodes>
            0 -1 136 -3.8382638012990355e-04</internalNodes>
          <leafValues>
            -7.1242266893386841e-01 2.5309532880783081e-01</leafValues></_></weakClassifiers></_>
    <!-- stage 12 -->
    <_>
      <maxWeakCount>10</maxWeakCount>
      <stageThreshold>-1.1374908685684204e+00</stageThreshold>
      <weakClassifiers>
        <_>
          <internalNodes>
            0 -1 28 -1.1174381524324417e-01</internalNodes>
          <leafValues>
            -7.0464193820953369e-01 4.0198078751564026e-01</leafValues></_>
        <_>
          <internalNodes>
            0 -1 220 -5.9366616187617183e-04</internalNodes>
          <leafValues>
            6.5594321489334106e-01 -2.4461525678634644e-01</leafValues></_>
        <_>
          <internalNodes>
            0 -1 155 3.2545463182032108e-03</internalNodes>
          <leafValues>
            -3.7134242057800293e-01 4.4763210415840149e-01</leafValues></_>
        <_>
          <internalNodes>
            0 -1 58 2.6072503998875618e-02</internalNodes>
          <leafValues>
            -1.7149892449378967e-01 1.1024823188781738e+00</leafValues></_>
        <_>
          <internalNodes>
            0 -1 190 1.8566909711807966e-03</internalNodes>
          <leafValues>
            -2.9673266410827637e-01 5.2126497030258179e-01</leafValues></_>
        <_>
          <internalNodes>
            0 -1 196 1.2883332092314959e-03</internalNodes>
          <leafValues>
            -2.1619723737239838e-01 6.7213696241378784e-01</leafValues></_>
        <_>
          <internalNodes>
            0 -1 69 -6.0459336964413524e-04</internalNodes>
          <leafValues>
            5.3901988267898560e-01 -2.6648852229118347e-01</leafValues></_>
        <_>
          <internalNodes>
            0 -1 59 -1.1661558598279953e-01</internalNodes>
          <leafValues>
            -2.1901418268680573e-01 6.9755983352661133e-01</leafValues></_>
        <_>
          <internalNodes>
            0 -1 124 -6.9768279790878296e-03</internalNodes>
          <leafValues>
            -1.4266965389251709e+00 1.4342626929283142e-01</leafValues></_>
        <_>
          <internalNodes>
            0 -1 177 -3.7853722460567951e-05</internalNodes>
          <leafValues>
            3.2127979397773743e-01 -4.7485211491584778e-01</leafValues></_></weakClassifiers></_>
    <!-- stage 13 -->
    <_>
      <maxWeakCount>9</maxWeakCount>
      <stageThreshold>-1.0193004608154297e+00</stageThreshold>
      <weakClassifiers>
        <_>
          <internalNodes>
            0 -1 104 1.6523392871022224e-02</internalNodes>
          <leafValues>
            -4.8636603355407715e-01 2.4477411806583405e-01</leafValues></_>
        <_>
          <internalNodes>
            0 -1 154 -2.9680144507437944e-05</internalNodes>
          <leafValues>
            2.5182372331619263e-01 -5.4184931516647339e-01</leafValues></_>
        <_>
          <internalNodes>
            0 -1 203 -4.4139325618743896e-02</internalNodes>
          <leafValues>
            1.2411172389984131e+00 -1.4521564543247223e-01</leafValues></_>
        <_>
          <internalNodes>
            0 -1 191 1.6057156026363373e-02</internalNodes>
          <leafValues>
            -3.4541064500808716e-01 4.7527748346328735e-01</leafValues></_>
        <_>
          <internalNodes>
            0 -1 25 3.2917209900915623e-03</internalNodes>
          <leafValues>
            -2.1897764503955841e-01 6.7474031448364258e-01</leafValues></_>
        <_>
          <internalNodes>
            0 -1 62 3.6382360849529505e-03</internalNodes>
          <leafValues>
            -2.7456250786781311e-01 5.3942674398422241e-01</leafValues></_>
        <_>
          <internalNodes>
            0 -1 163 -4.7510082367807627e-04</internalNodes>
          <leafValues>
            -8.2553553581237793e-01 1.6497622430324554e-01</leafValues></_>
        <_>
          <internalNodes>
            0 -1 122 4.4699187856167555e-04</internalNodes>
          <leafValues>
            -3.7028047442436218e-01 3.4887537360191345e-01</leafValues></_>
        <_>
          <internalNodes>
            0 -1 135 2.0371162463561632e-05</internalNodes>
          <leafValues>
            -3.4145835041999817e-01 4.2487311363220215e-01</leafValues></_></weakClassifiers></_>
    <!-- stage 14 -->
    <_>
      <maxWeakCount>9</maxWeakCount>
      <stageThreshold>-1.1178567409515381e+00</stageThreshold>
      <weakClassifiers>
        <_>
          <internalNodes>
            0 -1 8 -3.9649296551942825e-02</internalNodes>
          <leafValues>
            -4.1886419057846069e-01 5.4930615425109863e-01</leafValues></_>
        <_>
          <internalNodes>
            0 -1 128 2.3949343711137772e-02</internalNodes>
          <leafValues>
            -3.4849801659584045e-01 5.0003808736801147e-01</leafValues></_>
        <_>
          <internalNodes>
            0 -1 169 -4.3114330619573593e-03</internalNodes>
          <leafValues>
            6.7207849025726318e-01 -2.1126613020896912e-01</leafValues></_>
        <_>
          <internalNodes>
            0 -1 65 8.3305187523365021e-02</internalNodes>
          <leafValues>
            -2.7376076579093933e-01 5.9856510162353516e-01</leafValues></_>
        <_>
          <internalNodes>
            0 -1 166 8.2461051642894745e-03</internalNodes>
          <leafValues>
            -3.2113277912139893e-01 4.2475607991218567e-01</leafValues></_>
        <_>
          <internalNodes>
            0 -1 96 -2.0205799955874681e-03</internalNodes>
          <leafValues>
            4.8054599761962891e-01 -3.0391302704811096e-01</leafValues></_>
        <_>
          <internalNodes>
            0 -1 113 -7.4606337584555149e-03</internalNodes>
          <leafValues>
            9.0657746791839600e-01 -2.0064803957939148e-01</leafValues></_>
        <_>
          <internalNodes>
            0 -1 159 -9.5803942531347275e-04</internalNodes>
          <leafValues>
            5.7125508785247803e-01 -2.1741531789302826e-01</leafValues></_>
        <_>
          <internalNodes>
            0 -1 227 -4.9528281670063734e-04</internalNodes>
          <leafValues>
            -4.0426963567733765e-01 3.0531573295593262e-01</leafValues></_></weakClassifiers></_>
    <!-- stage 15 -->
    <_>
      <maxWeakCount>11</maxWeakCount>
      <stageThreshold>-1.0228008031845093e+00</stageThreshold>
      <weakClassifiers>
        <_>
          <internalNodes>
            0 -1 27 -4.6426095068454742e-03</internalNodes>
          <leafValues>
            6.6750055551528931e-01 -2.7814400196075439e-01</leafValues></_>
        <_>
          <internalNodes>
            0 -1 13 8.7398931384086609e-02</internalNodes>
          <leafValues>
            -2.0054386556148529e-01 7.8610426187515259e-01</leafValues></_>
        <_>
          <internalNodes>
            0 -1 95 6.9221737794578075e-03</internalNodes>
          <leafValues>
            1.5326370298862457e-01 -1.0589643716812134e+00</leafValues></_>
        <_>
          <internalNodes>
            0 -1 150 -2.5837256544036791e-05</internalNodes>
          <leafValues>
            2.7333736419677734e-01 -5.2206796407699585e-01</leafValues></_>
        <_>
          <internalNodes>
            0 -1 205 2.9647379415109754e-04</internalNodes>
          <leafValues>
            -2.6325601339340210e-01 4.7439792752265930e-01</leafValues></_>
        <_>
          <internalNodes>
            0 -1 54 -2.1905988454818726e-02</internalNodes>
          <leafValues>
            -6.6309320926666260e-01 1.8321716785430908e-01</leafValues></_>
        <_>
          <internalNodes>
            0 -1 86 7.8942194581031799e-02</internalNodes>
          <leafValues>
            -3.3260160684585571e-01 4.4288387894630432e-01</leafValues></_>
        <_>
          <internalNodes>
            0 -1 24 -1.9570626318454742e-02</internalNodes>
          <leafValues>
            5.4363489151000977e-01 -2.7622514963150024e-01</leafValues></_>
        <_>
          <internalNodes>
            0 -1 153 5.2849664352834225e-03</internalNodes>
          <leafValues>
            -3.2352587580680847e-01 4.3461155891418457e-01</leafValues></_>
        <_>
          <internalNodes>
            0 -1 98 -1.1994303204119205e-03</internalNodes>
          <leafValues>
            -6.4767563343048096e-01 2.1973896026611328e-01</leafValues></_>
        <_>
          <internalNodes>
            0 -1 107 -2.2458527237176895e-03</internalNodes>
          <leafValues>
            -5.5988550186157227e-01 2.2762051224708557e-01</leafValues></_></weakClassifiers></_>
    <!-- stage 16 -->
    <_>
      <maxWeakCount>10</maxWeakCount>
      <stageThreshold>-8.8712579011917114e-01</stageThreshold>
      <weakClassifiers>
        <_>
          <internalNodes>
            0 -1 57 4.6246135607361794e-03</internalNodes>
          <leafValues>
            -2.9872006177902222e-01 8.4822463989257813e-01</leafValues></_>
        <_>
          <internalNodes>
            0 -1 19 -1.2534059584140778e-01</internalNodes>
          <leafValues>
            1.0170348882675171e+00 -1.3385556638240814e-01</leafValues></_>
        <_>
          <internalNodes>
            0 -1 123 -3.1896729487925768e-03</internalNodes>
          <leafValues>
            6.0345113277435303e-01 -2.1806259453296661e-01</leafValues></_>
        <_>
          <internalNodes>
            0 -1 51 -3.6366558633744717e-03</internalNodes>
          <leafValues>
            -8.6114275455474854e-01 1.6012613475322723e-01</leafValues></_>
        <_>
          <internalNodes>
            0 -1 156 -3.6890688352286816e-03</internalNodes>
          <leafValues>
            7.3056364059448242e-01 -1.6222850978374481e-01</leafValues></_>
        <_>
          <internalNodes>
            0 -1 157 8.3502773195505142e-03</internalNodes>
          <leafValues>
            1.2924826145172119e-01 -1.5603871345520020e+00</leafValues></_>
        <_>
          <internalNodes>
            0 -1 16 -1.4132871292531490e-03</internalNodes>
          <leafValues>
            -5.2330553531646729e-01 2.5478142499923706e-01</leafValues></_>
        <_>
          <internalNodes>
            0 -1 35 4.7683892771601677e-03</internalNodes>
          <leafValues>
            1.8556624650955200e-01 -8.7394338846206665e-01</leafValues></_>
        <_>
          <internalNodes>
            0 -1 214 -3.7812639493495226e-03</internalNodes>
          <leafValues>
            -4.9513754248619080e-01 2.3106275498867035e-01</leafValues></_>
        <_>
          <internalNodes>
            0 -1 179 -1.4412112534046173e-02</internalNodes>
          <leafValues>
            6.7637389898300171e-01 -2.3820060491561890e-01</leafValues></_></weakClassifiers></_>
    <!-- stage 17 -->
    <_>
      <maxWeakCount>12</maxWeakCount>
      <stageThreshold>-1.2412693500518799e+00</stageThreshold>
      <weakClassifiers>
        <_>
          <internalNodes>
            0 -1 42 6.0155820101499557e-03</internalNodes>
          <leafValues>
            -3.5145166516304016e-01 4.5222812891006470e-01</leafValues></_>
        <_>
          <internalNodes>
            0 -1 47 -1.7673404887318611e-02</internalNodes>
          <leafValues>
            6.2876188755035400e-01 -2.1370624005794525e-01</leafValues></_>
        <_>
          <internalNodes>
            0 -1 194 1.1943723075091839e-03</internalNodes>
          <leafValues>
            -1.7485588788986206e-01 6.1991482973098755e-01</leafValues></_>
        <_>
          <internalNodes>
            0 -1 224 -6.8114381283521652e-03</internalNodes>
          <leafValues>
            1.0297019481658936e+00 -1.5293322503566742e-01</leafValues></_>
        <_>
          <internalNodes>
            0 -1 199 -4.5391456224024296e-03</internalNodes>
          <leafValues>
            4.5575177669525146e-01 -2.5751307606697083e-01</leafValues></_>
        <_>
          <internalNodes>
            0 -1 114 -1.4978927538322750e-05</internalNodes>
          <leafValues>
            2.2492566704750061e-01 -5.6744951009750366e-01</leafValues></_>
        <_>
          <internalNodes>
            0 -1 137 7.8376254532486200e-04</internalNodes>
          <leafValues>
            -2.9663196206092834e-01 3.8762316107749939e-01</leafValues></_>
        <_>
          <internalNodes>
            0 -1 72 6.9357492029666901e-03</internalNodes>
          <leafValues>
            -1.5545901656150818e-01 8.1008213758468628e-01</leafValues></_>
        <_>
          <internalNodes>
            0 -1 93 -8.9036021381616592e-03</internalNodes>
          <leafValues>
            1.1392930746078491e+00 -1.5753225982189178e-01</leafValues></_>
        <_>
          <internalNodes>
            0 -1 120 4.4723874889314175e-03</internalNodes>
          <leafValues>
            1.4805912971496582e-01 -9.5304745435714722e-01</leafValues></_>
        <_>
          <internalNodes>
            0 -1 143 8.4661282016895711e-05</internalNodes>
          <leafValues>
            -4.3718019127845764e-01 2.8592678904533386e-01</leafValues></_>
        <_>
          <internalNodes>
            0 -1 55 3.1555620953440666e-03</internalNodes>
          <leafValues>
            -2.1176132559776306e-01 6.4193928241729736e-01</leafValues></_></weakClassifiers></_>
    <!-- stage 18 -->
    <_>
      <maxWeakCount>9</maxWeakCount>
      <stageThreshold>-8.3104223012924194e-01</stageThreshold>
      <weakClassifiers>
        <_>
          <internalNodes>
            0 -1 44 3.5276792943477631e-02</internalNodes>
          <leafValues>
            -2.5822180509567261e-01 1.5455212593078613e+00</leafValues></_>
        <_>
          <internalNodes>
            0 -1 56 -2.0128756761550903e-02</internalNodes>
          <leafValues>
            1.6122468709945679e+00 -1.0818994790315628e-01</leafValues></_>
        <_>
          <internalNodes>
            0 -1 170 1.3098269118927419e-04</internalNodes>
          <leafValues>
            -2.8033891320228577e-01 3.8215520977973938e-01</leafValues></_>
        <_>
          <internalNodes>
            0 -1 145 3.1556799076497555e-03</internalNodes>
          <leafValues>
            1.4308138191699982e-01 -8.6276400089263916e-01</leafValues></_>
        <_>
          <internalNodes>
            0 -1 127 2.1499641239643097e-02</internalNodes>
          <leafValues>
            1.1493890732526779e-01 -1.3972045183181763e+00</leafValues></_>
        <_>
          <internalNodes>
            0 -1 80 -9.2364952433854342e-04</internalNodes>
          <leafValues>
            4.2832857370376587e-01 -2.9031667113304138e-01</leafValues></_>
        <_>
          <internalNodes>
            0 -1 41 -3.2341416226699948e-04</internalNodes>
          <leafValues>
            -6.2723284959793091e-01 2.2543330490589142e-01</leafValues></_>
        <_>
          <internalNodes>
            0 -1 188 -2.9454538598656654e-03</internalNodes>
          <leafValues>
            7.2297364473342896e-01 -1.6850687563419342e-01</leafValues></_>
        <_>
          <internalNodes>
            0 -1 185 9.2531647533178329e-04</internalNodes>
          <leafValues>
            2.1039560437202454e-01 -5.8421558141708374e-01</leafValues></_></weakClassifiers></_>
    <!-- stage 19 -->
    <_>
      <maxWeakCount>13</maxWeakCount>
      <stageThreshold>-1.1244742870330811e+00</stageThreshold>
      <weakClassifiers>
        <_>
          <internalNodes>
            0 -1 186 5.3062509745359421e-02</internalNodes>
          <leafValues>
            -2.5828227400779724e-01 9.5211875438690186e-01</leafValues></_>
        <_>
          <internalNodes>
            0 -1 99 -1.5264764442690648e-05</internalNodes>
          <leafValues>
            2.9463565349578857e-01 -3.4876275062561035e-01</leafValues></_>
        <_>
          <internalNodes>
            0 -1 146 8.8234469294548035e-03</internalNodes>
          <leafValues>
            -1.7972992360591888e-01 6.5901249647140503e-01</leafValues></_>
        <_>
          <internalNodes>
            0 -1 2 -3.7602111697196960e-02</internalNodes>
          <leafValues>
            5.7660901546478271e-01 -2.4813063442707062e-01</leafValues></_>
        <_>
          <internalNodes>
            0 -1 110 3.0680825002491474e-03</internalNodes>
          <leafValues>
            1.1591943353414536e-01 -1.4867781400680542e+00</leafValues></_>
        <_>
          <internalNodes>
            0 -1 68 -3.9614923298358917e-02</internalNodes>
          <leafValues>
            8.1280261278152466e-01 -1.4857053756713867e-01</leafValues></_>
        <_>
          <internalNodes>
            0 -1 26 -2.0107348973397166e-04</internalNodes>
          <leafValues>
            4.3284288048744202e-01 -3.1870356202125549e-01</leafValues></_>
        <_>
          <internalNodes>
            0 -1 119 -4.2667025700211525e-03</internalNodes>
          <leafValues>
            8.7187165021896362e-01 -1.5567779541015625e-01</leafValues></_>
        <_>
          <internalNodes>
            0 -1 61 7.8766196966171265e-03</internalNodes>
          <leafValues>
            -2.9394581913948059e-01 4.3155014514923096e-01</leafValues></_>
        <_>
          <internalNodes>
            0 -1 66 -4.3637171620503068e-04</internalNodes>
          <leafValues>
            3.7598723173141479e-01 -3.2990166544914246e-01</leafValues></_>
        <_>
          <internalNodes>
            0 -1 142 1.0372033575549722e-03</internalNodes>
          <leafValues>
            -2.5626614689826965e-01 4.7835505008697510e-01</leafValues></_>
        <_>
          <internalNodes>
            0 -1 184 -9.7822397947311401e-05</internalNodes>
          <leafValues>
            3.2198342680931091e-01 -4.2122584581375122e-01</leafValues></_>
        <_>
          <internalNodes>
            0 -1 226 -1.3446988537907600e-02</internalNodes>
          <leafValues>
            -6.4020305871963501e-01 2.6763105392456055e-01</leafValues></_></weakClassifiers></_>
    <!-- stage 20 -->
    <_>
      <maxWeakCount>12</maxWeakCount>
      <stageThreshold>-7.7560091018676758e-01</stageThreshold>
      <weakClassifiers>
        <_>
          <internalNodes>
            0 -1 171 -3.6445976002141833e-04</internalNodes>
          <leafValues>
            3.0389365553855896e-01 -3.8885229825973511e-01</leafValues></_>
        <_>
          <internalNodes>
            0 -1 39 3.8562458939850330e-03</internalNodes>
          <leafValues>
            -2.0775918662548065e-01 5.6671208143234253e-01</leafValues></_>
        <_>
          <internalNodes>
            0 -1 88 2.3041018284857273e-03</internalNodes>
          <leafValues>
            2.1902728080749512e-01 -5.0807410478591919e-01</leafValues></_>
        <_>
          <internalNodes>
            0 -1 5 1.4276828733272851e-04</internalNodes>
          <leafValues>
            3.1521198153495789e-01 -2.9927179217338562e-01</leafValues></_>
        <_>
          <internalNodes>
            0 -1 198 -3.8694881368428469e-04</internalNodes>
          <leafValues>
            4.9764299392700195e-01 -2.2943107783794403e-01</leafValues></_>
        <_>
          <internalNodes>
            0 -1 49 -2.0507466048002243e-02</internalNodes>
          <leafValues>
            1.6726907491683960e+00 -9.8426550626754761e-02</leafValues></_>
        <_>
          <internalNodes>
            0 -1 189 2.2285955492407084e-03</internalNodes>
          <leafValues>
            -3.5181939601898193e-01 3.2601550221443176e-01</leafValues></_>
        <_>
          <internalNodes>
            0 -1 126 4.8225089907646179e-02</internalNodes>
          <leafValues>
            -1.1379685997962952e-01 1.4599878787994385e+00</leafValues></_>
        <_>
          <internalNodes>
            0 -1 225 5.2730673924088478e-03</internalNodes>
          <leafValues>
            -1.7715938389301300e-01 7.1357256174087524e-01</leafValues></_>
        <_>
          <internalNodes>
            0 -1 14 1.0338241700083017e-03</internalNodes>
          <leafValues>
            -2.3755790293216705e-01 5.3240817785263062e-01</leafValues></_>
        <_>
          <internalNodes>
            0 -1 223 1.3647290877997875e-02</internalNodes>
          <leafValues>
            -2.9463520646095276e-01 4.2185953259468079e-01</leafValues></_>
        <_>
          <internalNodes>
            0 -1 63 -1.8764305859804153e-03</internalNodes>
          <leafValues>
            -7.7896922826766968e-01 1.7659492790699005e-01</leafValues></_></weakClassifiers></_>
    <!-- stage 21 -->
    <_>
      <maxWeakCount>14</maxWeakCount>
      <stageThreshold>-9.6450132131576538e-01</stageThreshold>
      <weakClassifiers>
        <_>
          <internalNodes>
            0 -1 173 -5.1032193005084991e-04</internalNodes>
          <leafValues>
            1.8342514336109161e-01 -4.7317153215408325e-01</leafValues></_>
        <_>
          <internalNodes>
            0 -1 139 8.9974477887153625e-03</internalNodes>
          <leafValues>
            1.3446632027626038e-01 -9.3776309490203857e-01</leafValues></_>
        <_>
          <internalNodes>
            0 -1 111 -1.5237725165206939e-05</internalNodes>
          <leafValues>
            2.4608077108860016e-01 -4.0488311648368835e-01</leafValues></_>
        <_>
          <internalNodes>
            0 -1 17 -1.6841571778059006e-02</internalNodes>
          <leafValues>
            6.2048739194869995e-01 -1.8979541957378387e-01</leafValues></_>
        <_>
          <internalNodes>
            0 -1 22 3.8298307918012142e-03</internalNodes>
          <leafValues>
            -2.9056328535079956e-01 4.5567825436592102e-01</leafValues></_>
        <_>
          <internalNodes>
            0 -1 213 -1.3359982986003160e-03</internalNodes>
          <leafValues>
            -7.4203491210937500e-01 1.7079490423202515e-01</leafValues></_>
        <_>
          <internalNodes>
            0 -1 206 2.3727286607027054e-03</internalNodes>
          <leafValues>
            -2.3189879953861237e-01 4.8860016465187073e-01</leafValues></_>
        <_>
          <internalNodes>
            0 -1 201 3.5275392234325409e-02</internalNodes>
          <leafValues>
            -1.3934895396232605e-01 9.5715129375457764e-01</leafValues></_>
        <_>
          <internalNodes>
            0 -1 45 -3.4874520497396588e-04</internalNodes>
          <leafValues>
            5.4143100976943970e-01 -1.9805617630481720e-01</leafValues></_>
        <_>
          <internalNodes>
            0 -1 36 -7.5945585966110229e-02</internalNodes>
          <leafValues>
            -4.5106798410415649e-01 2.5559559464454651e-01</leafValues></_>
        <_>
          <internalNodes>
            0 -1 125 -1.4610390644520521e-04</internalNodes>
          <leafValues>
            5.5808639526367188e-01 -2.0629148185253143e-01</leafValues></_>
        <_>
          <internalNodes>
            0 -1 73 1.4949295436963439e-03</internalNodes>
          <leafValues>
            -1.7867210507392883e-01 8.3182680606842041e-01</leafValues></_>
        <_>
          <internalNodes>
            0 -1 92 -1.7741235205903649e-04</internalNodes>
          <leafValues>
            -5.2434241771697998e-01 2.9371666908264160e-01</leafValues></_>
        <_>
          <internalNodes>
            0 -1 174 2.9021692462265491e-03</internalNodes>
          <leafValues>
            1.7558686435222626e-01 -6.8952703475952148e-01</leafValues></_></weakClassifiers></_>
    <!-- stage 22 -->
    <_>
      <maxWeakCount>12</maxWeakCount>
      <stageThreshold>-1.0271404981613159e+00</stageThreshold>
      <weakClassifiers>
        <_>
          <internalNodes>
            0 -1 48 -3.6260657012462616e-02</internalNodes>
          <leafValues>
            1.7005987167358398e+00 -2.1330377459526062e-01</leafValues></_>
        <_>
          <internalNodes>
            0 -1 83 1.8378619570285082e-03</internalNodes>
          <leafValues>
            -1.7860537767410278e-01 6.6429406404495239e-01</leafValues></_>
        <_>
          <internalNodes>
            0 -1 208 -3.8141738623380661e-02</internalNodes>
          <leafValues>
            1.0222163200378418e+00 -1.2802769243717194e-01</leafValues></_>
        <_>
          <internalNodes>
            0 -1 108 9.8366965539753437e-04</internalNodes>
          <leafValues>
            -4.0876859426498413e-01 2.3272016644477844e-01</leafValues></_>
        <_>
          <internalNodes>
            0 -1 31 2.2588111460208893e-02</internalNodes>
          <leafValues>
            -1.1501297354698181e-01 9.8751974105834961e-01</leafValues></_>
        <_>
          <internalNodes>
            0 -1 20 -9.8971452098339796e-04</internalNodes>
          <leafValues>
            -4.6271228790283203e-01 2.1848702430725098e-01</leafValues></_>
        <_>
          <internalNodes>
            0 -1 77 -9.8964059725403786e-04</internalNodes>
          <leafValues>
            -7.8912526369094849e-01 1.3686633110046387e-01</leafValues></_>
        <_>
          <internalNodes>
            0 -1 91 2.8975907480344176e-04</internalNodes>
          <leafValues>
            -2.2405165433883667e-01 5.8834946155548096e-01</leafValues></_>
        <_>
          <internalNodes>
            0 -1 181 -1.2956488877534866e-02</internalNodes>
          <leafValues>
            2.4848334491252899e-01 -4.8584637045860291e-01</leafValues></_>
        <_>
          <internalNodes>
            0 -1 164 -3.9907574653625488e-02</internalNodes>
          <leafValues>
            -2.2394934296607971e-01 4.5980617403984070e-01</leafValues></_>
        <_>
          <internalNodes>
            0 -1 1 7.5430441647768021e-03</internalNodes>
          <leafValues>
            -1.6906465590000153e-01 7.5521498918533325e-01</leafValues></_>
        <_>
          <internalNodes>
            0 -1 165 -7.3414016515016556e-04</internalNodes>
          <leafValues>
            -6.1499977111816406e-01 1.8310798704624176e-01</leafValues></_></weakClassifiers></_>
    <!-- stage 23 -->
    <_>
      <maxWeakCount>12</maxWeakCount>
      <stageThreshold>-8.4798079729080200e-01</stageThreshold>
      <weakClassifiers>
        <_>
          <internalNodes>
            0 -1 46 -2.7934638783335686e-03</internalNodes>
          <leafValues>
            5.3392028808593750e-01 -2.9023700952529907e-01</leafValues></_>
        <_>
          <internalNodes>
            0 -1 7 -2.6733212172985077e-02</internalNodes>
          <leafValues>
            -1.9639693200588226e-01 5.7456368207931519e-01</leafValues></_>
        <_>
          <internalNodes>
            0 -1 70 -1.3494046870619059e-03</internalNodes>
          <leafValues>
            5.2267897129058838e-01 -1.6889879107475281e-01</leafValues></_>
        <_>
          <internalNodes>
            0 -1 67 -3.1653821468353271e-02</internalNodes>
          <leafValues>
            1.2625007629394531e+00 -9.7335480153560638e-02</leafValues></_>
        <_>
          <internalNodes>
            0 -1 204 -1.6096796607598662e-03</internalNodes>
          <leafValues>
            6.6977828741073608e-01 -1.7343524098396301e-01</leafValues></_>
        <_>
          <internalNodes>
            0 -1 115 -6.1746085993945599e-03</internalNodes>
          <leafValues>
            -1.1616823673248291e+00 1.1201604455709457e-01</leafValues></_>
        <_>
          <internalNodes>
            0 -1 52 2.9086251743137836e-03</internalNodes>
          <leafValues>
            1.0585760325193405e-01 -1.4946215152740479e+00</leafValues></_>
        <_>
          <internalNodes>
            0 -1 102 3.2350665424019098e-04</internalNodes>
          <leafValues>
            -1.8536479771137238e-01 7.8179717063903809e-01</leafValues></_>
        <_>
          <internalNodes>
            0 -1 87 -8.0054072896018624e-05</internalNodes>
          <leafValues>
            -4.7631099820137024e-01 2.4408990144729614e-01</leafValues></_>
        <_>
          <internalNodes>
            0 -1 53 -3.2810266129672527e-03</internalNodes>
          <leafValues>
            6.0919666290283203e-01 -1.9032764434814453e-01</leafValues></_>
        <_>
          <internalNodes>
            0 -1 109 5.2832961082458496e-03</internalNodes>
          <leafValues>
            -3.1026726961135864e-01 3.3035716414451599e-01</leafValues></_>
        <_>
          <internalNodes>
            0 -1 134 -2.7739508077502251e-03</internalNodes>
          <leafValues>
            3.3863100409507751e-01 -3.3830568194389343e-01</leafValues></_></weakClassifiers></_>
    <!-- stage 24 -->
    <_>
      <maxWeakCount>10</maxWeakCount>
      <stageThreshold>-7.2997885942459106e-01</stageThreshold>
      <weakClassifiers>
        <_>
          <internalNodes>
            0 -1 75 1.5034623444080353e-02</internalNodes>
          <leafValues>
            -3.9366719126701355e-01 2.6341298222541809e-01</leafValues></_>
        <_>
          <internalNodes>
            0 -1 222 2.0967393647879362e-03</internalNodes>
          <leafValues>
            -1.4513066411018372e-01 7.7789825201034546e-01</leafValues></_>
        <_>
          <internalNodes>
            0 -1 100 -3.9604511111974716e-03</internalNodes>
          <leafValues>
            -8.9023655652999878e-01 1.2917578220367432e-01</leafValues></_>
        <_>
          <internalNodes>
            0 -1 78 2.3888982832431793e-03</internalNodes>
          <leafValues>
            1.2830212712287903e-01 -9.8030203580856323e-01</leafValues></_>
        <_>
          <internalNodes>
            0 -1 10 -2.6430491358041763e-02</internalNodes>
          <leafValues>
            -9.4226425886154175e-01 1.2368531525135040e-01</leafValues></_>
        <_>
          <internalNodes>
            0 -1 50 5.3982688114047050e-03</internalNodes>
          <leafValues>
            -1.1696861684322357e-01 1.0630451440811157e+00</leafValues></_>
        <_>
          <internalNodes>
            0 -1 152 -4.2912783101201057e-04</internalNodes>
          <leafValues>
            -4.8688903450965881e-01 2.3397408425807953e-01</leafValues></_>
        <_>
          <internalNodes>
            0 -1 195 1.5763103961944580e-02</internalNodes>
          <leafValues>
            -4.1891500353813171e-01 2.7768275141716003e-01</leafValues></_>
        <_>
          <internalNodes>
            0 -1 106 3.1541083008050919e-03</internalNodes>
          <leafValues>
            2.1980938315391541e-01 -5.4061102867126465e-01</leafValues></_>
        <_>
          <internalNodes>
            0 -1 211 2.4772998876869678e-03</internalNodes>
          <leafValues>
            -1.6742946207523346e-01 7.2597897052764893e-01</leafValues></_></weakClassifiers></_></stages>
  <features>
    <_>
      <rects>
        <_>
          0 0 1 18 -1.</_>
        <_>
          0 9 1 9 2.</_></rects>
      <tilted>0</tilted></_>
    <_>
      <rects>
        <_>
          0 0 2 15 -1.</_>
        <_>
          1 0 1 15 2.</_></rects>
      <tilted>0</tilted></_>
    <_>
      <rects>
        <_>
          0 0 6 20 -1.</_>
        <_>
          0 0 3 10 2.</_>
        <_>
          3 10 3 10 2.</_></rects>
      <tilted>0</tilted></_>
    <_>
      <rects>
        <_>
          0 0 14 2 -1.</_>
        <_>
          0 0 7 1 2.</_>
        <_>
          7 1 7 1 2.</_></rects>
      <tilted>0</tilted></_>
    <_>
      <rects>
        <_>
          0 1 3 17 -1.</_>
        <_>
          1 1 1 17 2.</_></rects>
      <tilted>0</tilted></_>
    <_>
      <rects>
        <_>
          0 1 2 10 -1.</_>
        <_>
          0 6 2 5 2.</_></rects>
      <tilted>0</tilted></_>
    <_>
      <rects>
        <_>
          0 1 24 10 -1.</_>
        <_>
          6 1 12 10 2.</_></rects>
      <tilted>0</tilted></_>
    <_>
      <rects>
        <_>
          0 1 21 1 -1.</_>
        <_>
          7 1 7 1 2.</_></rects>
      <tilted>0</tilted></_>
    <_>
      <rects>
        <_>
          0 1 24 1 -1.</_>
        <_>
          8 1 8 1 2.</_></rects>
      <tilted>0</tilted></_>
    <_>
      <rects>
        <_>
          0 1 19 14 -1.</_>
        <_>
          0 8 19 7 2.</_></rects>
      <tilted>0</tilted></_>
    <_>
      <rects>
        <_>
          0 3 1 20 -1.</_>
        <_>
          0 13 1 10 2.</_></rects>
      <tilted>0</tilted></_>
    <_>
      <rects>
        <_>
          0 3 8 16 -1.</_>
        <_>
          2 3 4 16 2.</_></rects>
      <tilted>0</tilted></_>
    <_>
      <rects>
        <_>
          0 3 8 20 -1.</_>
        <_>
          2 3 4 20 2.</_></rects>
      <tilted>0</tilted></_>
    <_>
      <rects>
        <_>
          0 3 6 17 -1.</_>
        <_>
          3 3 3 17 2.</_></rects>
      <tilted>0</tilted></_>
    <_>
      <rects>
        <_>
          0 3 8 2 -1.</_>
        <_>
          0 3 4 1 2.</_>
        <_>
          4 4 4 1 2.</_></rects>
      <tilted>0</tilted></_>
    <_>
      <rects>
        <_>
          0 3 24 3 -1.</_>
        <_>
          6 3 12 3 2.</_></rects>
      <tilted>0</tilted></_>
    <_>
      <rects>
        <_>
          0 5 3 4 -1.</_>
        <_>
          0 7 3 2 2.</_></rects>
      <tilted>0</tilted></_>
    <_>
      <rects>
        <_>
          0 6 4 16 -1.</_>
        <_>
          2 6 2 16 2.</_></rects>
      <tilted>0</tilted></_>
    <_>
      <rects>
        <_>
          0 7 4 11 -1.</_>
        <_>
          2 7 2 11 2.</_></rects>
      <tilted>0</tilted></_>
    <_>
      <rects>
        <_>
          0 7 8 15 -1.</_>
        <_>
          4 7 4 15 2.</_></rects>
      <tilted>0</tilted></_>
    <_>
      <rects>
        <_>
          0 8 1 12 -1.</_>
        <_>
          0 11 1 6 2.</_></rects>
      <tilted>0</tilted></_>
    <_>
      <rects>
        <_>
          0 8 4 16 -1.</_>
        <_>
          2 8 2 16 2.</_></rects>
      <tilted>0</tilted></_>
    <_>
      <rects>
        <_>
          0 12 8 6 -1.</_>
        <_>
          2 12 4 6 2.</_></rects>
      <tilted>0</tilted></_>
    <_>
      <rects>
        <_>
          0 14 6 10 -1.</_>
        <_>
          3 14 3 10 2.</_></rects>
      <tilted>0</tilted></_>
    <_>
      <rects>
        <_>
          0 14 16 7 -1.</_>
        <_>
          4 14 8 7 2.</_></rects>
      <tilted>0</tilted></_>
    <_>
      <rects>
        <_>
          0 17 5 6 -1.</_>
        <_>
          0 20 5 3 2.</_></rects>
      <tilted>0</tilted></_>
    <_>
      <rects>
        <_>
          0 21 8 2 -1.</_>
        <_>
          0 21 4 1 2.</_>
        <_>
          4 22 4 1 2.</_></rects>
      <tilted>0</tilted></_>
    <_>
      <rects>
        <_>
          1 0 2 17 -1.</_>
        <_>
          2 0 1 17 2.</_></rects>
      <tilted>0</tilted></_>
    <_>
      <rects>
        <_>
          1 0 9 4 -1.</_>
        <_>
          4 0 3 4 2.</_></rects>
      <tilted>0</tilted></_>
    <_>
      <rects>
        <_>
          1 0 12 2 -1.</_>
        <_>
          1 0 6 1 2.</_>
        <_>
          7 1 6 1 2.</_></rects>
      <tilted>0</tilted></_>
    <_>
      <rects>
        <_>
          1 0 12 12 -1.</_>
        <_>
          1 3 12 6 2.</_></rects>
      <tilted>0</tilted></_>
    <_>
      <rects>
        <_>
          1 1 6 12 -1.</_>
        <_>
          1 1 3 6 2.</_>
        <_>
          4 7 3 6 2.</_></rects>
      <tilted>0</tilted></_>
    <_>
      <rects>
        <_>
          1 2 7 16 -1.</_>
        <_>
          1 6 7 8 2.</_></rects>
      <tilted>0</tilted></_>
    <_>
      <rects>
        <_>
          1 3 16 1 -1.</_>
        <_>
          5 7 8 1 2.</_></rects>
      <tilted>1</tilted></_>
    <_>
      <rects>
        <_>
          1 10 2 14 -1.</_>
        <_>
          1 10 1 7 2.</_>
        <_>
          2 17 1 7 2.</_></rects>
      <tilted>0</tilted></_>
    <_>
      <rects>
        <_>
          1 12 18 4 -1.</_>
        <_>
          1 13 18 2 2.</_></rects>
      <tilted>0</tilted></_>
    <_>
      <rects>
        <_>
          1 15 3 9 -1.</_>
        <_>
          1 18 3 3 2.</_></rects>
      <tilted>0</tilted></_>
    <_>
      <rects>
        <_>
          1 20 4 1 -1.</_>
        <_>
          2 20 2 1 2.</_></rects>
      <tilted>0</tilted></_>
    <_>
      <rects>
        <_>
          2 0 1 15 -1.</_>
        <_>
          2 5 1 5 2.</_></rects>
      <tilted>0</tilted></_>
    <_>
      <rects>
        <_>
          2 0 10 2 -1.</_>
        <_>
          2 0 5 1 2.</_>
        <_>
          7 1 5 1 2.</_></rects>
      <tilted>0</tilted></_>
    <_>
      <rects>
        <_>
          2 0 16 8 -1.</_>
        <_>
          2 2 16 4 2.</_></rects>
      <tilted>0</tilted></_>
    <_>
      <rects>
        <_>
          2 1 1 4 -1.</_>
        <_>
          2 3 1 2 2.</_></rects>
      <tilted>0</tilted></_>
    <_>
      <rects>
        <_>
          2 1 12 2 -1.</_>
        <_>
          2 2 12 1 2.</_></rects>
      <tilted>0</tilted></_>
    <_>
      <rects>
        <_>
          2 2 6 2 -1.</_>
        <_>
          4 4 2 2 3.</_></rects>
      <tilted>1</tilted></_>
    <_>
      <rects>
        <_>
          2 2 20 1 -1.</_>
        <_>
          7 2 10 1 2.</_></rects>
      <tilted>0</tilted></_>
    <_>
      <rects>
        <_>
          2 4 4 2 -1.</_>
        <_>
          2 4 2 1 2.</_>
        <_>
          4 5 2 1 2.</_></rects>
      <tilted>0</tilted></_>
    <_>
      <rects>
        <_>
          2 14 3 2 -1.</_>
        <_>
          2 14 3 1 2.</_></rects>
      <tilted>1</tilted></_>
    <_>
      <rects>
        <_>
          2 16 14 6 -1.</_>
        <_>
          2 16 7 3 2.</_>
        <_>
          9 19 7 3 2.</_></rects>
      <tilted>0</tilted></_>
    <_>
      <rects>
        <_>
          2 21 20 1 -1.</_>
        <_>
          7 21 10 1 2.</_></rects>
      <tilted>0</tilted></_>
    <_>
      <rects>
        <_>
          3 0 4 10 -1.</_>
        <_>
          3 0 2 5 2.</_>
        <_>
          5 5 2 5 2.</_></rects>
      <tilted>0</tilted></_>
    <_>
      <rects>
        <_>
          3 1 2 16 -1.</_>
        <_>
          3 1 1 8 2.</_>
        <_>
          4 9 1 8 2.</_></rects>
      <tilted>0</tilted></_>
    <_>
      <rects>
        <_>
          3 1 11 2 -1.</_>
        <_>
          3 1 11 1 2.</_></rects>
      <tilted>1</tilted></_>
    <_>
      <rects>
        <_>
          3 3 1 3 -1.</_>
        <_>
          2 4 1 1 3.</_></rects>
      <tilted>1</tilted></_>
    <_>
      <rects>
        <_>
          3 6 6 2 -1.</_>
        <_>
          5 8 2 2 3.</_></rects>
      <tilted>1</tilted></_>
    <_>
      <rects>
        <_>
          3 19 3 2 -1.</_>
        <_>
          4 19 1 2 2.</_></rects>
      <tilted>0</tilted></_>
    <_>
      <rects>
        <_>
          3 21 6 3 -1.</_>
        <_>
          5 22 2 1 9.</_></rects>
      <tilted>0</tilted></_>
    <_>
      <rects>
        <_>
          3 22 10 1 -1.</_>
        <_>
          8 22 5 1 2.</_></rects>
      <tilted>0</tilted></_>
    <_>
      <rects>
        <_>
          4 0 4 4 -1.</_>
        <_>
          4 0 2 2 2.</_>
        <_>
          6 2 2 2 2.</_></rects>
      <tilted>0</tilted></_>
    <_>
      <rects>
        <_>
          4 0 4 6 -1.</_>
        <_>
          4 3 4 3 2.</_></rects>
      <tilted>0</tilted></_>
    <_>
      <rects>
        <_>
          4 0 18 3 -1.</_>
        <_>
          4 1 18 1 2.</_></rects>
      <tilted>0</tilted></_>
    <_>
      <rects>
        <_>
          4 1 2 4 -1.</_>
        <_>
          4 1 1 2 2.</_>
        <_>
          5 3 1 2 2.</_></rects>
      <tilted>0</tilted></_>
    <_>
      <rects>
        <_>
          4 1 1 20 -1.</_>
        <_>
          4 6 1 10 2.</_></rects>
      <tilted>0</tilted></_>
    <_>
      <rects>
        <_>
          4 1 17 4 -1.</_>
        <_>
          4 2 17 2 2.</_></rects>
      <tilted>0</tilted></_>
    <_>
      <rects>
        <_>
          4 2 2 4 -1.</_>
        <_>
          3 3 2 2 2.</_></rects>
      <tilted>1</tilted></_>
    <_>
      <rects>
        <_>
          4 3 6 2 -1.</_>
        <_>
          7 3 3 2 2.</_></rects>
      <tilted>0</tilted></_>
    <_>
      <rects>
        <_>
          4 3 14 3 -1.</_>
        <_>
          4 3 7 3 2.</_></rects>
      <tilted>1</tilted></_>
    <_>
      <rects>
        <_>
          4 4 19 2 -1.</_>
        <_>
          4 5 19 1 2.</_></rects>
      <tilted>0</tilted></_>
    <_>
      <rects>
        <_>
          4 12 6 12 -1.</_>
        <_>
          4 12 3 6 2.</_>
        <_>
          7 18 3 6 2.</_></rects>
      <tilted>0</tilted></_>
    <_>
      <rects>
        <_>
          4 14 12 10 -1.</_>
        <_>
          4 14 6 5 2.</_>
        <_>
          10 19 6 5 2.</_></rects>
      <tilted>0</tilted></_>
    <_>
      <rects>
        <_>
          4 18 1 4 -1.</_>
        <_>
          4 18 1 2 2.</_></rects>
      <tilted>1</tilted></_>
    <_>
      <rects>
        <_>
          4 21 4 2 -1.</_>
        <_>
          4 22 4 1 2.</_></rects>
      <tilted>0</tilted></_>
    <_>
      <rects>
        <_>
          5 0 6 1 -1.</_>
        <_>
          5 0 3 1 2.</_></rects>
      <tilted>1</tilted></_>
    <_>
      <rects>
        <_>
          5 1 3 5 -1.</_>
        <_>
          6 2 1 5 3.</_></rects>
      <tilted>1</tilted></_>
    <_>
      <rects>
        <_>
          5 1 4 2 -1.</_>
        <_>
          5 1 2 1 2.</_>
        <_>
          7 2 2 1 2.</_></rects>
      <tilted>0</tilted></_>
    <_>
      <rects>
        <_>
          5 1 8 2 -1.</_>
        <_>
          5 1 4 1 2.</_>
        <_>
          9 2 4 1 2.</_></rects>
      <tilted>0</tilted></_>
    <_>
      <rects>
        <_>
          5 2 16 8 -1.</_>
        <_>
          5 4 16 4 2.</_></rects>
      <tilted>0</tilted></_>
    <_>
      <rects>
        <_>
          5 9 10 8 -1.</_>
        <_>
          5 9 5 4 2.</_>
        <_>
          10 13 5 4 2.</_></rects>
      <tilted>0</tilted></_>
    <_>
      <rects>
        <_>
          5 13 4 1 -1.</_>
        <_>
          7 13 2 1 2.</_></rects>
      <tilted>0</tilted></_>
    <_>
      <rects>
        <_>
          5 14 3 2 -1.</_>
        <_>
          6 15 1 2 3.</_></rects>
      <tilted>1</tilted></_>
    <_>
      <rects>
        <_>
          5 14 2 4 -1.</_>
        <_>
          5 14 1 4 2.</_></rects>
      <tilted>1</tilted></_>
    <_>
      <rects>
        <_>
          5 17 4 2 -1.</_>
        <_>
          5 18 4 1 2.</_></rects>
      <tilted>0</tilted></_>
    <_>
      <rects>
        <_>
          5 18 3 6 -1.</_>
        <_>
          5 20 3 2 2.</_></rects>
      <tilted>0</tilted></_>
    <_>
      <rects>
        <_>
          5 22 6 2 -1.</_>
        <_>
          5 23 6 1 2.</_></rects>
      <tilted>0</tilted></_>
    <_>
      <rects>
        <_>
          6 0 4 2 -1.</_>
        <_>
          6 0 2 1 2.</_>
        <_>
          8 1 2 1 2.</_></rects>
      <tilted>0</tilted></_>
    <_>
      <rects>
        <_>
          6 0 6 4 -1.</_>
        <_>
          8 2 2 4 3.</_></rects>
      <tilted>1</tilted></_>
    <_>
      <rects>
        <_>
          6 0 4 5 -1.</_>
        <_>
          6 0 2 5 2.</_></rects>
      <tilted>1</tilted></_>
    <_>
      <rects>
        <_>
          6 0 18 4 -1.</_>
        <_>
          12 6 6 4 3.</_></rects>
      <tilted>1</tilted></_>
    <_>
      <rects>
        <_>
          6 5 4 4 -1.</_>
        <_>
          6 6 4 2 2.</_></rects>
      <tilted>0</tilted></_>
    <_>
      <rects>
        <_>
          6 8 1 12 -1.</_>
        <_>
          6 11 1 6 2.</_></rects>
      <tilted>0</tilted></_>
    <_>
      <rects>
        <_>
          6 11 17 2 -1.</_>
        <_>
          6 12 17 1 2.</_></rects>
      <tilted>0</tilted></_>
    <_>
      <rects>
        <_>
          6 12 18 12 -1.</_>
        <_>
          12 16 6 4 9.</_></rects>
      <tilted>0</tilted></_>
    <_>
      <rects>
        <_>
          6 20 4 2 -1.</_>
        <_>
          6 20 2 1 2.</_>
        <_>
          8 21 2 1 2.</_></rects>
      <tilted>0</tilted></_>
    <_>
      <rects>
        <_>
          7 0 1 4 -1.</_>
        <_>
          6 1 1 2 2.</_></rects>
      <tilted>1</tilted></_>
    <_>
      <rects>
        <_>
          7 0 3 7 -1.</_>
        <_>
          8 1 1 7 3.</_></rects>
      <tilted>1</tilted></_>
    <_>
      <rects>
        <_>
          7 0 6 24 -1.</_>
        <_>
          7 0 3 12 2.</_>
        <_>
          10 12 3 12 2.</_></rects>
      <tilted>0</tilted></_>
    <_>
      <rects>
        <_>
          7 1 4 21 -1.</_>
        <_>
          8 1 2 21 2.</_></rects>
      <tilted>0</tilted></_>
    <_>
      <rects>
        <_>
          7 2 2 22 -1.</_>
        <_>
          7 2 1 11 2.</_>
        <_>
          8 13 1 11 2.</_></rects>
      <tilted>0</tilted></_>
    <_>
      <rects>
        <_>
          7 6 15 12 -1.</_>
        <_>
          7 12 15 6 2.</_></rects>
      <tilted>0</tilted></_>
    <_>
      <rects>
        <_>
          7 9 4 3 -1.</_>
        <_>
          7 9 2 3 2.</_></rects>
      <tilted>1</tilted></_>
    <_>
      <rects>
        <_>
          7 10 1 2 -1.</_>
        <_>
          7 11 1 1 2.</_></rects>
      <tilted>0</tilted></_>
    <_>
      <rects>
        <_>
          7 11 3 5 -1.</_>
        <_>
          8 12 1 5 3.</_></rects>
      <tilted>1</tilted></_>
    <_>
      <rects>
        <_>
          7 13 1 2 -1.</_>
        <_>
          7 14 1 1 2.</_></rects>
      <tilted>0</tilted></_>
    <_>
      <rects>
        <_>
          8 0 2 2 -1.</_>
        <_>
          8 0 1 1 2.</_>
        <_>
          9 1 1 1 2.</_></rects>
      <tilted>0</tilted></_>
    <_>
      <rects>
        <_>
          8 0 2 8 -1.</_>
        <_>
          8 0 1 8 2.</_></rects>
      <tilted>1</tilted></_>
    <_>
      <rects>
        <_>
          8 0 8 12 -1.</_>
        <_>
          8 3 8 6 2.</_></rects>
      <tilted>0</tilted></_>
    <_>
      <rects>
        <_>
          8 1 3 4 -1.</_>
        <_>
          7 2 3 2 2.</_></rects>
      <tilted>1</tilted></_>
    <_>
      <rects>
        <_>
          8 1 6 2 -1.</_>
        <_>
          8 1 6 1 2.</_></rects>
      <tilted>1</tilted></_>
    <_>
      <rects>
        <_>
          8 1 14 3 -1.</_>
        <_>
          7 2 14 1 3.</_></rects>
      <tilted>1</tilted></_>
    <_>
      <rects>
        <_>
          8 4 6 5 -1.</_>
        <_>
          8 4 3 5 2.</_></rects>
      <tilted>1</tilted></_>
    <_>
      <rects>
        <_>
          8 5 8 8 -1.</_>
        <_>
          6 7 8 4 2.</_></rects>
      <tilted>1</tilted></_>
    <_>
      <rects>
        <_>
          8 7 4 6 -1.</_>
        <_>
          8 7 2 3 2.</_>
        <_>
          10 10 2 3 2.</_></rects>
      <tilted>0</tilted></_>
    <_>
      <rects>
        <_>
          8 12 1 2 -1.</_>
        <_>
          8 13 1 1 2.</_></rects>
      <tilted>0</tilted></_>
    <_>
      <rects>
        <_>
          8 12 7 2 -1.</_>
        <_>
          8 12 7 1 2.</_></rects>
      <tilted>1</tilted></_>
    <_>
      <rects>
        <_>
          8 15 1 8 -1.</_>
        <_>
          6 17 1 4 2.</_></rects>
      <tilted>1</tilted></_>
    <_>
      <rects>
        <_>
          8 17 1 2 -1.</_>
        <_>
          8 18 1 1 2.</_></rects>
      <tilted>0</tilted></_>
    <_>
      <rects>
        <_>
          8 19 6 2 -1.</_>
        <_>
          11 19 3 2 2.</_></rects>
      <tilted>0</tilted></_>
    <_>
      <rects>
        <_>
          8 19 5 2 -1.</_>
        <_>
          8 20 5 1 2.</_></rects>
      <tilted>0</tilted></_>
    <_>
      <rects>
        <_>
          9 0 4 24 -1.</_>
        <_>
          9 0 2 12 2.</_>
        <_>
          11 12 2 12 2.</_></rects>
      <tilted>0</tilted></_>
    <_>
      <rects>
        <_>
          9 0 10 2 -1.</_>
        <_>
          9 1 10 1 2.</_></rects>
      <tilted>0</tilted></_>
    <_>
      <rects>
        <_>
          9 1 3 5 -1.</_>
        <_>
          10 2 1 5 3.</_></rects>
      <tilted>1</tilted></_>
    <_>
      <rects>
        <_>
          9 2 8 3 -1.</_>
        <_>
          8 3 8 1 3.</_></rects>
      <tilted>1</tilted></_>
    <_>
      <rects>
        <_>
          9 7 14 10 -1.</_>
        <_>
          9 12 14 5 2.</_></rects>
      <tilted>0</tilted></_>
    <_>
      <rects>
        <_>
          9 9 8 6 -1.</_>
        <_>
          7 11 8 2 3.</_></rects>
      <tilted>1</tilted></_>
    <_>
      <rects>
        <_>
          9 22 11 2 -1.</_>
        <_>
          9 23 11 1 2.</_></rects>
      <tilted>0</tilted></_>
    <_>
      <rects>
        <_>
          10 0 4 21 -1.</_>
        <_>
          11 0 2 21 2.</_></rects>
      <tilted>0</tilted></_>
    <_>
      <rects>
        <_>
          10 0 2 2 -1.</_>
        <_>
          10 1 2 1 2.</_></rects>
      <tilted>0</tilted></_>
    <_>
      <rects>
        <_>
          10 3 11 14 -1.</_>
        <_>
          10 10 11 7 2.</_></rects>
      <tilted>0</tilted></_>
    <_>
      <rects>
        <_>
          10 10 3 12 -1.</_>
        <_>
          11 14 1 4 9.</_></rects>
      <tilted>0</tilted></_>
    <_>
      <rects>
        <_>
          10 14 14 10 -1.</_>
        <_>
          10 14 7 5 2.</_>
        <_>
          17 19 7 5 2.</_></rects>
      <tilted>0</tilted></_>
    <_>
      <rects>
        <_>
          10 15 6 1 -1.</_>
        <_>
          10 15 3 1 2.</_></rects>
      <tilted>1</tilted></_>
    <_>
      <rects>
        <_>
          10 19 1 2 -1.</_>
        <_>
          10 20 1 1 2.</_></rects>
      <tilted>0</tilted></_>
    <_>
      <rects>
        <_>
          10 22 3 2 -1.</_>
        <_>
          11 22 1 2 2.</_></rects>
      <tilted>0</tilted></_>
    <_>
      <rects>
        <_>
          10 22 5 2 -1.</_>
        <_>
          10 23 5 1 2.</_></rects>
      <tilted>0</tilted></_>
    <_>
      <rects>
        <_>
          10 23 6 1 -1.</_>
        <_>
          12 23 2 1 2.</_></rects>
      <tilted>0</tilted></_>
    <_>
      <rects>
        <_>
          11 1 3 8 -1.</_>
        <_>
          11 5 3 4 2.</_></rects>
      <tilted>0</tilted></_>
    <_>
      <rects>
        <_>
          11 2 2 1 -1.</_>
        <_>
          11 2 1 1 2.</_></rects>
      <tilted>1</tilted></_>
    <_>
      <rects>
        <_>
          11 4 4 4 -1.</_>
        <_>
          11 5 4 2 2.</_></rects>
      <tilted>0</tilted></_>
    <_>
      <rects>
        <_>
          11 4 9 4 -1.</_>
        <_>
          11 5 9 2 2.</_></rects>
      <tilted>0</tilted></_>
    <_>
      <rects>
        <_>
          11 5 2 2 -1.</_>
        <_>
          11 5 1 2 2.</_></rects>
      <tilted>1</tilted></_>
    <_>
      <rects>
        <_>
          11 8 6 8 -1.</_>
        <_>
          11 8 3 4 2.</_>
        <_>
          14 12 3 4 2.</_></rects>
      <tilted>0</tilted></_>
    <_>
      <rects>
        <_>
          11 12 4 8 -1.</_>
        <_>
          12 13 2 8 2.</_></rects>
      <tilted>1</tilted></_>
    <_>
      <rects>
        <_>
          11 17 1 2 -1.</_>
        <_>
          11 18 1 1 2.</_></rects>
      <tilted>0</tilted></_>
    <_>
      <rects>
        <_>
          12 0 4 2 -1.</_>
        <_>
          12 1 4 1 2.</_></rects>
      <tilted>0</tilted></_>
    <_>
      <rects>
        <_>
          12 2 1 4 -1.</_>
        <_>
          12 2 1 2 2.</_></rects>
      <tilted>1</tilted></_>
    <_>
      <rects>
        <_>
          12 3 1 6 -1.</_>
        <_>
          12 3 1 3 2.</_></rects>
      <tilted>1</tilted></_>
    <_>
      <rects>
        <_>
          12 4 2 20 -1.</_>
        <_>
          12 4 1 10 2.</_>
        <_>
          13 14 1 10 2.</_></rects>
      <tilted>0</tilted></_>
    <_>
      <rects>
        <_>
          12 6 1 12 -1.</_>
        <_>
          9 9 1 6 2.</_></rects>
      <tilted>1</tilted></_>
    <_>
      <rects>
        <_>
          12 6 6 9 -1.</_>
        <_>
          14 8 2 9 3.</_></rects>
      <tilted>1</tilted></_>
    <_>
      <rects>
        <_>
          12 11 5 6 -1.</_>
        <_>
          10 13 5 2 3.</_></rects>
      <tilted>1</tilted></_>
    <_>
      <rects>
        <_>
          12 11 9 4 -1.</_>
        <_>
          12 11 9 2 2.</_></rects>
      <tilted>1</tilted></_>
    <_>
      <rects>
        <_>
          12 18 1 2 -1.</_>
        <_>
          12 19 1 1 2.</_></rects>
      <tilted>0</tilted></_>
    <_>
      <rects>
        <_>
          13 1 4 6 -1.</_>
        <_>
          13 1 2 6 2.</_></rects>
      <tilted>1</tilted></_>
    <_>
      <rects>
        <_>
          13 2 4 6 -1.</_>
        <_>
          14 2 2 6 2.</_></rects>
      <tilted>0</tilted></_>
    <_>
      <rects>
        <_>
          13 7 3 12 -1.</_>
        <_>
          9 11 3 4 3.</_></rects>
      <tilted>1</tilted></_>
    <_>
      <rects>
        <_>
          13 14 1 2 -1.</_>
        <_>
          13 15 1 1 2.</_></rects>
      <tilted>0</tilted></_>
    <_>
      <rects>
        <_>
          13 18 2 4 -1.</_>
        <_>
          13 18 2 2 2.</_></rects>
      <tilted>1</tilted></_>
    <_>
      <rects>
        <_>
          14 0 10 2 -1.</_>
        <_>
          14 0 5 1 2.</_>
        <_>
          19 1 5 1 2.</_></rects>
      <tilted>0</tilted></_>
    <_>
      <rects>
        <_>
          14 1 4 19 -1.</_>
        <_>
          15 1 2 19 2.</_></rects>
      <tilted>0</tilted></_>
    <_>
      <rects>
        <_>
          14 2 6 2 -1.</_>
        <_>
          14 3 6 1 2.</_></rects>
      <tilted>0</tilted></_>
    <_>
      <rects>
        <_>
          14 4 4 6 -1.</_>
        <_>
          14 4 2 3 2.</_>
        <_>
          16 7 2 3 2.</_></rects>
      <tilted>0</tilted></_>
    <_>
      <rects>
        <_>
          14 9 1 3 -1.</_>
        <_>
          13 10 1 1 3.</_></rects>
      <tilted>1</tilted></_>
    <_>
      <rects>
        <_>
          14 10 4 4 -1.</_>
        <_>
          13 11 4 2 2.</_></rects>
      <tilted>1</tilted></_>
    <_>
      <rects>
        <_>
          14 17 3 2 -1.</_>
        <_>
          14 18 3 1 2.</_></rects>
      <tilted>0</tilted></_>
    <_>
      <rects>
        <_>
          14 17 4 2 -1.</_>
        <_>
          14 17 4 1 2.</_></rects>
      <tilted>1</tilted></_>
    <_>
      <rects>
        <_>
          15 0 2 9 -1.</_>
        <_>
          15 3 2 3 2.</_></rects>
      <tilted>0</tilted></_>
    <_>
      <rects>
        <_>
          15 2 6 1 -1.</_>
        <_>
          15 2 3 1 2.</_></rects>
      <tilted>1</tilted></_>
    <_>
      <rects>
        <_>
          15 4 9 12 -1.</_>
        <_>
          15 7 9 6 2.</_></rects>
      <tilted>0</tilted></_>
    <_>
      <rects>
        <_>
          15 5 2 4 -1.</_>
        <_>
          14 6 2 2 2.</_></rects>
      <tilted>1</tilted></_>
    <_>
      <rects>
        <_>
          15 12 1 8 -1.</_>
        <_>
          15 16 1 4 2.</_></rects>
      <tilted>0</tilted></_>
    <_>
      <rects>
        <_>
          15 17 8 6 -1.</_>
        <_>
          19 17 4 6 2.</_></rects>
      <tilted>0</tilted></_>
    <_>
      <rects>
        <_>
          15 18 4 1 -1.</_>
        <_>
          16 19 2 1 2.</_></rects>
      <tilted>1</tilted></_>
    <_>
      <rects>
        <_>
          15 22 2 2 -1.</_>
        <_>
          15 23 2 1 2.</_></rects>
      <tilted>0</tilted></_>
    <_>
      <rects>
        <_>
          15 23 3 1 -1.</_>
        <_>
          16 23 1 1 2.</_></rects>
      <tilted>0</tilted></_>
    <_>
      <rects>
        <_>
          16 0 2 9 -1.</_>
        <_>
          17 0 1 9 2.</_></rects>
      <tilted>0</tilted></_>
    <_>
      <rects>
        <_>
          16 3 3 7 -1.</_>
        <_>
          17 4 1 7 3.</_></rects>
      <tilted>1</tilted></_>
    <_>
      <rects>
        <_>
          16 4 8 16 -1.</_>
        <_>
          18 4 4 16 2.</_></rects>
      <tilted>0</tilted></_>
    <_>
      <rects>
        <_>
          16 9 4 8 -1.</_>
        <_>
          14 11 4 4 2.</_></rects>
      <tilted>1</tilted></_>
    <_>
      <rects>
        <_>
          16 17 2 2 -1.</_>
        <_>
          16 18 2 1 2.</_></rects>
      <tilted>0</tilted></_>
    <_>
      <rects>
        <_>
          16 21 1 2 -1.</_>
        <_>
          16 21 1 1 2.</_></rects>
      <tilted>1</tilted></_>
    <_>
      <rects>
        <_>
          17 0 2 10 -1.</_>
        <_>
          17 5 2 5 2.</_></rects>
      <tilted>0</tilted></_>
    <_>
      <rects>
        <_>
          17 0 7 2 -1.</_>
        <_>
          17 0 7 1 2.</_></rects>
      <tilted>1</tilted></_>
    <_>
      <rects>
        <_>
          17 1 1 22 -1.</_>
        <_>
          17 12 1 11 2.</_></rects>
      <tilted>0</tilted></_>
    <_>
      <rects>
        <_>
          17 2 6 19 -1.</_>
        <_>
          20 2 3 19 2.</_></rects>
      <tilted>0</tilted></_>
    <_>
      <rects>
        <_>
          17 4 7 8 -1.</_>
        <_>
          17 4 7 4 2.</_></rects>
      <tilted>1</tilted></_>
    <_>
      <rects>
        <_>
          17 14 1 2 -1.</_>
        <_>
          17 15 1 1 2.</_></rects>
      <tilted>0</tilted></_>
    <_>
      <rects>
        <_>
          17 14 7 4 -1.</_>
        <_>
          17 15 7 2 2.</_></rects>
      <tilted>0</tilted></_>
    <_>
      <rects>
        <_>
          18 0 3 20 -1.</_>
        <_>
          18 5 3 10 2.</_></rects>
      <tilted>0</tilted></_>
    <_>
      <rects>
        <_>
          18 1 1 4 -1.</_>
        <_>
          18 3 1 2 2.</_></rects>
      <tilted>0</tilted></_>
    <_>
      <rects>
        <_>
          18 1 4 4 -1.</_>
        <_>
          18 1 2 2 2.</_>
        <_>
          20 3 2 2 2.</_></rects>
      <tilted>0</tilted></_>
    <_>
      <rects>
        <_>
          18 2 2 22 -1.</_>
        <_>
          18 2 1 11 2.</_>
        <_>
          19 13 1 11 2.</_></rects>
      <tilted>0</tilted></_>
    <_>
      <rects>
        <_>
          18 6 2 18 -1.</_>
        <_>
          19 6 1 18 2.</_></rects>
      <tilted>0</tilted></_>
    <_>
      <rects>
        <_>
          18 12 6 12 -1.</_>
        <_>
          21 12 3 12 2.</_></rects>
      <tilted>0</tilted></_>
    <_>
      <rects>
        <_>
          18 20 2 2 -1.</_>
        <_>
          18 20 1 1 2.</_>
        <_>
          19 21 1 1 2.</_></rects>
      <tilted>0</tilted></_>
    <_>
      <rects>
        <_>
          19 3 2 4 -1.</_>
        <_>
          19 3 1 4 2.</_></rects>
      <tilted>1</tilted></_>
    <_>
      <rects>
        <_>
          19 4 2 2 -1.</_>
        <_>
          19 4 2 1 2.</_></rects>
      <tilted>1</tilted></_>
    <_>
      <rects>
        <_>
          19 5 5 8 -1.</_>
        <_>
          19 5 5 4 2.</_></rects>
      <tilted>1</tilted></_>
    <_>
      <rects>
        <_>
          19 15 4 3 -1.</_>
        <_>
          20 15 2 3 2.</_></rects>
      <tilted>0</tilted></_>
    <_>
      <rects>
        <_>
          19 15 4 4 -1.</_>
        <_>
          18 16 4 2 2.</_></rects>
      <tilted>1</tilted></_>
    <_>
      <rects>
        <_>
          19 16 2 2 -1.</_>
        <_>
          19 17 2 1 2.</_></rects>
      <tilted>0</tilted></_>
    <_>
      <rects>
        <_>
          20 0 4 21 -1.</_>
        <_>
          21 0 2 21 2.</_></rects>
      <tilted>0</tilted></_>
    <_>
      <rects>
        <_>
          20 3 4 15 -1.</_>
        <_>
          21 3 2 15 2.</_></rects>
      <tilted>0</tilted></_>
    <_>
      <rects>
        <_>
          20 3 3 16 -1.</_>
        <_>
          20 7 3 8 2.</_></rects>
      <tilted>0</tilted></_>
    <_>
      <rects>
        <_>
          20 4 2 9 -1.</_>
        <_>
          20 4 1 9 2.</_></rects>
      <tilted>1</tilted></_>
    <_>
      <rects>
        <_>
          20 4 4 20 -1.</_>
        <_>
          22 4 2 20 2.</_></rects>
      <tilted>0</tilted></_>
    <_>
      <rects>
        <_>
          20 5 2 14 -1.</_>
        <_>
          20 5 1 7 2.</_>
        <_>
          21 12 1 7 2.</_></rects>
      <tilted>0</tilted></_>
    <_>
      <rects>
        <_>
          20 5 4 4 -1.</_>
        <_>
          20 6 4 2 2.</_></rects>
      <tilted>0</tilted></_>
    <_>
      <rects>
        <_>
          20 7 2 16 -1.</_>
        <_>
          20 7 1 8 2.</_>
        <_>
          21 15 1 8 2.</_></rects>
      <tilted>0</tilted></_>
    <_>
      <rects>
        <_>
          20 8 4 5 -1.</_>
        <_>
          21 8 2 5 2.</_></rects>
      <tilted>0</tilted></_>
    <_>
      <rects>
        <_>
          20 8 4 10 -1.</_>
        <_>
          22 8 2 10 2.</_></rects>
      <tilted>0</tilted></_>
    <_>
      <rects>
        <_>
          20 8 4 15 -1.</_>
        <_>
          22 8 2 15 2.</_></rects>
      <tilted>0</tilted></_>
    <_>
      <rects>
        <_>
          20 10 2 9 -1.</_>
        <_>
          17 13 2 3 3.</_></rects>
      <tilted>1</tilted></_>
    <_>
      <rects>
        <_>
          20 13 4 3 -1.</_>
        <_>
          21 13 2 3 2.</_></rects>
      <tilted>0</tilted></_>
    <_>
      <rects>
        <_>
          20 14 4 10 -1.</_>
        <_>
          20 14 2 5 2.</_>
        <_>
          22 19 2 5 2.</_></rects>
      <tilted>0</tilted></_>
    <_>
      <rects>
        <_>
          20 20 1 3 -1.</_>
        <_>
          19 21 1 1 3.</_></rects>
      <tilted>1</tilted></_>
    <_>
      <rects>
        <_>
          21 1 3 20 -1.</_>
        <_>
          22 2 1 20 3.</_></rects>
      <tilted>1</tilted></_>
    <_>
      <rects>
        <_>
          21 3 3 12 -1.</_>
        <_>
          21 7 3 4 2.</_></rects>
      <tilted>0</tilted></_>
    <_>
      <rects>
        <_>
          21 11 1 12 -1.</_>
        <_>
          21 15 1 4 2.</_></rects>
      <tilted>0</tilted></_>
    <_>
      <rects>
        <_>
          21 12 1 4 -1.</_>
        <_>
          21 12 1 2 2.</_></rects>
      <tilted>1</tilted></_>
    <_>
      <rects>
        <_>
          21 13 2 2 -1.</_>
        <_>
          21 13 1 1 2.</_>
        <_>
          22 14 1 1 2.</_></rects>
      <tilted>0</tilted></_>
    <_>
      <rects>
        <_>
          21 13 2 4 -1.</_>
        <_>
          21 13 1 2 2.</_>
        <_>
          22 15 1 2 2.</_></rects>
      <tilted>0</tilted></_>
    <_>
      <rects>
        <_>
          21 17 2 6 -1.</_>
        <_>
          21 17 1 3 2.</_>
        <_>
          22 20 1 3 2.</_></rects>
      <tilted>0</tilted></_>
    <_>
      <rects>
        <_>
          21 23 3 1 -1.</_>
        <_>
          22 23 1 1 2.</_></rects>
      <tilted>0</tilted></_>
    <_>
      <rects>
        <_>
          22 5 2 8 -1.</_>
        <_>
          22 5 1 4 2.</_>
        <_>
          23 9 1 4 2.</_></rects>
      <tilted>0</tilted></_>
    <_>
      <rects>
        <_>
          22 9 2 8 -1.</_>
        <_>
          22 9 2 4 2.</_></rects>
      <tilted>1</tilted></_>
    <_>
      <rects>
        <_>
          22 12 2 7 -1.</_>
        <_>
          23 12 1 7 2.</_></rects>
      <tilted>0</tilted></_>
    <_>
      <rects>
        <_>
          22 13 2 8 -1.</_>
        <_>
          23 13 1 8 2.</_></rects>
      <tilted>0</tilted></_>
    <_>
      <rects>
        <_>
          23 3 1 20 -1.</_>
        <_>
          23 13 1 10 2.</_></rects>
      <tilted>0</tilted></_>
    <_>
      <rects>
        <_>
          23 13 1 6 -1.</_>
        <_>
          23 16 1 3 2.</_></rects>
      <tilted>0</tilted></_></features></cascade>
</opencv_storage>
