<?xml version="1.0"?>
<opencv_storage>
<stage9>
  <maxWeakCount>7</maxWeakCount>
  <stageThreshold>-1.0071328878402710e+00</stageThreshold>
  <weakClassifiers>
    <_>
      <internalNodes>
        0 -1 713 5.2778692916035652e-03</internalNodes>
      <leafValues>
        -3.8585475087165833e-01 8.4933453798294067e-01</leafValues></_>
    <_>
      <internalNodes>
        0 -1 258419 -1.8844243139028549e-02</internalNodes>
      <leafValues>
        3.4669670462608337e-01 -7.2955900430679321e-01</leafValues></_>
    <_>
      <internalNodes>
        0 -1 150448 -5.7413861155509949e-02</internalNodes>
      <leafValues>
        5.3967738151550293e-01 -4.4503721594810486e-01</leafValues></_>
    <_>
      <internalNodes>
        0 -1 211746 -3.0278225895017385e-03</internalNodes>
      <leafValues>
        -9.6048766374588013e-01 2.1428266167640686e-01</leafValues></_>
    <_>
      <internalNodes>
        0 -1 174069 3.7034762499388307e-05</internalNodes>
      <leafValues>
        -4.9121451377868652e-01 4.0663278102874756e-01</leafValues></_>
    <_>
      <internalNodes>
        0 -1 84541 -1.4255505520850420e-03</internalNodes>
      <leafValues>
        9.2076009511947632e-01 -2.5532624125480652e-01</leafValues></_>
    <_>
      <internalNodes>
        0 -1 218438 -2.7500332798808813e-03</internalNodes>
      <leafValues>
        -1.5936169624328613e+00 1.8772888183593750e-01</leafValues></_></weakClassifiers></stage9>
</opencv_storage>
