<?xml version="1.0"?>
<opencv_storage>
<stage20>
  <maxWeakCount>5</maxWeakCount>
  <stageThreshold>-2.4126200377941132e-01</stageThreshold>
  <weakClassifiers>
    <_>
      <internalNodes>
        0 -1 101091 4.6186242252588272e-03</internalNodes>
      <leafValues>
        8.4911668300628662e-01 -1.0238463878631592e+00</leafValues></_>
    <_>
      <internalNodes>
        0 -1 117794 -3.9464686997234821e-03</internalNodes>
      <leafValues>
        1.0644987821578979e+00 -4.8584115505218506e-01</leafValues></_>
    <_>
      <internalNodes>
        0 -1 251825 -1.4646971225738525e-01</internalNodes>
      <leafValues>
        2.5342674255371094e+00 -4.3074858188629150e-01</leafValues></_>
    <_>
      <internalNodes>
        0 -1 157284 5.2790127694606781e-02</internalNodes>
      <leafValues>
        -6.5579760074615479e-01 9.1680347919464111e-01</leafValues></_>
    <_>
      <internalNodes>
        0 -1 25484 -6.8859346210956573e-03</internalNodes>
      <leafValues>
        4.8200863599777222e-01 -1.6495980024337769e+00</leafValues></_></weakClassifiers></stage20>
</opencv_storage>
