<?xml version="1.0"?>
<opencv_storage>
<stage18>
  <maxWeakCount>9</maxWeakCount>
  <stageThreshold>-8.3104223012924194e-01</stageThreshold>
  <weakClassifiers>
    <_>
      <internalNodes>
        0 -1 36973 3.5276792943477631e-02</internalNodes>
      <leafValues>
        -2.5822180509567261e-01 1.5455212593078613e+00</leafValues></_>
    <_>
      <internalNodes>
        0 -1 66616 -2.0128756761550903e-02</internalNodes>
      <leafValues>
        1.6122468709945679e+00 -1.0818994790315628e-01</leafValues></_>
    <_>
      <internalNodes>
        0 -1 223586 1.3098269118927419e-04</internalNodes>
      <leafValues>
        -2.8033891320228577e-01 3.8215520977973938e-01</leafValues></_>
    <_>
      <internalNodes>
        0 -1 185596 3.1556799076497555e-03</internalNodes>
      <leafValues>
        1.4308138191699982e-01 -8.6276400089263916e-01</leafValues></_>
    <_>
      <internalNodes>
        0 -1 165246 2.1499641239643097e-02</internalNodes>
      <leafValues>
        1.1493890732526779e-01 -1.3972045183181763e+00</leafValues></_>
    <_>
      <internalNodes>
        0 -1 97106 -9.2364952433854342e-04</internalNodes>
      <leafValues>
        4.2832857370376587e-01 -2.9031667113304138e-01</leafValues></_>
    <_>
      <internalNodes>
        0 -1 35255 -3.2341416226699948e-04</internalNodes>
      <leafValues>
        -6.2723284959793091e-01 2.2543330490589142e-01</leafValues></_>
    <_>
      <internalNodes>
        0 -1 240486 -2.9454538598656654e-03</internalNodes>
      <leafValues>
        7.2297364473342896e-01 -1.6850687563419342e-01</leafValues></_>
    <_>
      <internalNodes>
        0 -1 238884 9.2531647533178329e-04</internalNodes>
      <leafValues>
        2.1039560437202454e-01 -5.8421558141708374e-01</leafValues></_></weakClassifiers></stage18>
</opencv_storage>
