<?xml version="1.0"?>
<opencv_storage>
<stage2>
  <maxWeakCount>5</maxWeakCount>
  <stageThreshold>-6.1263388395309448e-01</stageThreshold>
  <weakClassifiers>
    <_>
      <internalNodes>
        0 -1 97388 -5.9948243200778961e-02</internalNodes>
      <leafValues>
        -9.8761886358261108e-01 4.4145184755325317e-01</leafValues></_>
    <_>
      <internalNodes>
        0 -1 21676 8.7054297327995300e-03</internalNodes>
      <leafValues>
        -5.3192263841629028e-01 7.2451865673065186e-01</leafValues></_>
    <_>
      <internalNodes>
        0 -1 35059 1.3896781951189041e-02</internalNodes>
      <leafValues>
        -3.2645174860954285e-01 9.7978657484054565e-01</leafValues></_>
    <_>
      <internalNodes>
        0 -1 254442 3.1991384923458099e-02</internalNodes>
      <leafValues>
        -3.2184958457946777e-01 1.3978985548019409e+00</leafValues></_>
    <_>
      <internalNodes>
        0 -1 191096 -2.5379569269716740e-03</internalNodes>
      <leafValues>
        -1.1303031444549561e+00 3.8498163223266602e-01</leafValues></_></weakClassifiers></stage2>
</opencv_storage>
