<?xml version="1.0"?>
<opencv_storage>
<stage24>
  <maxWeakCount>10</maxWeakCount>
  <stageThreshold>-7.2997885942459106e-01</stageThreshold>
  <weakClassifiers>
    <_>
      <internalNodes>
        0 -1 86399 1.5034623444080353e-02</internalNodes>
      <leafValues>
        -3.9366719126701355e-01 2.6341298222541809e-01</leafValues></_>
    <_>
      <internalNodes>
        0 -1 259929 2.0967393647879362e-03</internalNodes>
      <leafValues>
        -1.4513066411018372e-01 7.7789825201034546e-01</leafValues></_>
    <_>
      <internalNodes>
        0 -1 124148 -3.9604511111974716e-03</internalNodes>
      <leafValues>
        -8.9023655652999878e-01 1.2917578220367432e-01</leafValues></_>
    <_>
      <internalNodes>
        0 -1 95661 2.3888982832431793e-03</internalNodes>
      <leafValues>
        1.2830212712287903e-01 -9.8030203580856323e-01</leafValues></_>
    <_>
      <internalNodes>
        0 -1 4171 -2.6430491358041763e-02</internalNodes>
      <leafValues>
        -9.4226425886154175e-01 1.2368531525135040e-01</leafValues></_>
    <_>
      <internalNodes>
        0 -1 51843 5.3982688114047050e-03</internalNodes>
      <leafValues>
        -1.1696861684322357e-01 1.0630451440811157e+00</leafValues></_>
    <_>
      <internalNodes>
        0 -1 195612 -4.2912783101201057e-04</internalNodes>
      <leafValues>
        -4.8688903450965881e-01 2.3397408425807953e-01</leafValues></_>
    <_>
      <internalNodes>
        0 -1 248768 1.5763103961944580e-02</internalNodes>
      <leafValues>
        -4.1891500353813171e-01 2.7768275141716003e-01</leafValues></_>
    <_>
      <internalNodes>
        0 -1 130037 3.1541083008050919e-03</internalNodes>
      <leafValues>
        2.1980938315391541e-01 -5.4061102867126465e-01</leafValues></_>
    <_>
      <internalNodes>
        0 -1 255380 2.4772998876869678e-03</internalNodes>
      <leafValues>
        -1.6742946207523346e-01 7.2597897052764893e-01</leafValues></_></weakClassifiers></stage24>
</opencv_storage>
