<?xml version="1.0"?>
<opencv_storage>
<stage20>
  <maxWeakCount>12</maxWeakCount>
  <stageThreshold>-7.7560091018676758e-01</stageThreshold>
  <weakClassifiers>
    <_>
      <internalNodes>
        0 -1 223980 -3.6445976002141833e-04</internalNodes>
      <leafValues>
        3.0389365553855896e-01 -3.8885229825973511e-01</leafValues></_>
    <_>
      <internalNodes>
        0 -1 34368 3.8562458939850330e-03</internalNodes>
      <leafValues>
        -2.0775918662548065e-01 5.6671208143234253e-01</leafValues></_>
    <_>
      <internalNodes>
        0 -1 106986 2.3041018284857273e-03</internalNodes>
      <leafValues>
        2.1902728080749512e-01 -5.0807410478591919e-01</leafValues></_>
    <_>
      <internalNodes>
        0 -1 1599 1.4276828733272851e-04</internalNodes>
      <leafValues>
        3.1521198153495789e-01 -2.9927179217338562e-01</leafValues></_>
    <_>
      <internalNodes>
        0 -1 251168 -3.8694881368428469e-04</internalNodes>
      <leafValues>
        4.9764299392700195e-01 -2.2943107783794403e-01</leafValues></_>
    <_>
      <internalNodes>
        0 -1 50594 -2.0507466048002243e-02</internalNodes>
      <leafValues>
        1.6726907491683960e+00 -9.8426550626754761e-02</leafValues></_>
    <_>
      <internalNodes>
        0 -1 240949 2.2285955492407084e-03</internalNodes>
      <leafValues>
        -3.5181939601898193e-01 3.2601550221443176e-01</leafValues></_>
    <_>
      <internalNodes>
        0 -1 160285 4.8225089907646179e-02</internalNodes>
      <leafValues>
        -1.1379685997962952e-01 1.4599878787994385e+00</leafValues></_>
    <_>
      <internalNodes>
        0 -1 260710 5.2730673924088478e-03</internalNodes>
      <leafValues>
        -1.7715938389301300e-01 7.1357256174087524e-01</leafValues></_>
    <_>
      <internalNodes>
        0 -1 4418 1.0338241700083017e-03</internalNodes>
      <leafValues>
        -2.3755790293216705e-01 5.3240817785263062e-01</leafValues></_>
    <_>
      <internalNodes>
        0 -1 260423 1.3647290877997875e-02</internalNodes>
      <leafValues>
        -2.9463520646095276e-01 4.2185953259468079e-01</leafValues></_>
    <_>
      <internalNodes>
        0 -1 69428 -1.8764305859804153e-03</internalNodes>
      <leafValues>
        -7.7896922826766968e-01 1.7659492790699005e-01</leafValues></_></weakClassifiers></stage20>
</opencv_storage>
