<?xml version="1.0"?>
<opencv_storage>
<stage6>
  <maxWeakCount>7</maxWeakCount>
  <stageThreshold>-1.5147778987884521e+00</stageThreshold>
  <weakClassifiers>
    <_>
      <internalNodes>
        0 -1 18122 4.9466658383607864e-03</internalNodes>
      <leafValues>
        -3.9164912700653076e-01 1.1512925624847412e+00</leafValues></_>
    <_>
      <internalNodes>
        0 -1 232499 4.6226743143051863e-04</internalNodes>
      <leafValues>
        -3.6930510401725769e-01 6.1321556568145752e-01</leafValues></_>
    <_>
      <internalNodes>
        0 -1 247742 6.3324550865218043e-05</internalNodes>
      <leafValues>
        -5.8115637302398682e-01 3.5142433643341064e-01</leafValues></_>
    <_>
      <internalNodes>
        0 -1 68057 -4.4641754357144237e-04</internalNodes>
      <leafValues>
        9.3997156620025635e-01 -2.2264225780963898e-01</leafValues></_>
    <_>
      <internalNodes>
        0 -1 254304 3.7299364339560270e-03</internalNodes>
      <leafValues>
        -2.4141655862331390e-01 1.1091009378433228e+00</leafValues></_>
    <_>
      <internalNodes>
        0 -1 252844 -6.1903204768896103e-03</internalNodes>
      <leafValues>
        7.9382228851318359e-01 -2.9738509654998779e-01</leafValues></_>
    <_>
      <internalNodes>
        0 -1 258647 1.3218654203228652e-04</internalNodes>
      <leafValues>
        -3.9374408125877380e-01 4.4678357243537903e-01</leafValues></_></weakClassifiers></stage6>
</opencv_storage>
