<?xml version="1.0"?>
<opencv_storage>
<stage17>
  <maxWeakCount>12</maxWeakCount>
  <stageThreshold>-1.2412693500518799e+00</stageThreshold>
  <weakClassifiers>
    <_>
      <internalNodes>
        0 -1 36250 6.0155820101499557e-03</internalNodes>
      <leafValues>
        -3.5145166516304016e-01 4.5222812891006470e-01</leafValues></_>
    <_>
      <internalNodes>
        0 -1 48861 -1.7673404887318611e-02</internalNodes>
      <leafValues>
        6.2876188755035400e-01 -2.1370624005794525e-01</leafValues></_>
    <_>
      <internalNodes>
        0 -1 248248 1.1943723075091839e-03</internalNodes>
      <leafValues>
        -1.7485588788986206e-01 6.1991482973098755e-01</leafValues></_>
    <_>
      <internalNodes>
        0 -1 260638 -6.8114381283521652e-03</internalNodes>
      <leafValues>
        1.0297019481658936e+00 -1.5293322503566742e-01</leafValues></_>
    <_>
      <internalNodes>
        0 -1 251754 -4.5391456224024296e-03</internalNodes>
      <leafValues>
        4.5575177669525146e-01 -2.5751307606697083e-01</leafValues></_>
    <_>
      <internalNodes>
        0 -1 141609 -1.4978927538322750e-05</internalNodes>
      <leafValues>
        2.2492566704750061e-01 -5.6744951009750366e-01</leafValues></_>
    <_>
      <internalNodes>
        0 -1 173901 7.8376254532486200e-04</internalNodes>
      <leafValues>
        -2.9663196206092834e-01 3.8762316107749939e-01</leafValues></_>
    <_>
      <internalNodes>
        0 -1 84205 6.9357492029666901e-03</internalNodes>
      <leafValues>
        -1.5545901656150818e-01 8.1008213758468628e-01</leafValues></_>
    <_>
      <internalNodes>
        0 -1 113756 -8.9036021381616592e-03</internalNodes>
      <leafValues>
        1.1392930746078491e+00 -1.5753225982189178e-01</leafValues></_>
    <_>
      <internalNodes>
        0 -1 145677 4.4723874889314175e-03</internalNodes>
      <leafValues>
        1.4805912971496582e-01 -9.5304745435714722e-01</leafValues></_>
    <_>
      <internalNodes>
        0 -1 183640 8.4661282016895711e-05</internalNodes>
      <leafValues>
        -4.3718019127845764e-01 2.8592678904533386e-01</leafValues></_>
    <_>
      <internalNodes>
        0 -1 66478 3.1555620953440666e-03</internalNodes>
      <leafValues>
        -2.1176132559776306e-01 6.4193928241729736e-01</leafValues></_></weakClassifiers></stage17>
</opencv_storage>
