<?xml version="1.0"?>
<opencv_storage>
<cascade>
  <stageType>BOOST</stageType>
  <featureType>HAAR</featureType>
  <height>24</height>
  <width>24</width>
  <stageParams>
    <boostType>RAB</boostType>
    <minHitRate>9.9500000476837158e-01</minHitRate>
    <maxFalseAlarm>5.0000000000000000e-01</maxFalseAlarm>
    <weightTrimRate>9.9000000953674316e-01</weightTrimRate>
    <maxDepth>1</maxDepth>
    <maxWeakCount>100</maxWeakCount></stageParams>
  <featureParams>
    <maxCatCount>0</maxCatCount>
    <featSize>1</featSize>
    <mode>ALL</mode></featureParams>
  <stageNum>25</stageNum>
  <stages>
    <!-- stage 0 -->
    <_>
      <maxWeakCount>5</maxWeakCount>
      <stageThreshold>-4.3439593911170959e-01</stageThreshold>
      <weakClassifiers>
        <_>
          <internalNodes>
            0 -1 51 -2.5659997016191483e-02</internalNodes>
          <leafValues>
            -1.0397207736968994e+00 1.0397207736968994e+00</leafValues></_>
        <_>
          <internalNodes>
            0 -1 26 1.5906508779153228e-03</internalNodes>
          <leafValues>
            -1.3030254840850830e+00 7.1864843368530273e-01</leafValues></_>
        <_>
          <internalNodes>
            0 -1 37 -3.0752583406865597e-03</internalNodes>
          <leafValues>
            1.2819172143936157e+00 -5.7499593496322632e-01</leafValues></_>
        <_>
          <internalNodes>
            0 -1 91 -2.8453184291720390e-02</internalNodes>
          <leafValues>
            -5.6432753801345825e-01 3.0131783485412598e+00</leafValues></_>
        <_>
          <internalNodes>
            0 -1 66 1.8782366067171097e-02</internalNodes>
          <leafValues>
            -1.0534417629241943e+00 1.4436677694320679e+00</leafValues></_></weakClassifiers></_>
    <!-- stage 1 -->
    <_>
      <maxWeakCount>2</maxWeakCount>
      <stageThreshold>3.7121027708053589e-01</stageThreshold>
      <weakClassifiers>
        <_>
          <internalNodes>
            0 -1 49 -8.1474985927343369e-03</internalNodes>
          <leafValues>
            -1.4451858997344971e+00 9.5396542549133301e-01</leafValues></_>
        <_>
          <internalNodes>
            0 -1 83 -8.9269369840621948e-02</internalNodes>
          <leafValues>
            -5.8275520801544189e-01 2.6477339267730713e+00</leafValues></_></weakClassifiers></_>
    <!-- stage 2 -->
    <_>
      <maxWeakCount>4</maxWeakCount>
      <stageThreshold>1.1148663759231567e+00</stageThreshold>
      <weakClassifiers>
        <_>
          <internalNodes>
            0 -1 74 -9.3469303101301193e-03</internalNodes>
          <leafValues>
            -1.8920948505401611e+00 1.1709028482437134e+00</leafValues></_>
        <_>
          <internalNodes>
            0 -1 24 5.6067407131195068e-03</internalNodes>
          <leafValues>
            -1.0459290742874146e+00 1.5327523946762085e+00</leafValues></_>
        <_>
          <internalNodes>
            0 -1 48 9.6441134810447693e-03</internalNodes>
          <leafValues>
            -5.6187427043914795e-01 2.6104853153228760e+00</leafValues></_>
        <_>
          <internalNodes>
            0 -1 22 1.0276328772306442e-02</internalNodes>
          <leafValues>
            -1.0269145965576172e+00 3.1243498325347900e+00</leafValues></_></weakClassifiers></_>
    <!-- stage 3 -->
    <_>
      <maxWeakCount>1</maxWeakCount>
      <stageThreshold>1.3768303394317627e+00</stageThreshold>
      <weakClassifiers>
        <_>
          <internalNodes>
            0 -1 80 -1.0428026318550110e-02</internalNodes>
          <leafValues>
            -5.7564578056335449e+00 1.3768303394317627e+00</leafValues></_></weakClassifiers></_>
    <!-- stage 4 -->
    <_>
      <maxWeakCount>3</maxWeakCount>
      <stageThreshold>-7.3156636953353882e-01</stageThreshold>
      <weakClassifiers>
        <_>
          <internalNodes>
            0 -1 17 -1.7728723585605621e-02</internalNodes>
          <leafValues>
            1.4554954767227173e+00 -8.1462025642395020e-01</leafValues></_>
        <_>
          <internalNodes>
            0 -1 57 -2.2474456578493118e-02</internalNodes>
          <leafValues>
            -7.3229569196701050e-01 5.7564578056335449e+00</leafValues></_>
        <_>
          <internalNodes>
            0 -1 20 2.8250901959836483e-03</internalNodes>
          <leafValues>
            -1.4547661542892456e+00 1.8510924577713013e+00</leafValues></_></weakClassifiers></_>
    <!-- stage 5 -->
    <_>
      <maxWeakCount>3</maxWeakCount>
      <stageThreshold>-6.0131794214248657e-01</stageThreshold>
      <weakClassifiers>
        <_>
          <internalNodes>
            0 -1 79 5.1827840507030487e-03</internalNodes>
          <leafValues>
            9.8637872934341431e-01 -9.2291337251663208e-01</leafValues></_>
        <_>
          <internalNodes>
            0 -1 87 -5.2632592618465424e-02</internalNodes>
          <leafValues>
            -5.6588411331176758e-01 5.7564578056335449e+00</leafValues></_>
        <_>
          <internalNodes>
            0 -1 8 -3.9107534103095531e-03</internalNodes>
          <leafValues>
            5.7564578056335449e+00 -1.0218125581741333e+00</leafValues></_></weakClassifiers></_>
    <!-- stage 6 -->
    <_>
      <maxWeakCount>5</maxWeakCount>
      <stageThreshold>5.8181392960250378e-03</stageThreshold>
      <weakClassifiers>
        <_>
          <internalNodes>
            0 -1 61 -1.2297692149877548e-01</internalNodes>
          <leafValues>
            -2.3131176829338074e-01 1.6013731956481934e+00</leafValues></_>
        <_>
          <internalNodes>
            0 -1 73 3.4629055298864841e-03</internalNodes>
          <leafValues>
            -5.9311908483505249e-01 2.0431983470916748e+00</leafValues></_>
        <_>
          <internalNodes>
            0 -1 9 -8.6642650421708822e-04</internalNodes>
          <leafValues>
            1.3282160758972168e+00 -6.1975646018981934e-01</leafValues></_>
        <_>
          <internalNodes>
            0 -1 54 2.6251419913023710e-03</internalNodes>
          <leafValues>
            5.2411890029907227e-01 -1.6922197341918945e+00</leafValues></_>
        <_>
          <internalNodes>
            0 -1 65 -2.3395222425460815e-01</internalNodes>
          <leafValues>
            -7.4489039182662964e-01 1.3095402717590332e+00</leafValues></_></weakClassifiers></_>
    <!-- stage 7 -->
    <_>
      <maxWeakCount>3</maxWeakCount>
      <stageThreshold>1.8780535319820046e-03</stageThreshold>
      <weakClassifiers>
        <_>
          <internalNodes>
            0 -1 68 -1.8532071262598038e-02</internalNodes>
          <leafValues>
            1.2459135055541992e+00 -6.8262046575546265e-01</leafValues></_>
        <_>
          <internalNodes>
            0 -1 59 -1.1202641762793064e-03</internalNodes>
          <leafValues>
            -1.6400643587112427e+00 5.9000504016876221e-01</leafValues></_>
        <_>
          <internalNodes>
            0 -1 55 2.2738454863429070e-03</internalNodes>
          <leafValues>
            6.0342055559158325e-01 -1.8340405225753784e+00</leafValues></_></weakClassifiers></_>
    <!-- stage 8 -->
    <_>
      <maxWeakCount>4</maxWeakCount>
      <stageThreshold>-8.4060621261596680e-01</stageThreshold>
      <weakClassifiers>
        <_>
          <internalNodes>
            0 -1 16 -8.6447764188051224e-03</internalNodes>
          <leafValues>
            -5.8636015653610229e-01 1.0683000087738037e+00</leafValues></_>
        <_>
          <internalNodes>
            0 -1 23 2.8977444395422935e-02</internalNodes>
          <leafValues>
            -4.6655839681625366e-01 5.7564578056335449e+00</leafValues></_>
        <_>
          <internalNodes>
            0 -1 3 -1.5294579789042473e-02</internalNodes>
          <leafValues>
            1.6855301856994629e+00 -1.0849378108978271e+00</leafValues></_>
        <_>
          <internalNodes>
            0 -1 18 -4.7432123683393002e-03</internalNodes>
          <leafValues>
            1.2972500324249268e+00 -1.4117258787155151e+00</leafValues></_></weakClassifiers></_>
    <!-- stage 9 -->
    <_>
      <maxWeakCount>4</maxWeakCount>
      <stageThreshold>7.9329681396484375e-01</stageThreshold>
      <weakClassifiers>
        <_>
          <internalNodes>
            0 -1 76 5.7192027568817139e-02</internalNodes>
          <leafValues>
            8.2111388444900513e-01 -1.3370742797851563e+00</leafValues></_>
        <_>
          <internalNodes>
            0 -1 2 3.9007458835840225e-02</internalNodes>
          <leafValues>
            -4.6882754564285278e-01 2.2398650646209717e+00</leafValues></_>
        <_>
          <internalNodes>
            0 -1 7 -7.9349979758262634e-02</internalNodes>
          <leafValues>
            1.5648838281631470e+00 -7.1656072139739990e-01</leafValues></_>
        <_>
          <internalNodes>
            0 -1 44 1.5243815258145332e-02</internalNodes>
          <leafValues>
            -7.4554276466369629e-01 1.1575711965560913e+00</leafValues></_></weakClassifiers></_>
    <!-- stage 10 -->
    <_>
      <maxWeakCount>3</maxWeakCount>
      <stageThreshold>-5.5634373426437378e-01</stageThreshold>
      <weakClassifiers>
        <_>
          <internalNodes>
            0 -1 56 -2.1383031271398067e-03</internalNodes>
          <leafValues>
            -1.0758811235427856e+00 1.1256458759307861e+00</leafValues></_>
        <_>
          <internalNodes>
            0 -1 46 -4.1398659348487854e-02</internalNodes>
          <leafValues>
            2.4809525012969971e+00 -7.1393555402755737e-01</leafValues></_>
        <_>
          <internalNodes>
            0 -1 19 7.1231182664632797e-03</internalNodes>
          <leafValues>
            -8.7916952371597290e-01 1.2334729433059692e+00</leafValues></_></weakClassifiers></_>
    <!-- stage 11 -->
    <_>
      <maxWeakCount>1</maxWeakCount>
      <stageThreshold>1.0559034347534180e+00</stageThreshold>
      <weakClassifiers>
        <_>
          <internalNodes>
            0 -1 50 1.4231633394956589e-03</internalNodes>
          <leafValues>
            1.0559034347534180e+00 -5.7564578056335449e+00</leafValues></_></weakClassifiers></_>
    <!-- stage 12 -->
    <_>
      <maxWeakCount>2</maxWeakCount>
      <stageThreshold>1.0165298730134964e-01</stageThreshold>
      <weakClassifiers>
        <_>
          <internalNodes>
            0 -1 33 -6.0216605663299561e-02</internalNodes>
          <leafValues>
            1.9356005191802979e+00 -7.3020118474960327e-01</leafValues></_>
        <_>
          <internalNodes>
            0 -1 34 -1.7086784355342388e-03</internalNodes>
          <leafValues>
            -1.8339475393295288e+00 8.7096220254898071e-01</leafValues></_></weakClassifiers></_>
    <!-- stage 13 -->
    <_>
      <maxWeakCount>3</maxWeakCount>
      <stageThreshold>-6.4450256526470184e-02</stageThreshold>
      <weakClassifiers>
        <_>
          <internalNodes>
            0 -1 64 -3.0286747962236404e-02</internalNodes>
          <leafValues>
            1.1190233230590820e+00 -9.0764498710632324e-01</leafValues></_>
        <_>
          <internalNodes>
            0 -1 27 1.3400852913036942e-03</internalNodes>
          <leafValues>
            5.0901383161544800e-01 -1.6349316835403442e+00</leafValues></_>
        <_>
          <internalNodes>
            0 -1 43 8.3229131996631622e-03</internalNodes>
          <leafValues>
            6.5237927436828613e-01 -1.6924873590469360e+00</leafValues></_></weakClassifiers></_>
    <!-- stage 14 -->
    <_>
      <maxWeakCount>3</maxWeakCount>
      <stageThreshold>-5.5134553462266922e-02</stageThreshold>
      <weakClassifiers>
        <_>
          <internalNodes>
            0 -1 69 -7.1882251650094986e-03</internalNodes>
          <leafValues>
            9.4747185707092285e-01 -1.0986123085021973e+00</leafValues></_>
        <_>
          <internalNodes>
            0 -1 84 8.2799559459090233e-03</internalNodes>
          <leafValues>
            -5.6994277238845825e-01 1.8014070987701416e+00</leafValues></_>
        <_>
          <internalNodes>
            0 -1 72 -1.1176564730703831e-02</internalNodes>
          <leafValues>
            5.7564578056335449e+00 -4.3266361951828003e-01</leafValues></_></weakClassifiers></_>
    <!-- stage 15 -->
    <_>
      <maxWeakCount>4</maxWeakCount>
      <stageThreshold>2.9077455401420593e-01</stageThreshold>
      <weakClassifiers>
        <_>
          <internalNodes>
            0 -1 32 -4.1284300386905670e-03</internalNodes>
          <leafValues>
            -1.0986123085021973e+00 7.8560835123062134e-01</leafValues></_>
        <_>
          <internalNodes>
            0 -1 89 1.2835593894124031e-02</internalNodes>
          <leafValues>
            -4.5724484324455261e-01 1.9341759681701660e+00</leafValues></_>
        <_>
          <internalNodes>
            0 -1 38 -5.5814110673964024e-03</internalNodes>
          <leafValues>
            1.3820605278015137e+00 -6.6208636760711670e-01</leafValues></_>
        <_>
          <internalNodes>
            0 -1 25 4.5126602053642273e-03</internalNodes>
          <leafValues>
            -1.2544726133346558e+00 6.2449741363525391e-01</leafValues></_></weakClassifiers></_>
    <!-- stage 16 -->
    <_>
      <maxWeakCount>5</maxWeakCount>
      <stageThreshold>8.9469231665134430e-02</stageThreshold>
      <weakClassifiers>
        <_>
          <internalNodes>
            0 -1 88 -1.5807512681931257e-03</internalNodes>
          <leafValues>
            -1.0551066398620605e+00 8.8617068529129028e-01</leafValues></_>
        <_>
          <internalNodes>
            0 -1 62 -9.3142017722129822e-03</internalNodes>
          <leafValues>
            -1.1852052211761475e+00 4.9475452303886414e-01</leafValues></_>
        <_>
          <internalNodes>
            0 -1 36 -5.1471672486513853e-04</internalNodes>
          <leafValues>
            -8.7734901905059814e-01 7.8342360258102417e-01</leafValues></_>
        <_>
          <internalNodes>
            0 -1 15 -1.6083618902484886e-05</internalNodes>
          <leafValues>
            4.9332568049430847e-01 -1.2859045267105103e+00</leafValues></_>
        <_>
          <internalNodes>
            0 -1 58 3.4735184162855148e-03</internalNodes>
          <leafValues>
            -6.2692791223526001e-01 1.2251349687576294e+00</leafValues></_></weakClassifiers></_>
    <!-- stage 17 -->
    <_>
      <maxWeakCount>4</maxWeakCount>
      <stageThreshold>-2.5947639718651772e-02</stageThreshold>
      <weakClassifiers>
        <_>
          <internalNodes>
            0 -1 42 2.9288817197084427e-02</internalNodes>
          <leafValues>
            8.0793440341949463e-01 -1.6661022901535034e+00</leafValues></_>
        <_>
          <internalNodes>
            0 -1 1 1.9620534777641296e-01</internalNodes>
          <leafValues>
            -4.5906445384025574e-01 1.3090862035751343e+00</leafValues></_>
        <_>
          <internalNodes>
            0 -1 67 -2.1265249699354172e-02</internalNodes>
          <leafValues>
            -1.0789210796356201e+00 5.8465939760208130e-01</leafValues></_>
        <_>
          <internalNodes>
            0 -1 35 -6.0682784533128142e-04</internalNodes>
          <leafValues>
            -8.1928992271423340e-01 7.0410352945327759e-01</leafValues></_></weakClassifiers></_>
    <!-- stage 18 -->
    <_>
      <maxWeakCount>5</maxWeakCount>
      <stageThreshold>2.5311005115509033e-01</stageThreshold>
      <weakClassifiers>
        <_>
          <internalNodes>
            0 -1 11 -9.2333750799298286e-03</internalNodes>
          <leafValues>
            -1.5890269279479980e+00 7.4725395441055298e-01</leafValues></_>
        <_>
          <internalNodes>
            0 -1 90 -7.6844971626996994e-03</internalNodes>
          <leafValues>
            5.7564578056335449e+00 -3.7013682723045349e-01</leafValues></_>
        <_>
          <internalNodes>
            0 -1 75 -6.7213410511612892e-03</internalNodes>
          <leafValues>
            1.9824452400207520e+00 -3.8992029428482056e-01</leafValues></_>
        <_>
          <internalNodes>
            0 -1 13 6.4360097050666809e-02</internalNodes>
          <leafValues>
            -7.3284316062927246e-01 9.2142534255981445e-01</leafValues></_>
        <_>
          <internalNodes>
            0 -1 14 -4.3252557516098022e-03</internalNodes>
          <leafValues>
            -6.5551209449768066e-01 1.2373681068420410e+00</leafValues></_></weakClassifiers></_>
    <!-- stage 19 -->
    <_>
      <maxWeakCount>3</maxWeakCount>
      <stageThreshold>-3.1652647256851196e-01</stageThreshold>
      <weakClassifiers>
        <_>
          <internalNodes>
            0 -1 28 -1.7801709473133087e-02</internalNodes>
          <leafValues>
            -1.4588853120803833e+00 9.7619134187698364e-01</leafValues></_>
        <_>
          <internalNodes>
            0 -1 29 -9.1437430819496512e-04</internalNodes>
          <leafValues>
            -1.0181739330291748e+00 7.9725414514541626e-01</leafValues></_>
        <_>
          <internalNodes>
            0 -1 63 2.3427374660968781e-02</internalNodes>
          <leafValues>
            6.1620110273361206e-01 -2.0899720191955566e+00</leafValues></_></weakClassifiers></_>
    <!-- stage 20 -->
    <_>
      <maxWeakCount>5</maxWeakCount>
      <stageThreshold>-2.4126200377941132e-01</stageThreshold>
      <weakClassifiers>
        <_>
          <internalNodes>
            0 -1 31 4.6186242252588272e-03</internalNodes>
          <leafValues>
            8.4911668300628662e-01 -1.0238463878631592e+00</leafValues></_>
        <_>
          <internalNodes>
            0 -1 40 -3.9464686997234821e-03</internalNodes>
          <leafValues>
            1.0644987821578979e+00 -4.8584115505218506e-01</leafValues></_>
        <_>
          <internalNodes>
            0 -1 86 -1.4646971225738525e-01</internalNodes>
          <leafValues>
            2.5342674255371094e+00 -4.3074858188629150e-01</leafValues></_>
        <_>
          <internalNodes>
            0 -1 53 5.2790127694606781e-02</internalNodes>
          <leafValues>
            -6.5579760074615479e-01 9.1680347919464111e-01</leafValues></_>
        <_>
          <internalNodes>
            0 -1 10 -6.8859346210956573e-03</internalNodes>
          <leafValues>
            4.8200863599777222e-01 -1.6495980024337769e+00</leafValues></_></weakClassifiers></_>
    <!-- stage 21 -->
    <_>
      <maxWeakCount>5</maxWeakCount>
      <stageThreshold>-2.0883095264434814e-01</stageThreshold>
      <weakClassifiers>
        <_>
          <internalNodes>
            0 -1 12 -4.8945220187306404e-03</internalNodes>
          <leafValues>
            -1.3370742797851563e+00 8.2111388444900513e-01</leafValues></_>
        <_>
          <internalNodes>
            0 -1 5 2.4098441004753113e-02</internalNodes>
          <leafValues>
            -4.5967274904251099e-01 2.0323619842529297e+00</leafValues></_>
        <_>
          <internalNodes>
            0 -1 0 -2.6955771446228027e-01</internalNodes>
          <leafValues>
            2.3350167274475098e+00 -5.4057806730270386e-01</leafValues></_>
        <_>
          <internalNodes>
            0 -1 39 3.6845090799033642e-03</internalNodes>
          <leafValues>
            -5.9034407138824463e-01 8.5275465250015259e-01</leafValues></_>
        <_>
          <internalNodes>
            0 -1 41 -6.6764326766133308e-04</internalNodes>
          <leafValues>
            -1.3431912660598755e+00 5.6065011024475098e-01</leafValues></_></weakClassifiers></_>
    <!-- stage 22 -->
    <_>
      <maxWeakCount>5</maxWeakCount>
      <stageThreshold>-5.3916740417480469e-01</stageThreshold>
      <weakClassifiers>
        <_>
          <internalNodes>
            0 -1 70 4.3143080547451973e-03</internalNodes>
          <leafValues>
            8.5237401723861694e-01 -1.1676874160766602e+00</leafValues></_>
        <_>
          <internalNodes>
            0 -1 21 -9.4120018184185028e-03</internalNodes>
          <leafValues>
            1.6249976158142090e+00 -3.6992076039314270e-01</leafValues></_>
        <_>
          <internalNodes>
            0 -1 6 2.0630881190299988e-03</internalNodes>
          <leafValues>
            -3.7392753362655640e-01 1.5995128154754639e+00</leafValues></_>
        <_>
          <internalNodes>
            0 -1 4 7.7820359729230404e-04</internalNodes>
          <leafValues>
            -4.8978129029273987e-01 1.0972764492034912e+00</leafValues></_>
        <_>
          <internalNodes>
            0 -1 77 7.6728817075490952e-03</internalNodes>
          <leafValues>
            4.1246524453163147e-01 -1.7449696063995361e+00</leafValues></_></weakClassifiers></_>
    <!-- stage 23 -->
    <_>
      <maxWeakCount>5</maxWeakCount>
      <stageThreshold>-8.1615954637527466e-01</stageThreshold>
      <weakClassifiers>
        <_>
          <internalNodes>
            0 -1 45 -4.3103834614157677e-03</internalNodes>
          <leafValues>
            -6.1188769340515137e-01 8.8577836751937866e-01</leafValues></_>
        <_>
          <internalNodes>
            0 -1 47 5.3400312026496977e-05</internalNodes>
          <leafValues>
            -6.6677725315093994e-01 5.6598228216171265e-01</leafValues></_>
        <_>
          <internalNodes>
            0 -1 60 -3.6482419818639755e-03</internalNodes>
          <leafValues>
            -1.0168895721435547e+00 4.2634251713752747e-01</leafValues></_>
        <_>
          <internalNodes>
            0 -1 71 3.6160622257739305e-03</internalNodes>
          <leafValues>
            3.6334368586540222e-01 -1.2044380903244019e+00</leafValues></_>
        <_>
          <internalNodes>
            0 -1 85 1.9063811050727963e-03</internalNodes>
          <leafValues>
            -3.2718083262443542e-01 1.9425261020660400e+00</leafValues></_></weakClassifiers></_>
    <!-- stage 24 -->
    <_>
      <maxWeakCount>5</maxWeakCount>
      <stageThreshold>-2.7916353940963745e-01</stageThreshold>
      <weakClassifiers>
        <_>
          <internalNodes>
            0 -1 52 1.7783058807253838e-02</internalNodes>
          <leafValues>
            7.4403852224349976e-01 -1.2424533367156982e+00</leafValues></_>
        <_>
          <internalNodes>
            0 -1 30 -9.9701806902885437e-04</internalNodes>
          <leafValues>
            2.1485781669616699e+00 -3.7024465203285217e-01</leafValues></_>
        <_>
          <internalNodes>
            0 -1 81 -7.0732133463025093e-03</internalNodes>
          <leafValues>
            2.6368517875671387e+00 -5.1785832643508911e-01</leafValues></_>
        <_>
          <internalNodes>
            0 -1 78 9.6210353076457977e-03</internalNodes>
          <leafValues>
            -6.4072126150131226e-01 9.4213211536407471e-01</leafValues></_>
        <_>
          <internalNodes>
            0 -1 82 -1.0234771762043238e-03</internalNodes>
          <leafValues>
            -9.6665960550308228e-01 5.0562214851379395e-01</leafValues></_></weakClassifiers></_></stages>
  <features>
    <_>
      <rects>
        <_>
          0 1 24 4 -1.</_>
        <_>
          8 1 8 4 2.</_></rects>
      <tilted>0</tilted></_>
    <_>
      <rects>
        <_>
          0 2 24 6 -1.</_>
        <_>
          8 4 8 2 9.</_></rects>
      <tilted>0</tilted></_>
    <_>
      <rects>
        <_>
          0 5 12 19 -1.</_>
        <_>
          3 5 6 19 2.</_></rects>
      <tilted>0</tilted></_>
    <_>
      <rects>
        <_>
          0 6 4 17 -1.</_>
        <_>
          2 6 2 17 2.</_></rects>
      <tilted>0</tilted></_>
    <_>
      <rects>
        <_>
          0 8 3 10 -1.</_>
        <_>
          0 13 3 5 2.</_></rects>
      <tilted>0</tilted></_>
    <_>
      <rects>
        <_>
          0 12 6 9 -1.</_>
        <_>
          3 12 3 9 2.</_></rects>
      <tilted>0</tilted></_>
    <_>
      <rects>
        <_>
          0 14 4 1 -1.</_>
        <_>
          2 14 2 1 2.</_></rects>
      <tilted>0</tilted></_>
    <_>
      <rects>
        <_>
          0 18 21 6 -1.</_>
        <_>
          7 20 7 2 9.</_></rects>
      <tilted>0</tilted></_>
    <_>
      <rects>
        <_>
          1 5 2 11 -1.</_>
        <_>
          2 5 1 11 2.</_></rects>
      <tilted>0</tilted></_>
    <_>
      <rects>
        <_>
          1 6 4 2 -1.</_>
        <_>
          2 6 2 2 2.</_></rects>
      <tilted>0</tilted></_>
    <_>
      <rects>
        <_>
          1 6 13 14 -1.</_>
        <_>
          1 13 13 7 2.</_></rects>
      <tilted>0</tilted></_>
    <_>
      <rects>
        <_>
          1 9 4 6 -1.</_>
        <_>
          1 12 4 3 2.</_></rects>
      <tilted>0</tilted></_>
    <_>
      <rects>
        <_>
          2 13 21 4 -1.</_>
        <_>
          2 14 21 2 2.</_></rects>
      <tilted>0</tilted></_>
    <_>
      <rects>
        <_>
          3 3 21 3 -1.</_>
        <_>
          10 4 7 1 9.</_></rects>
      <tilted>0</tilted></_>
    <_>
      <rects>
        <_>
          3 7 6 14 -1.</_>
        <_>
          3 7 3 7 2.</_>
        <_>
          6 14 3 7 2.</_></rects>
      <tilted>0</tilted></_>
    <_>
      <rects>
        <_>
          3 13 8 2 -1.</_>
        <_>
          3 14 8 1 2.</_></rects>
      <tilted>0</tilted></_>
    <_>
      <rects>
        <_>
          4 5 6 15 -1.</_>
        <_>
          6 10 2 5 9.</_></rects>
      <tilted>0</tilted></_>
    <_>
      <rects>
        <_>
          4 12 11 10 -1.</_>
        <_>
          4 17 11 5 2.</_></rects>
      <tilted>0</tilted></_>
    <_>
      <rects>
        <_>
          4 13 8 3 -1.</_>
        <_>
          3 14 8 1 3.</_></rects>
      <tilted>1</tilted></_>
    <_>
      <rects>
        <_>
          4 19 14 2 -1.</_>
        <_>
          11 19 7 2 2.</_></rects>
      <tilted>0</tilted></_>
    <_>
      <rects>
        <_>
          4 20 6 4 -1.</_>
        <_>
          4 22 6 2 2.</_></rects>
      <tilted>0</tilted></_>
    <_>
      <rects>
        <_>
          4 20 18 4 -1.</_>
        <_>
          4 21 18 2 2.</_></rects>
      <tilted>0</tilted></_>
    <_>
      <rects>
        <_>
          5 1 6 6 -1.</_>
        <_>
          5 1 3 3 2.</_>
        <_>
          8 4 3 3 2.</_></rects>
      <tilted>0</tilted></_>
    <_>
      <rects>
        <_>
          5 1 15 4 -1.</_>
        <_>
          5 3 15 2 2.</_></rects>
      <tilted>0</tilted></_>
    <_>
      <rects>
        <_>
          5 3 12 18 -1.</_>
        <_>
          8 3 6 18 2.</_></rects>
      <tilted>0</tilted></_>
    <_>
      <rects>
        <_>
          5 3 9 4 -1.</_>
        <_>
          5 3 9 2 2.</_></rects>
      <tilted>1</tilted></_>
    <_>
      <rects>
        <_>
          5 5 16 3 -1.</_>
        <_>
          9 5 8 3 2.</_></rects>
      <tilted>0</tilted></_>
    <_>
      <rects>
        <_>
          5 8 12 2 -1.</_>
        <_>
          5 8 6 1 2.</_>
        <_>
          11 9 6 1 2.</_></rects>
      <tilted>0</tilted></_>
    <_>
      <rects>
        <_>
          5 12 14 8 -1.</_>
        <_>
          5 12 7 4 2.</_>
        <_>
          12 16 7 4 2.</_></rects>
      <tilted>0</tilted></_>
    <_>
      <rects>
        <_>
          5 14 3 3 -1.</_>
        <_>
          6 15 1 3 3.</_></rects>
      <tilted>1</tilted></_>
    <_>
      <rects>
        <_>
          6 2 2 6 -1.</_>
        <_>
          6 2 1 3 2.</_>
        <_>
          7 5 1 3 2.</_></rects>
      <tilted>0</tilted></_>
    <_>
      <rects>
        <_>
          6 2 4 3 -1.</_>
        <_>
          5 3 4 1 3.</_></rects>
      <tilted>1</tilted></_>
    <_>
      <rects>
        <_>
          6 4 9 6 -1.</_>
        <_>
          9 6 3 2 9.</_></rects>
      <tilted>0</tilted></_>
    <_>
      <rects>
        <_>
          6 5 12 18 -1.</_>
        <_>
          6 14 12 9 2.</_></rects>
      <tilted>0</tilted></_>
    <_>
      <rects>
        <_>
          6 6 2 8 -1.</_>
        <_>
          6 8 2 4 2.</_></rects>
      <tilted>0</tilted></_>
    <_>
      <rects>
        <_>
          6 8 2 3 -1.</_>
        <_>
          5 9 2 1 3.</_></rects>
      <tilted>1</tilted></_>
    <_>
      <rects>
        <_>
          6 16 3 2 -1.</_>
        <_>
          7 17 1 2 3.</_></rects>
      <tilted>1</tilted></_>
    <_>
      <rects>
        <_>
          6 20 10 4 -1.</_>
        <_>
          6 21 10 2 2.</_></rects>
      <tilted>0</tilted></_>
    <_>
      <rects>
        <_>
          7 1 3 4 -1.</_>
        <_>
          8 2 1 4 3.</_></rects>
      <tilted>1</tilted></_>
    <_>
      <rects>
        <_>
          7 1 4 2 -1.</_>
        <_>
          7 2 4 1 2.</_></rects>
      <tilted>0</tilted></_>
    <_>
      <rects>
        <_>
          7 3 14 1 -1.</_>
        <_>
          14 3 7 1 2.</_></rects>
      <tilted>0</tilted></_>
    <_>
      <rects>
        <_>
          7 10 12 1 -1.</_>
        <_>
          10 10 6 1 2.</_></rects>
      <tilted>0</tilted></_>
    <_>
      <rects>
        <_>
          7 10 12 10 -1.</_>
        <_>
          7 10 6 5 2.</_>
        <_>
          13 15 6 5 2.</_></rects>
      <tilted>0</tilted></_>
    <_>
      <rects>
        <_>
          8 0 11 4 -1.</_>
        <_>
          7 1 11 2 2.</_></rects>
      <tilted>1</tilted></_>
    <_>
      <rects>
        <_>
          8 0 15 6 -1.</_>
        <_>
          6 2 15 2 3.</_></rects>
      <tilted>1</tilted></_>
    <_>
      <rects>
        <_>
          8 5 4 6 -1.</_>
        <_>
          6 7 4 2 3.</_></rects>
      <tilted>1</tilted></_>
    <_>
      <rects>
        <_>
          8 7 16 6 -1.</_>
        <_>
          16 7 8 6 2.</_></rects>
      <tilted>0</tilted></_>
    <_>
      <rects>
        <_>
          8 8 4 8 -1.</_>
        <_>
          9 9 2 8 2.</_></rects>
      <tilted>1</tilted></_>
    <_>
      <rects>
        <_>
          9 0 7 8 -1.</_>
        <_>
          9 2 7 4 2.</_></rects>
      <tilted>0</tilted></_>
    <_>
      <rects>
        <_>
          9 1 12 3 -1.</_>
        <_>
          13 5 4 3 3.</_></rects>
      <tilted>1</tilted></_>
    <_>
      <rects>
        <_>
          9 4 1 2 -1.</_>
        <_>
          9 4 1 1 2.</_></rects>
      <tilted>1</tilted></_>
    <_>
      <rects>
        <_>
          9 20 9 1 -1.</_>
        <_>
          12 20 3 1 2.</_></rects>
      <tilted>0</tilted></_>
    <_>
      <rects>
        <_>
          10 0 8 12 -1.</_>
        <_>
          12 0 4 12 2.</_></rects>
      <tilted>0</tilted></_>
    <_>
      <rects>
        <_>
          10 0 12 8 -1.</_>
        <_>
          10 4 12 4 2.</_></rects>
      <tilted>0</tilted></_>
    <_>
      <rects>
        <_>
          10 12 12 2 -1.</_>
        <_>
          10 12 6 1 2.</_>
        <_>
          16 13 6 1 2.</_></rects>
      <tilted>0</tilted></_>
    <_>
      <rects>
        <_>
          10 13 4 6 -1.</_>
        <_>
          11 13 2 6 2.</_></rects>
      <tilted>0</tilted></_>
    <_>
      <rects>
        <_>
          10 13 4 8 -1.</_>
        <_>
          11 13 2 8 2.</_></rects>
      <tilted>0</tilted></_>
    <_>
      <rects>
        <_>
          10 18 2 6 -1.</_>
        <_>
          10 20 2 2 2.</_></rects>
      <tilted>0</tilted></_>
    <_>
      <rects>
        <_>
          11 0 3 8 -1.</_>
        <_>
          12 1 1 8 3.</_></rects>
      <tilted>1</tilted></_>
    <_>
      <rects>
        <_>
          11 2 1 4 -1.</_>
        <_>
          10 3 1 2 2.</_></rects>
      <tilted>1</tilted></_>
    <_>
      <rects>
        <_>
          11 2 4 4 -1.</_>
        <_>
          13 2 2 4 2.</_></rects>
      <tilted>0</tilted></_>
    <_>
      <rects>
        <_>
          11 6 3 18 -1.</_>
        <_>
          11 12 3 6 2.</_></rects>
      <tilted>0</tilted></_>
    <_>
      <rects>
        <_>
          11 6 8 14 -1.</_>
        <_>
          11 6 4 7 2.</_>
        <_>
          15 13 4 7 2.</_></rects>
      <tilted>0</tilted></_>
    <_>
      <rects>
        <_>
          11 6 10 8 -1.</_>
        <_>
          11 6 5 4 2.</_>
        <_>
          16 10 5 4 2.</_></rects>
      <tilted>0</tilted></_>
    <_>
      <rects>
        <_>
          12 3 3 7 -1.</_>
        <_>
          13 3 1 7 2.</_></rects>
      <tilted>0</tilted></_>
    <_>
      <rects>
        <_>
          13 0 9 11 -1.</_>
        <_>
          16 0 3 11 2.</_></rects>
      <tilted>0</tilted></_>
    <_>
      <rects>
        <_>
          13 18 10 6 -1.</_>
        <_>
          18 18 5 6 2.</_></rects>
      <tilted>0</tilted></_>
    <_>
      <rects>
        <_>
          14 5 1 18 -1.</_>
        <_>
          14 14 1 9 2.</_></rects>
      <tilted>0</tilted></_>
    <_>
      <rects>
        <_>
          14 7 7 14 -1.</_>
        <_>
          14 14 7 7 2.</_></rects>
      <tilted>0</tilted></_>
    <_>
      <rects>
        <_>
          14 9 8 10 -1.</_>
        <_>
          14 14 8 5 2.</_></rects>
      <tilted>0</tilted></_>
    <_>
      <rects>
        <_>
          15 10 4 5 -1.</_>
        <_>
          16 11 2 5 2.</_></rects>
      <tilted>1</tilted></_>
    <_>
      <rects>
        <_>
          15 13 4 11 -1.</_>
        <_>
          16 13 2 11 2.</_></rects>
      <tilted>0</tilted></_>
    <_>
      <rects>
        <_>
          15 15 8 1 -1.</_>
        <_>
          15 15 4 1 2.</_></rects>
      <tilted>1</tilted></_>
    <_>
      <rects>
        <_>
          15 19 6 4 -1.</_>
        <_>
          15 19 3 2 2.</_>
        <_>
          18 21 3 2 2.</_></rects>
      <tilted>0</tilted></_>
    <_>
      <rects>
        <_>
          15 20 3 1 -1.</_>
        <_>
          16 20 1 1 2.</_></rects>
      <tilted>0</tilted></_>
    <_>
      <rects>
        <_>
          16 0 2 10 -1.</_>
        <_>
          16 5 2 5 2.</_></rects>
      <tilted>0</tilted></_>
    <_>
      <rects>
        <_>
          16 0 6 7 -1.</_>
        <_>
          16 0 3 7 2.</_></rects>
      <tilted>1</tilted></_>
    <_>
      <rects>
        <_>
          16 3 4 9 -1.</_>
        <_>
          17 4 2 9 2.</_></rects>
      <tilted>1</tilted></_>
    <_>
      <rects>
        <_>
          16 3 6 14 -1.</_>
        <_>
          16 3 3 7 2.</_>
        <_>
          19 10 3 7 2.</_></rects>
      <tilted>0</tilted></_>
    <_>
      <rects>
        <_>
          16 15 7 2 -1.</_>
        <_>
          16 15 7 1 2.</_></rects>
      <tilted>1</tilted></_>
    <_>
      <rects>
        <_>
          16 16 3 1 -1.</_>
        <_>
          17 16 1 1 2.</_></rects>
      <tilted>0</tilted></_>
    <_>
      <rects>
        <_>
          17 1 4 3 -1.</_>
        <_>
          16 2 4 1 3.</_></rects>
      <tilted>1</tilted></_>
    <_>
      <rects>
        <_>
          17 15 4 3 -1.</_>
        <_>
          16 16 4 1 3.</_></rects>
      <tilted>1</tilted></_>
    <_>
      <rects>
        <_>
          19 4 3 18 -1.</_>
        <_>
          19 10 3 6 2.</_></rects>
      <tilted>0</tilted></_>
    <_>
      <rects>
        <_>
          19 12 4 12 -1.</_>
        <_>
          19 12 2 6 2.</_>
        <_>
          21 18 2 6 2.</_></rects>
      <tilted>0</tilted></_>
    <_>
      <rects>
        <_>
          19 15 3 1 -1.</_>
        <_>
          20 16 1 1 3.</_></rects>
      <tilted>1</tilted></_>
    <_>
      <rects>
        <_>
          20 0 2 24 -1.</_>
        <_>
          20 8 2 8 2.</_></rects>
      <tilted>0</tilted></_>
    <_>
      <rects>
        <_>
          20 1 2 15 -1.</_>
        <_>
          20 6 2 5 2.</_></rects>
      <tilted>0</tilted></_>
    <_>
      <rects>
        <_>
          20 6 2 4 -1.</_>
        <_>
          20 6 1 4 2.</_></rects>
      <tilted>1</tilted></_>
    <_>
      <rects>
        <_>
          20 10 4 14 -1.</_>
        <_>
          20 10 2 7 2.</_>
        <_>
          22 17 2 7 2.</_></rects>
      <tilted>0</tilted></_>
    <_>
      <rects>
        <_>
          20 17 4 3 -1.</_>
        <_>
          21 18 2 3 2.</_></rects>
      <tilted>1</tilted></_>
    <_>
      <rects>
        <_>
          21 2 1 18 -1.</_>
        <_>
          21 8 1 6 2.</_></rects>
      <tilted>0</tilted></_></features></cascade>
</opencv_storage>
