<?xml version="1.0"?>
<opencv_storage>
<cascade>
  <stageType>BOOST</stageType>
  <featureType>HAAR</featureType>
  <height>24</height>
  <width>24</width>
  <stageParams>
    <boostType>RAB</boostType>
    <minHitRate>9.9500000476837158e-01</minHitRate>
    <maxFalseAlarm>5.0000000000000000e-01</maxFalseAlarm>
    <weightTrimRate>9.4999998807907104e-01</weightTrimRate>
    <maxDepth>1</maxDepth>
    <maxWeakCount>100</maxWeakCount></stageParams>
  <featureParams>
    <maxCatCount>0</maxCatCount>
    <featSize>1</featSize>
    <mode>ALL</mode></featureParams>
  <stageNum>20</stageNum>
  <stages>
    <!-- stage 0 -->
    <_>
      <maxWeakCount>4</maxWeakCount>
      <stageThreshold>-6.9557219743728638e-01</stageThreshold>
      <weakClassifiers>
        <_>
          <internalNodes>
            0 -1 23 -3.0457689426839352e-03</internalNodes>
          <leafValues>
            3.0820670723915100e-01 -1.0660426616668701e+00</leafValues></_>
        <_>
          <internalNodes>
            0 -1 161 2.9426789842545986e-03</internalNodes>
          <leafValues>
            -7.1284800767898560e-01 7.4125802516937256e-01</leafValues></_>
        <_>
          <internalNodes>
            0 -1 43 2.1176822483539581e-03</internalNodes>
          <leafValues>
            -5.9339445829391479e-01 7.3583394289016724e-01</leafValues></_>
        <_>
          <internalNodes>
            0 -1 16 -2.9999357461929321e-01</internalNodes>
          <leafValues>
            -2.1437306404113770e+00 3.4748443961143494e-01</leafValues></_></weakClassifiers></_>
    <!-- stage 1 -->
    <_>
      <maxWeakCount>7</maxWeakCount>
      <stageThreshold>-8.0526572465896606e-01</stageThreshold>
      <weakClassifiers>
        <_>
          <internalNodes>
            0 -1 95 2.8748433105647564e-03</internalNodes>
          <leafValues>
            -8.1778210401535034e-01 4.7548815608024597e-01</leafValues></_>
        <_>
          <internalNodes>
            0 -1 138 -7.1310554631054401e-04</internalNodes>
          <leafValues>
            1.0600169897079468e+00 -3.2796013355255127e-01</leafValues></_>
        <_>
          <internalNodes>
            0 -1 178 7.2598439874127507e-04</internalNodes>
          <leafValues>
            -6.1925297975540161e-01 5.1136952638626099e-01</leafValues></_>
        <_>
          <internalNodes>
            0 -1 70 -2.0606108009815216e-03</internalNodes>
          <leafValues>
            1.0621193647384644e+00 -3.4865343570709229e-01</leafValues></_>
        <_>
          <internalNodes>
            0 -1 73 4.7818146413192153e-04</internalNodes>
          <leafValues>
            -2.8299343585968018e-01 1.6403982639312744e+00</leafValues></_>
        <_>
          <internalNodes>
            0 -1 126 3.0417338712140918e-04</internalNodes>
          <leafValues>
            -3.6915948987007141e-01 1.0216420888900757e+00</leafValues></_>
        <_>
          <internalNodes>
            0 -1 51 -5.9021431952714920e-03</internalNodes>
          <leafValues>
            8.3536052703857422e-01 -4.6335691213607788e-01</leafValues></_></weakClassifiers></_>
    <!-- stage 2 -->
    <_>
      <maxWeakCount>4</maxWeakCount>
      <stageThreshold>-1.7752921581268311e+00</stageThreshold>
      <weakClassifiers>
        <_>
          <internalNodes>
            0 -1 53 -2.0356820896267891e-02</internalNodes>
          <leafValues>
            2.5080448389053345e-01 -1.3387955427169800e+00</leafValues></_>
        <_>
          <internalNodes>
            0 -1 75 -1.7776444554328918e-02</internalNodes>
          <leafValues>
            3.7396505475044250e-01 -1.2313774824142456e+00</leafValues></_>
        <_>
          <internalNodes>
            0 -1 58 -7.9410348553210497e-04</internalNodes>
          <leafValues>
            7.1604657173156738e-01 -3.6061322689056396e-01</leafValues></_>
        <_>
          <internalNodes>
            0 -1 179 -1.3536771759390831e-02</internalNodes>
          <leafValues>
            2.4367997050285339e-01 -1.5265083312988281e+00</leafValues></_></weakClassifiers></_>
    <!-- stage 3 -->
    <_>
      <maxWeakCount>8</maxWeakCount>
      <stageThreshold>-1.6175583600997925e+00</stageThreshold>
      <weakClassifiers>
        <_>
          <internalNodes>
            0 -1 118 -4.5928563922643661e-03</internalNodes>
          <leafValues>
            4.0546509623527527e-01 -5.9281182289123535e-01</leafValues></_>
        <_>
          <internalNodes>
            0 -1 117 1.8419659463688731e-03</internalNodes>
          <leafValues>
            -2.3475351929664612e-01 8.9129775762557983e-01</leafValues></_>
        <_>
          <internalNodes>
            0 -1 3 3.0723260715603828e-02</internalNodes>
          <leafValues>
            2.4125283956527710e-01 -1.1842575073242188e+00</leafValues></_>
        <_>
          <internalNodes>
            0 -1 6 -3.5078816115856171e-02</internalNodes>
          <leafValues>
            -8.2977324724197388e-01 3.1917139887809753e-01</leafValues></_>
        <_>
          <internalNodes>
            0 -1 64 3.6523505696095526e-04</internalNodes>
          <leafValues>
            -3.5494315624237061e-01 7.0658934116363525e-01</leafValues></_>
        <_>
          <internalNodes>
            0 -1 124 3.9419141830876470e-04</internalNodes>
          <leafValues>
            -2.5350472331047058e-01 9.2670059204101563e-01</leafValues></_>
        <_>
          <internalNodes>
            0 -1 14 -2.9238760471343994e-02</internalNodes>
          <leafValues>
            2.4013361334800720e-01 -9.9987798929214478e-01</leafValues></_>
        <_>
          <internalNodes>
            0 -1 105 -4.3757474422454834e-01</internalNodes>
          <leafValues>
            -1.5824371576309204e+00 2.5790864229202271e-01</leafValues></_></weakClassifiers></_>
    <!-- stage 4 -->
    <_>
      <maxWeakCount>5</maxWeakCount>
      <stageThreshold>-1.3917448520660400e+00</stageThreshold>
      <weakClassifiers>
        <_>
          <internalNodes>
            0 -1 157 -1.3546854257583618e-02</internalNodes>
          <leafValues>
            1.5637785196304321e-01 -1.1934630870819092e+00</leafValues></_>
        <_>
          <internalNodes>
            0 -1 25 -1.1323109269142151e-02</internalNodes>
          <leafValues>
            6.9003814458847046e-01 -3.2580983638763428e-01</leafValues></_>
        <_>
          <internalNodes>
            0 -1 149 -2.4283290840685368e-03</internalNodes>
          <leafValues>
            7.3187172412872314e-01 -3.0716574192047119e-01</leafValues></_>
        <_>
          <internalNodes>
            0 -1 159 -5.6519950740039349e-03</internalNodes>
          <leafValues>
            6.2981319427490234e-01 -3.5202404856681824e-01</leafValues></_>
        <_>
          <internalNodes>
            0 -1 148 -1.9092932343482971e-03</internalNodes>
          <leafValues>
            9.7985804080963135e-01 -2.5231963396072388e-01</leafValues></_></weakClassifiers></_>
    <!-- stage 5 -->
    <_>
      <maxWeakCount>8</maxWeakCount>
      <stageThreshold>-1.3981168270111084e+00</stageThreshold>
      <weakClassifiers>
        <_>
          <internalNodes>
            0 -1 78 4.5641753822565079e-03</internalNodes>
          <leafValues>
            -5.7178181409835815e-01 4.2364892363548279e-01</leafValues></_>
        <_>
          <internalNodes>
            0 -1 45 -4.9364238977432251e-02</internalNodes>
          <leafValues>
            2.2246006131172180e-01 -1.0440376996994019e+00</leafValues></_>
        <_>
          <internalNodes>
            0 -1 21 -9.4704963266849518e-03</internalNodes>
          <leafValues>
            4.0333116054534912e-01 -4.9419918656349182e-01</leafValues></_>
        <_>
          <internalNodes>
            0 -1 115 3.2836846075952053e-03</internalNodes>
          <leafValues>
            -2.4459281563758850e-01 8.3116745948791504e-01</leafValues></_>
        <_>
          <internalNodes>
            0 -1 134 -1.2798781972378492e-03</internalNodes>
          <leafValues>
            7.0009672641754150e-01 -3.6171826720237732e-01</leafValues></_>
        <_>
          <internalNodes>
            0 -1 71 3.4099929034709930e-03</internalNodes>
          <leafValues>
            -2.5083854794502258e-01 7.8797352313995361e-01</leafValues></_>
        <_>
          <internalNodes>
            0 -1 69 -2.1830643527209759e-04</internalNodes>
          <leafValues>
            7.7084606885910034e-01 -3.1699767708778381e-01</leafValues></_>
        <_>
          <internalNodes>
            0 -1 83 -4.8934156075119972e-04</internalNodes>
          <leafValues>
            8.2957220077514648e-01 -2.7797889709472656e-01</leafValues></_></weakClassifiers></_>
    <!-- stage 6 -->
    <_>
      <maxWeakCount>6</maxWeakCount>
      <stageThreshold>-1.3668042421340942e+00</stageThreshold>
      <weakClassifiers>
        <_>
          <internalNodes>
            0 -1 20 -2.9246953129768372e-01</internalNodes>
          <leafValues>
            -9.0339869260787964e-01 8.3527043461799622e-02</leafValues></_>
        <_>
          <internalNodes>
            0 -1 136 8.2622806075960398e-04</internalNodes>
          <leafValues>
            -2.0473222434520721e-01 8.2978034019470215e-01</leafValues></_>
        <_>
          <internalNodes>
            0 -1 68 5.2189715206623077e-03</internalNodes>
          <leafValues>
            -3.1728509068489075e-01 5.0335860252380371e-01</leafValues></_>
        <_>
          <internalNodes>
            0 -1 84 -3.0245101079344749e-03</internalNodes>
          <leafValues>
            7.3683637380599976e-01 -2.3241181671619415e-01</leafValues></_>
        <_>
          <internalNodes>
            0 -1 153 7.8712275717407465e-04</internalNodes>
          <leafValues>
            -1.7092050611972809e-01 1.1501183509826660e+00</leafValues></_>
        <_>
          <internalNodes>
            0 -1 41 -8.1884548068046570e-02</internalNodes>
          <leafValues>
            3.4496718645095825e-01 -5.0730413198471069e-01</leafValues></_></weakClassifiers></_>
    <!-- stage 7 -->
    <_>
      <maxWeakCount>10</maxWeakCount>
      <stageThreshold>-8.9040559530258179e-01</stageThreshold>
      <weakClassifiers>
        <_>
          <internalNodes>
            0 -1 122 7.4864160269498825e-03</internalNodes>
          <leafValues>
            -8.4193527698516846e-01 -2.1947097033262253e-02</leafValues></_>
        <_>
          <internalNodes>
            0 -1 173 -4.9414817243814468e-02</internalNodes>
          <leafValues>
            -2.0336687564849854e+00 1.2756912410259247e-01</leafValues></_>
        <_>
          <internalNodes>
            0 -1 119 6.0105568263679743e-04</internalNodes>
          <leafValues>
            -1.9489939510822296e-01 8.4955793619155884e-01</leafValues></_>
        <_>
          <internalNodes>
            0 -1 146 6.5644017013255507e-05</internalNodes>
          <leafValues>
            2.5406640768051147e-01 -5.6139087677001953e-01</leafValues></_>
        <_>
          <internalNodes>
            0 -1 135 9.5818279078230262e-04</internalNodes>
          <leafValues>
            -1.8609610199928284e-01 8.7430244684219360e-01</leafValues></_>
        <_>
          <internalNodes>
            0 -1 177 -1.4926851144991815e-04</internalNodes>
          <leafValues>
            -7.0377331972122192e-01 2.4034889042377472e-01</leafValues></_>
        <_>
          <internalNodes>
            0 -1 100 -5.1709964871406555e-02</internalNodes>
          <leafValues>
            -1.6543652117252350e-01 1.1117200851440430e+00</leafValues></_>
        <_>
          <internalNodes>
            0 -1 93 1.1693558190017939e-03</internalNodes>
          <leafValues>
            -2.8312885761260986e-01 6.3084906339645386e-01</leafValues></_>
        <_>
          <internalNodes>
            0 -1 113 2.3531322367489338e-03</internalNodes>
          <leafValues>
            -2.2557714581489563e-01 7.5412648916244507e-01</leafValues></_>
        <_>
          <internalNodes>
            0 -1 145 3.7130769342184067e-03</internalNodes>
          <leafValues>
            -3.0409225821495056e-01 5.0881731510162354e-01</leafValues></_></weakClassifiers></_>
    <!-- stage 8 -->
    <_>
      <maxWeakCount>6</maxWeakCount>
      <stageThreshold>-1.3525130748748779e+00</stageThreshold>
      <weakClassifiers>
        <_>
          <internalNodes>
            0 -1 72 -2.0672225952148438e-01</internalNodes>
          <leafValues>
            -9.2234092950820923e-01 1.7280235886573792e-01</leafValues></_>
        <_>
          <internalNodes>
            0 -1 2 -2.0882751792669296e-02</internalNodes>
          <leafValues>
            -1.2359721660614014e+00 1.8265661597251892e-01</leafValues></_>
        <_>
          <internalNodes>
            0 -1 1 2.9084060224704444e-04</internalNodes>
          <leafValues>
            2.4451768398284912e-01 -7.6518166065216064e-01</leafValues></_>
        <_>
          <internalNodes>
            0 -1 26 -1.3818567991256714e-01</internalNodes>
          <leafValues>
            3.6088207364082336e-01 -5.4006314277648926e-01</leafValues></_>
        <_>
          <internalNodes>
            0 -1 7 -1.0792484972625971e-03</internalNodes>
          <leafValues>
            -1.1896618604660034e+00 1.8131855130195618e-01</leafValues></_>
        <_>
          <internalNodes>
            0 -1 180 -1.0381802916526794e-02</internalNodes>
          <leafValues>
            -1.1237100362777710e+00 1.9009774923324585e-01</leafValues></_></weakClassifiers></_>
    <!-- stage 9 -->
    <_>
      <maxWeakCount>9</maxWeakCount>
      <stageThreshold>-1.3366267681121826e+00</stageThreshold>
      <weakClassifiers>
        <_>
          <internalNodes>
            0 -1 74 1.5190030680969357e-03</internalNodes>
          <leafValues>
            -7.7877268195152283e-02 -1.0832264423370361e+00</leafValues></_>
        <_>
          <internalNodes>
            0 -1 103 3.3582015021238476e-05</internalNodes>
          <leafValues>
            -5.0707900524139404e-01 2.9241892695426941e-01</leafValues></_>
        <_>
          <internalNodes>
            0 -1 97 -1.4464037958532572e-03</internalNodes>
          <leafValues>
            -7.6740616559982300e-01 2.9970052838325500e-01</leafValues></_>
        <_>
          <internalNodes>
            0 -1 7 3.8198934635147452e-04</internalNodes>
          <leafValues>
            1.7872446775436401e-01 -7.8341412544250488e-01</leafValues></_>
        <_>
          <internalNodes>
            0 -1 17 -6.6641159355640411e-03</internalNodes>
          <leafValues>
            5.3325909376144409e-01 -3.0626374483108521e-01</leafValues></_>
        <_>
          <internalNodes>
            0 -1 87 1.2661375803872943e-03</internalNodes>
          <leafValues>
            2.0245942473411560e-01 -8.8745504617691040e-01</leafValues></_>
        <_>
          <internalNodes>
            0 -1 167 8.6261384421959519e-04</internalNodes>
          <leafValues>
            1.6554225981235504e-01 -1.1982738971710205e+00</leafValues></_>
        <_>
          <internalNodes>
            0 -1 76 3.1407414935529232e-03</internalNodes>
          <leafValues>
            -2.9365143179893494e-01 5.4655170440673828e-01</leafValues></_>
        <_>
          <internalNodes>
            0 -1 172 5.9113758616149426e-03</internalNodes>
          <leafValues>
            -3.7362861633300781e-01 3.6563411355018616e-01</leafValues></_></weakClassifiers></_>
    <!-- stage 10 -->
    <_>
      <maxWeakCount>7</maxWeakCount>
      <stageThreshold>-9.7257232666015625e-01</stageThreshold>
      <weakClassifiers>
        <_>
          <internalNodes>
            0 -1 112 1.3435333967208862e-02</internalNodes>
          <leafValues>
            -4.6070292592048645e-01 8.5237401723861694e-01</leafValues></_>
        <_>
          <internalNodes>
            0 -1 106 4.3818610720336437e-04</internalNodes>
          <leafValues>
            -3.7253716588020325e-01 3.8194996118545532e-01</leafValues></_>
        <_>
          <internalNodes>
            0 -1 162 -2.7484181919135153e-04</internalNodes>
          <leafValues>
            -6.1454689502716064e-01 2.7331316471099854e-01</leafValues></_>
        <_>
          <internalNodes>
            0 -1 4 -1.2164512649178505e-02</internalNodes>
          <leafValues>
            -7.8143984079360962e-01 2.0405334234237671e-01</leafValues></_>
        <_>
          <internalNodes>
            0 -1 10 1.0214801877737045e-02</internalNodes>
          <leafValues>
            1.7604126036167145e-01 -1.0683940649032593e+00</leafValues></_>
        <_>
          <internalNodes>
            0 -1 131 3.7309774197638035e-03</internalNodes>
          <leafValues>
            -2.4295598268508911e-01 7.0394808053970337e-01</leafValues></_>
        <_>
          <internalNodes>
            0 -1 81 -4.9305160064250231e-04</internalNodes>
          <leafValues>
            6.9465130567550659e-01 -2.4820485711097717e-01</leafValues></_></weakClassifiers></_>
    <!-- stage 11 -->
    <_>
      <maxWeakCount>10</maxWeakCount>
      <stageThreshold>-1.0210492610931396e+00</stageThreshold>
      <weakClassifiers>
        <_>
          <internalNodes>
            0 -1 33 -3.1858697533607483e-02</internalNodes>
          <leafValues>
            2.8993628919124603e-02 -7.6152664422988892e-01</leafValues></_>
        <_>
          <internalNodes>
            0 -1 65 -4.8858299851417542e-04</internalNodes>
          <leafValues>
            6.6988241672515869e-01 -2.2540828585624695e-01</leafValues></_>
        <_>
          <internalNodes>
            0 -1 96 -3.0544996261596680e-02</internalNodes>
          <leafValues>
            -1.3709422349929810e+00 1.5959766507148743e-01</leafValues></_>
        <_>
          <internalNodes>
            0 -1 54 -6.3521915581077337e-04</internalNodes>
          <leafValues>
            5.5540132522583008e-01 -2.2454418241977692e-01</leafValues></_>
        <_>
          <internalNodes>
            0 -1 5 8.7231591343879700e-02</internalNodes>
          <leafValues>
            1.3945662975311279e-01 -1.1268103122711182e+00</leafValues></_>
        <_>
          <internalNodes>
            0 -1 123 -4.1316044516861439e-03</internalNodes>
          <leafValues>
            8.0125552415847778e-01 -2.0775613188743591e-01</leafValues></_>
        <_>
          <internalNodes>
            0 -1 101 -1.5556633006781340e-03</internalNodes>
          <leafValues>
            7.6237791776657104e-01 -2.0847111940383911e-01</leafValues></_>
        <_>
          <internalNodes>
            0 -1 24 -1.2378430366516113e-01</internalNodes>
          <leafValues>
            -8.2217293977737427e-01 1.7938964068889618e-01</leafValues></_>
        <_>
          <internalNodes>
            0 -1 147 8.6446409113705158e-04</internalNodes>
          <leafValues>
            -2.3332737386226654e-01 6.1876922845840454e-01</leafValues></_>
        <_>
          <internalNodes>
            0 -1 80 4.4579417444765568e-03</internalNodes>
          <leafValues>
            -2.6898604631423950e-01 5.7258284091949463e-01</leafValues></_></weakClassifiers></_>
    <!-- stage 12 -->
    <_>
      <maxWeakCount>12</maxWeakCount>
      <stageThreshold>-1.3299046754837036e+00</stageThreshold>
      <weakClassifiers>
        <_>
          <internalNodes>
            0 -1 98 7.2848521173000336e-02</internalNodes>
          <leafValues>
            -6.0577636957168579e-01 8.5635863244533539e-02</leafValues></_>
        <_>
          <internalNodes>
            0 -1 60 -3.7828984204679728e-05</internalNodes>
          <leafValues>
            2.9832005500793457e-01 -4.1136032342910767e-01</leafValues></_>
        <_>
          <internalNodes>
            0 -1 85 -3.8706511259078979e-03</internalNodes>
          <leafValues>
            6.8326133489608765e-01 -1.6916342079639435e-01</leafValues></_>
        <_>
          <internalNodes>
            0 -1 137 8.5453465580940247e-03</internalNodes>
          <leafValues>
            -1.9948567450046539e-01 5.5125743150711060e-01</leafValues></_>
        <_>
          <internalNodes>
            0 -1 88 3.5766061046160758e-04</internalNodes>
          <leafValues>
            1.2425661832094193e-01 -1.1538959741592407e+00</leafValues></_>
        <_>
          <internalNodes>
            0 -1 133 3.7449577357620001e-03</internalNodes>
          <leafValues>
            -2.0473933219909668e-01 5.5131220817565918e-01</leafValues></_>
        <_>
          <internalNodes>
            0 -1 0 1.4554007793776691e-04</internalNodes>
          <leafValues>
            1.7730905115604401e-01 -7.3237246274948120e-01</leafValues></_>
        <_>
          <internalNodes>
            0 -1 12 -3.2882350496947765e-03</internalNodes>
          <leafValues>
            -9.8114645481109619e-01 1.7299495637416840e-01</leafValues></_>
        <_>
          <internalNodes>
            0 -1 18 -3.8240345020312816e-05</internalNodes>
          <leafValues>
            3.9337226748466492e-01 -2.9489049315452576e-01</leafValues></_>
        <_>
          <internalNodes>
            0 -1 48 -1.8141045002266765e-03</internalNodes>
          <leafValues>
            5.7572042942047119e-01 -2.2457937896251678e-01</leafValues></_>
        <_>
          <internalNodes>
            0 -1 15 -2.4061613657977432e-04</internalNodes>
          <leafValues>
            -6.7238199710845947e-01 1.7702704668045044e-01</leafValues></_>
        <_>
          <internalNodes>
            0 -1 30 -6.7488392814993858e-03</internalNodes>
          <leafValues>
            5.5891191959381104e-01 -2.1645058691501617e-01</leafValues></_></weakClassifiers></_>
    <!-- stage 13 -->
    <_>
      <maxWeakCount>12</maxWeakCount>
      <stageThreshold>-1.0224086046218872e+00</stageThreshold>
      <weakClassifiers>
        <_>
          <internalNodes>
            0 -1 171 -6.0476735234260559e-03</internalNodes>
          <leafValues>
            2.1643203496932983e-01 -5.1367461681365967e-01</leafValues></_>
        <_>
          <internalNodes>
            0 -1 139 1.0878900066018105e-02</internalNodes>
          <leafValues>
            -2.8751438856124878e-01 3.2332950830459595e-01</leafValues></_>
        <_>
          <internalNodes>
            0 -1 91 1.0183415724895895e-04</internalNodes>
          <leafValues>
            -2.7091458439826965e-01 3.2847243547439575e-01</leafValues></_>
        <_>
          <internalNodes>
            0 -1 99 1.9709300249814987e-03</internalNodes>
          <leafValues>
            -1.6083468496799469e-01 6.1340993642807007e-01</leafValues></_>
        <_>
          <internalNodes>
            0 -1 57 6.9244764745235443e-04</internalNodes>
          <leafValues>
            -2.1536786854267120e-01 4.2601418495178223e-01</leafValues></_>
        <_>
          <internalNodes>
            0 -1 11 5.7807844132184982e-03</internalNodes>
          <leafValues>
            1.2653183937072754e-01 -8.5933375358581543e-01</leafValues></_>
        <_>
          <internalNodes>
            0 -1 90 -1.2611931189894676e-02</internalNodes>
          <leafValues>
            6.5679240226745605e-01 -1.6255940496921539e-01</leafValues></_>
        <_>
          <internalNodes>
            0 -1 109 -1.8986009061336517e-02</internalNodes>
          <leafValues>
            4.2558234930038452e-01 -2.5092172622680664e-01</leafValues></_>
        <_>
          <internalNodes>
            0 -1 50 -1.4500839170068502e-03</internalNodes>
          <leafValues>
            3.9304134249687195e-01 -2.4162566661834717e-01</leafValues></_>
        <_>
          <internalNodes>
            0 -1 39 -1.6298618912696838e-01</internalNodes>
          <leafValues>
            -4.0844413638114929e-01 2.4516001343727112e-01</leafValues></_>
        <_>
          <internalNodes>
            0 -1 176 1.9409840751904994e-04</internalNodes>
          <leafValues>
            -2.1665515005588531e-01 4.8238268494606018e-01</leafValues></_>
        <_>
          <internalNodes>
            0 -1 155 -1.7035665223374963e-04</internalNodes>
          <leafValues>
            3.6776655912399292e-01 -2.8426322340965271e-01</leafValues></_></weakClassifiers></_>
    <!-- stage 14 -->
    <_>
      <maxWeakCount>10</maxWeakCount>
      <stageThreshold>-1.0440216064453125e+00</stageThreshold>
      <weakClassifiers>
        <_>
          <internalNodes>
            0 -1 22 -5.3842482157051563e-04</internalNodes>
          <leafValues>
            -1.3568666577339172e-01 -8.8747614622116089e-01</leafValues></_>
        <_>
          <internalNodes>
            0 -1 156 -1.1794778984040022e-03</internalNodes>
          <leafValues>
            -7.7706831693649292e-01 1.3723030686378479e-01</leafValues></_>
        <_>
          <internalNodes>
            0 -1 107 -1.8355466891080141e-03</internalNodes>
          <leafValues>
            4.6229836344718933e-01 -1.7920313775539398e-01</leafValues></_>
        <_>
          <internalNodes>
            0 -1 89 1.3058068230748177e-02</internalNodes>
          <leafValues>
            -1.2561857700347900e-01 6.7486679553985596e-01</leafValues></_>
        <_>
          <internalNodes>
            0 -1 37 4.1219856939278543e-04</internalNodes>
          <leafValues>
            1.8664304912090302e-01 -5.3446245193481445e-01</leafValues></_>
        <_>
          <internalNodes>
            0 -1 163 1.6479564364999533e-03</internalNodes>
          <leafValues>
            -2.5958004593849182e-01 4.4562739133834839e-01</leafValues></_>
        <_>
          <internalNodes>
            0 -1 66 -7.6792873442173004e-03</internalNodes>
          <leafValues>
            2.7620482444763184e-01 -4.2894232273101807e-01</leafValues></_>
        <_>
          <internalNodes>
            0 -1 144 -7.1044726064428687e-04</internalNodes>
          <leafValues>
            5.2603536844253540e-01 -2.0586143434047699e-01</leafValues></_>
        <_>
          <internalNodes>
            0 -1 59 4.9840810243040323e-04</internalNodes>
          <leafValues>
            -2.1590203046798706e-01 4.4173893332481384e-01</leafValues></_>
        <_>
          <internalNodes>
            0 -1 67 2.1612255659420043e-04</internalNodes>
          <leafValues>
            -2.4945074319839478e-01 4.5406523346900940e-01</leafValues></_></weakClassifiers></_>
    <!-- stage 15 -->
    <_>
      <maxWeakCount>13</maxWeakCount>
      <stageThreshold>-9.7823482751846313e-01</stageThreshold>
      <weakClassifiers>
        <_>
          <internalNodes>
            0 -1 63 -6.7893609404563904e-02</internalNodes>
          <leafValues>
            5.7872641086578369e-01 -4.2881694436073303e-01</leafValues></_>
        <_>
          <internalNodes>
            0 -1 8 3.7013489054515958e-04</internalNodes>
          <leafValues>
            9.8351590335369110e-02 -8.0926507711410522e-01</leafValues></_>
        <_>
          <internalNodes>
            0 -1 174 1.6573385801166296e-03</internalNodes>
          <leafValues>
            1.5617789328098297e-01 -7.0967352390289307e-01</leafValues></_>
        <_>
          <internalNodes>
            0 -1 46 2.1962188184261322e-03</internalNodes>
          <leafValues>
            -1.7628660798072815e-01 4.6597033739089966e-01</leafValues></_>
        <_>
          <internalNodes>
            0 -1 92 -2.1893234224990010e-04</internalNodes>
          <leafValues>
            4.0305817127227783e-01 -2.0730625092983246e-01</leafValues></_>
        <_>
          <internalNodes>
            0 -1 32 -2.1116328425705433e-03</internalNodes>
          <leafValues>
            2.3189064860343933e-01 -4.2711254954338074e-01</leafValues></_>
        <_>
          <internalNodes>
            0 -1 77 1.8141882028430700e-03</internalNodes>
          <leafValues>
            -1.6658389568328857e-01 6.3967961072921753e-01</leafValues></_>
        <_>
          <internalNodes>
            0 -1 129 -1.3878605095669627e-03</internalNodes>
          <leafValues>
            -1.3143084049224854e+00 1.1137389391660690e-01</leafValues></_>
        <_>
          <internalNodes>
            0 -1 31 -1.0460158227942884e-04</internalNodes>
          <leafValues>
            2.2253367304801941e-01 -4.3293023109436035e-01</leafValues></_>
        <_>
          <internalNodes>
            0 -1 79 6.3873699400573969e-04</internalNodes>
          <leafValues>
            -1.5643733739852905e-01 6.9428265094757080e-01</leafValues></_>
        <_>
          <internalNodes>
            0 -1 152 -1.3611068949103355e-02</internalNodes>
          <leafValues>
            4.1346496343612671e-01 -2.7413043379783630e-01</leafValues></_>
        <_>
          <internalNodes>
            0 -1 140 -7.2129266336560249e-03</internalNodes>
          <leafValues>
            5.1611977815628052e-01 -2.1060718595981598e-01</leafValues></_>
        <_>
          <internalNodes>
            0 -1 38 -1.1154396459460258e-02</internalNodes>
          <leafValues>
            7.1514564752578735e-01 -1.6164766252040863e-01</leafValues></_></weakClassifiers></_>
    <!-- stage 16 -->
    <_>
      <maxWeakCount>13</maxWeakCount>
      <stageThreshold>-9.0257894992828369e-01</stageThreshold>
      <weakClassifiers>
        <_>
          <internalNodes>
            0 -1 36 -1.5337219228968024e-03</internalNodes>
          <leafValues>
            1.3514515757560730e-01 -5.0726461410522461e-01</leafValues></_>
        <_>
          <internalNodes>
            0 -1 104 1.7404366517439485e-03</internalNodes>
          <leafValues>
            1.3421981036663055e-01 -6.8391191959381104e-01</leafValues></_>
        <_>
          <internalNodes>
            0 -1 111 6.5087884664535522e-02</internalNodes>
          <leafValues>
            -2.9884901642799377e-01 3.2626512646675110e-01</leafValues></_>
        <_>
          <internalNodes>
            0 -1 164 -2.5914674624800682e-02</internalNodes>
          <leafValues>
            6.6055524349212646e-01 -1.4377738535404205e-01</leafValues></_>
        <_>
          <internalNodes>
            0 -1 82 -1.2721134349703789e-02</internalNodes>
          <leafValues>
            5.5744969844818115e-01 -1.8799370527267456e-01</leafValues></_>
        <_>
          <internalNodes>
            0 -1 49 -2.3108855821192265e-03</internalNodes>
          <leafValues>
            5.1485127210617065e-01 -1.8712000548839569e-01</leafValues></_>
        <_>
          <internalNodes>
            0 -1 150 -7.4149679858237505e-04</internalNodes>
          <leafValues>
            3.7720286846160889e-01 -3.0424910783767700e-01</leafValues></_>
        <_>
          <internalNodes>
            0 -1 19 4.0971268899738789e-03</internalNodes>
          <leafValues>
            1.1637899279594421e-01 -9.7484570741653442e-01</leafValues></_>
        <_>
          <internalNodes>
            0 -1 160 1.4160238206386566e-03</internalNodes>
          <leafValues>
            -1.9400599598884583e-01 5.3721553087234497e-01</leafValues></_>
        <_>
          <internalNodes>
            0 -1 169 1.0760273784399033e-02</internalNodes>
          <leafValues>
            1.2446616590023041e-01 -8.5211610794067383e-01</leafValues></_>
        <_>
          <internalNodes>
            0 -1 35 -1.6358126886188984e-03</internalNodes>
          <leafValues>
            3.9865055680274963e-01 -2.3421587049961090e-01</leafValues></_>
        <_>
          <internalNodes>
            0 -1 143 4.3707480654120445e-03</internalNodes>
          <leafValues>
            -1.7215178906917572e-01 6.9101238250732422e-01</leafValues></_>
        <_>
          <internalNodes>
            0 -1 165 5.2724473789567128e-05</internalNodes>
          <leafValues>
            -2.8189432621002197e-01 3.2773610949516296e-01</leafValues></_></weakClassifiers></_>
    <!-- stage 17 -->
    <_>
      <maxWeakCount>16</maxWeakCount>
      <stageThreshold>-1.0724848508834839e+00</stageThreshold>
      <weakClassifiers>
        <_>
          <internalNodes>
            0 -1 142 8.4447709377855062e-04</internalNodes>
          <leafValues>
            -4.8147320747375488e-01 1.4891722798347473e-01</leafValues></_>
        <_>
          <internalNodes>
            0 -1 155 -1.1861325765494257e-04</internalNodes>
          <leafValues>
            3.1118246912956238e-01 -2.3985171318054199e-01</leafValues></_>
        <_>
          <internalNodes>
            0 -1 182 -9.6491537988185883e-03</internalNodes>
          <leafValues>
            -9.5446521043777466e-01 9.5252707600593567e-02</leafValues></_>
        <_>
          <internalNodes>
            0 -1 181 -9.2553971626330167e-05</internalNodes>
          <leafValues>
            3.0376154184341431e-01 -3.2839691638946533e-01</leafValues></_>
        <_>
          <internalNodes>
            0 -1 9 -3.8502019015140831e-04</internalNodes>
          <leafValues>
            -5.3824681043624878e-01 1.2121025472879410e-01</leafValues></_>
        <_>
          <internalNodes>
            0 -1 29 5.2596347813960165e-05</internalNodes>
          <leafValues>
            -3.4455880522727966e-01 2.6174557209014893e-01</leafValues></_>
        <_>
          <internalNodes>
            0 -1 47 2.6437886990606785e-03</internalNodes>
          <leafValues>
            -2.5496679544448853e-01 3.4645035862922668e-01</leafValues></_>
        <_>
          <internalNodes>
            0 -1 42 1.5422527212649584e-03</internalNodes>
          <leafValues>
            -1.5857522189617157e-01 5.5967360734939575e-01</leafValues></_>
        <_>
          <internalNodes>
            0 -1 170 -1.4063392300158739e-03</internalNodes>
          <leafValues>
            5.6873601675033569e-01 -1.7410394549369812e-01</leafValues></_>
        <_>
          <internalNodes>
            0 -1 128 -6.6178338602185249e-03</internalNodes>
          <leafValues>
            6.3319104909896851e-01 -1.7449237406253815e-01</leafValues></_>
        <_>
          <internalNodes>
            0 -1 62 -1.4413858298212290e-04</internalNodes>
          <leafValues>
            2.4229668080806732e-01 -3.4437543153762817e-01</leafValues></_>
        <_>
          <internalNodes>
            0 -1 168 -5.4649282246828079e-03</internalNodes>
          <leafValues>
            -4.9754106998443604e-01 1.6733071208000183e-01</leafValues></_>
        <_>
          <internalNodes>
            0 -1 40 -1.9303263979963958e-04</internalNodes>
          <leafValues>
            -6.1962336301803589e-01 1.5997724235057831e-01</leafValues></_>
        <_>
          <internalNodes>
            0 -1 151 -6.0176345868967474e-05</internalNodes>
          <leafValues>
            3.1197929382324219e-01 -2.8370165824890137e-01</leafValues></_>
        <_>
          <internalNodes>
            0 -1 114 1.1928261665161699e-04</internalNodes>
          <leafValues>
            -2.2158545255661011e-01 3.6819157004356384e-01</leafValues></_>
        <_>
          <internalNodes>
            0 -1 121 -3.2452750019729137e-04</internalNodes>
          <leafValues>
            3.2577076554298401e-01 -2.5449448823928833e-01</leafValues></_></weakClassifiers></_>
    <!-- stage 18 -->
    <_>
      <maxWeakCount>13</maxWeakCount>
      <stageThreshold>-1.0281656980514526e+00</stageThreshold>
      <weakClassifiers>
        <_>
          <internalNodes>
            0 -1 141 4.7987033030949533e-04</internalNodes>
          <leafValues>
            -4.7638019919395447e-01 2.4171333014965057e-01</leafValues></_>
        <_>
          <internalNodes>
            0 -1 34 -2.7905538445338607e-04</internalNodes>
          <leafValues>
            2.8672224283218384e-01 -2.6710060238838196e-01</leafValues></_>
        <_>
          <internalNodes>
            0 -1 44 -3.9661908522248268e-03</internalNodes>
          <leafValues>
            4.7782388329505920e-01 -1.6083574295043945e-01</leafValues></_>
        <_>
          <internalNodes>
            0 -1 166 -7.0169212995097041e-04</internalNodes>
          <leafValues>
            -6.7952966690063477e-01 1.3196089863777161e-01</leafValues></_>
        <_>
          <internalNodes>
            0 -1 28 4.0862797759473324e-03</internalNodes>
          <leafValues>
            -1.8332149088382721e-01 4.3994602560997009e-01</leafValues></_>
        <_>
          <internalNodes>
            0 -1 56 -2.6856178883463144e-03</internalNodes>
          <leafValues>
            7.1273487806320190e-01 -1.4635638892650604e-01</leafValues></_>
        <_>
          <internalNodes>
            0 -1 154 -4.4545456767082214e-03</internalNodes>
          <leafValues>
            4.0208435058593750e-01 -2.2192303836345673e-01</leafValues></_>
        <_>
          <internalNodes>
            0 -1 158 1.3841172680258751e-02</internalNodes>
          <leafValues>
            -3.7180641293525696e-01 2.2427399456501007e-01</leafValues></_>
        <_>
          <internalNodes>
            0 -1 13 1.6527186380699277e-04</internalNodes>
          <leafValues>
            1.4526425302028656e-01 -7.5551617145538330e-01</leafValues></_>
        <_>
          <internalNodes>
            0 -1 183 -5.4567173356190324e-04</internalNodes>
          <leafValues>
            2.7297785878181458e-01 -3.5898956656455994e-01</leafValues></_>
        <_>
          <internalNodes>
            0 -1 120 3.6668931716121733e-04</internalNodes>
          <leafValues>
            -2.1276320517063141e-01 4.5635038614273071e-01</leafValues></_>
        <_>
          <internalNodes>
            0 -1 61 -1.3104325626045465e-03</internalNodes>
          <leafValues>
            -6.2202149629592896e-01 1.6510049998760223e-01</leafValues></_>
        <_>
          <internalNodes>
            0 -1 94 1.1435660999268293e-03</internalNodes>
          <leafValues>
            -2.5796106457710266e-01 4.5578473806381226e-01</leafValues></_></weakClassifiers></_>
    <!-- stage 19 -->
    <_>
      <maxWeakCount>13</maxWeakCount>
      <stageThreshold>-1.0587122440338135e+00</stageThreshold>
      <weakClassifiers>
        <_>
          <internalNodes>
            0 -1 132 4.5085919555276632e-04</internalNodes>
          <leafValues>
            -4.9430570006370544e-01 1.2565721571445465e-01</leafValues></_>
        <_>
          <internalNodes>
            0 -1 52 1.4895640197210014e-04</internalNodes>
          <leafValues>
            1.5958259999752045e-01 -6.5467220544815063e-01</leafValues></_>
        <_>
          <internalNodes>
            0 -1 86 2.0397835760377347e-04</internalNodes>
          <leafValues>
            -2.6972034573554993e-01 2.8778350353240967e-01</leafValues></_>
        <_>
          <internalNodes>
            0 -1 175 1.1336257739458233e-04</internalNodes>
          <leafValues>
            -1.8153235316276550e-01 3.9461442828178406e-01</leafValues></_>
        <_>
          <internalNodes>
            0 -1 55 -2.6970624458044767e-04</internalNodes>
          <leafValues>
            4.6195730566978455e-01 -1.6189691424369812e-01</leafValues></_>
        <_>
          <internalNodes>
            0 -1 108 -8.3960413932800293e-02</internalNodes>
          <leafValues>
            -5.7564578056335449e+00 7.0547424256801605e-02</leafValues></_>
        <_>
          <internalNodes>
            0 -1 110 -8.2753710448741913e-02</internalNodes>
          <leafValues>
            1.7800483107566833e-01 -5.1505398750305176e-01</leafValues></_>
        <_>
          <internalNodes>
            0 -1 130 -1.4092846540734172e-03</internalNodes>
          <leafValues>
            -1.2466589212417603e+00 7.1164079010486603e-02</leafValues></_>
        <_>
          <internalNodes>
            0 -1 102 2.7361507527530193e-03</internalNodes>
          <leafValues>
            -1.4979365468025208e-01 5.8890008926391602e-01</leafValues></_>
        <_>
          <internalNodes>
            0 -1 116 -2.0903021097183228e-02</internalNodes>
          <leafValues>
            5.0072985887527466e-01 -1.9220258295536041e-01</leafValues></_>
        <_>
          <internalNodes>
            0 -1 125 4.4507207348942757e-04</internalNodes>
          <leafValues>
            -2.2750872373580933e-01 4.8623752593994141e-01</leafValues></_>
        <_>
          <internalNodes>
            0 -1 127 -5.1475958898663521e-03</internalNodes>
          <leafValues>
            6.3306802511215210e-01 -1.8502363562583923e-01</leafValues></_>
        <_>
          <internalNodes>
            0 -1 27 -8.9362345170229673e-04</internalNodes>
          <leafValues>
            4.1445916891098022e-01 -2.2042910754680634e-01</leafValues></_></weakClassifiers></_></stages>
  <features>
    <_>
      <rects>
        <_>
          0 0 1 4 -1.</_>
        <_>
          0 1 1 2 2.</_></rects>
      <tilted>0</tilted></_>
    <_>
      <rects>
        <_>
          0 0 4 1 -1.</_>
        <_>
          2 0 2 1 2.</_></rects>
      <tilted>0</tilted></_>
    <_>
      <rects>
        <_>
          0 0 2 14 -1.</_>
        <_>
          0 7 2 7 2.</_></rects>
      <tilted>0</tilted></_>
    <_>
      <rects>
        <_>
          0 0 24 5 -1.</_>
        <_>
          12 0 12 5 2.</_></rects>
      <tilted>0</tilted></_>
    <_>
      <rects>
        <_>
          0 1 1 18 -1.</_>
        <_>
          0 10 1 9 2.</_></rects>
      <tilted>0</tilted></_>
    <_>
      <rects>
        <_>
          0 1 22 12 -1.</_>
        <_>
          11 1 11 12 2.</_></rects>
      <tilted>0</tilted></_>
    <_>
      <rects>
        <_>
          0 1 24 3 -1.</_>
        <_>
          12 1 12 3 2.</_></rects>
      <tilted>0</tilted></_>
    <_>
      <rects>
        <_>
          0 2 1 4 -1.</_>
        <_>
          0 3 1 2 2.</_></rects>
      <tilted>0</tilted></_>
    <_>
      <rects>
        <_>
          0 2 2 2 -1.</_>
        <_>
          0 3 2 1 2.</_></rects>
      <tilted>0</tilted></_>
    <_>
      <rects>
        <_>
          0 2 2 4 -1.</_>
        <_>
          0 3 2 2 2.</_></rects>
      <tilted>0</tilted></_>
    <_>
      <rects>
        <_>
          0 2 2 14 -1.</_>
        <_>
          0 9 2 7 2.</_></rects>
      <tilted>0</tilted></_>
    <_>
      <rects>
        <_>
          0 4 1 20 -1.</_>
        <_>
          0 14 1 10 2.</_></rects>
      <tilted>0</tilted></_>
    <_>
      <rects>
        <_>
          0 5 1 12 -1.</_>
        <_>
          0 8 1 6 2.</_></rects>
      <tilted>0</tilted></_>
    <_>
      <rects>
        <_>
          0 8 1 2 -1.</_>
        <_>
          0 9 1 1 2.</_></rects>
      <tilted>0</tilted></_>
    <_>
      <rects>
        <_>
          0 8 1 15 -1.</_>
        <_>
          0 13 1 5 2.</_></rects>
      <tilted>0</tilted></_>
    <_>
      <rects>
        <_>
          0 10 1 2 -1.</_>
        <_>
          0 11 1 1 2.</_></rects>
      <tilted>0</tilted></_>
    <_>
      <rects>
        <_>
          0 11 12 6 -1.</_>
        <_>
          4 11 4 6 2.</_></rects>
      <tilted>0</tilted></_>
    <_>
      <rects>
        <_>
          0 14 4 5 -1.</_>
        <_>
          2 14 2 5 2.</_></rects>
      <tilted>0</tilted></_>
    <_>
      <rects>
        <_>
          0 16 1 2 -1.</_>
        <_>
          0 17 1 1 2.</_></rects>
      <tilted>0</tilted></_>
    <_>
      <rects>
        <_>
          0 16 1 6 -1.</_>
        <_>
          0 19 1 3 2.</_></rects>
      <tilted>0</tilted></_>
    <_>
      <rects>
        <_>
          0 16 19 6 -1.</_>
        <_>
          0 18 19 2 2.</_></rects>
      <tilted>0</tilted></_>
    <_>
      <rects>
        <_>
          0 18 8 5 -1.</_>
        <_>
          4 18 4 5 2.</_></rects>
      <tilted>0</tilted></_>
    <_>
      <rects>
        <_>
          0 20 8 4 -1.</_>
        <_>
          4 20 4 4 2.</_></rects>
      <tilted>0</tilted></_>
    <_>
      <rects>
        <_>
          0 21 12 2 -1.</_>
        <_>
          6 21 6 2 2.</_></rects>
      <tilted>0</tilted></_>
    <_>
      <rects>
        <_>
          1 0 20 14 -1.</_>
        <_>
          11 0 10 14 2.</_></rects>
      <tilted>0</tilted></_>
    <_>
      <rects>
        <_>
          1 1 6 12 -1.</_>
        <_>
          1 1 3 6 2.</_>
        <_>
          4 7 3 6 2.</_></rects>
      <tilted>0</tilted></_>
    <_>
      <rects>
        <_>
          1 1 23 22 -1.</_>
        <_>
          1 12 23 11 2.</_></rects>
      <tilted>0</tilted></_>
    <_>
      <rects>
        <_>
          1 6 2 10 -1.</_>
        <_>
          1 6 1 5 2.</_>
        <_>
          2 11 1 5 2.</_></rects>
      <tilted>0</tilted></_>
    <_>
      <rects>
        <_>
          1 6 3 12 -1.</_>
        <_>
          1 9 3 6 2.</_></rects>
      <tilted>0</tilted></_>
    <_>
      <rects>
        <_>
          1 16 2 1 -1.</_>
        <_>
          1 16 1 1 2.</_></rects>
      <tilted>1</tilted></_>
    <_>
      <rects>
        <_>
          1 16 16 4 -1.</_>
        <_>
          1 17 16 2 2.</_></rects>
      <tilted>0</tilted></_>
    <_>
      <rects>
        <_>
          1 18 2 6 -1.</_>
        <_>
          2 18 1 6 2.</_></rects>
      <tilted>0</tilted></_>
    <_>
      <rects>
        <_>
          1 22 12 1 -1.</_>
        <_>
          7 22 6 1 2.</_></rects>
      <tilted>0</tilted></_>
    <_>
      <rects>
        <_>
          2 1 20 10 -1.</_>
        <_>
          2 6 20 5 2.</_></rects>
      <tilted>0</tilted></_>
    <_>
      <rects>
        <_>
          2 2 20 1 -1.</_>
        <_>
          7 2 10 1 2.</_></rects>
      <tilted>0</tilted></_>
    <_>
      <rects>
        <_>
          2 6 1 16 -1.</_>
        <_>
          2 10 1 8 2.</_></rects>
      <tilted>0</tilted></_>
    <_>
      <rects>
        <_>
          2 11 2 6 -1.</_>
        <_>
          2 11 1 3 2.</_>
        <_>
          3 14 1 3 2.</_></rects>
      <tilted>0</tilted></_>
    <_>
      <rects>
        <_>
          2 18 2 2 -1.</_>
        <_>
          2 18 2 1 2.</_></rects>
      <tilted>1</tilted></_>
    <_>
      <rects>
        <_>
          2 18 6 2 -1.</_>
        <_>
          5 18 3 2 2.</_></rects>
      <tilted>0</tilted></_>
    <_>
      <rects>
        <_>
          2 18 21 3 -1.</_>
        <_>
          9 18 7 3 2.</_></rects>
      <tilted>0</tilted></_>
    <_>
      <rects>
        <_>
          3 1 2 3 -1.</_>
        <_>
          4 1 1 3 2.</_></rects>
      <tilted>0</tilted></_>
    <_>
      <rects>
        <_>
          3 1 21 14 -1.</_>
        <_>
          3 8 21 7 2.</_></rects>
      <tilted>0</tilted></_>
    <_>
      <rects>
        <_>
          3 7 2 4 -1.</_>
        <_>
          3 8 2 2 2.</_></rects>
      <tilted>0</tilted></_>
    <_>
      <rects>
        <_>
          3 8 4 3 -1.</_>
        <_>
          3 8 2 3 2.</_></rects>
      <tilted>1</tilted></_>
    <_>
      <rects>
        <_>
          3 19 8 2 -1.</_>
        <_>
          3 19 4 1 2.</_>
        <_>
          7 20 4 1 2.</_></rects>
      <tilted>0</tilted></_>
    <_>
      <rects>
        <_>
          4 0 6 4 -1.</_>
        <_>
          6 0 2 4 2.</_></rects>
      <tilted>0</tilted></_>
    <_>
      <rects>
        <_>
          4 5 8 2 -1.</_>
        <_>
          4 5 4 1 2.</_>
        <_>
          8 6 4 1 2.</_></rects>
      <tilted>0</tilted></_>
    <_>
      <rects>
        <_>
          4 5 8 6 -1.</_>
        <_>
          4 5 4 3 2.</_>
        <_>
          8 8 4 3 2.</_></rects>
      <tilted>0</tilted></_>
    <_>
      <rects>
        <_>
          4 7 6 2 -1.</_>
        <_>
          4 7 3 1 2.</_>
        <_>
          7 8 3 1 2.</_></rects>
      <tilted>0</tilted></_>
    <_>
      <rects>
        <_>
          4 8 5 2 -1.</_>
        <_>
          4 9 5 1 2.</_></rects>
      <tilted>0</tilted></_>
    <_>
      <rects>
        <_>
          4 10 4 4 -1.</_>
        <_>
          4 11 4 2 2.</_></rects>
      <tilted>0</tilted></_>
    <_>
      <rects>
        <_>
          4 16 3 8 -1.</_>
        <_>
          4 18 3 4 2.</_></rects>
      <tilted>0</tilted></_>
    <_>
      <rects>
        <_>
          5 0 2 2 -1.</_>
        <_>
          6 0 1 2 2.</_></rects>
      <tilted>0</tilted></_>
    <_>
      <rects>
        <_>
          5 0 3 3 -1.</_>
        <_>
          6 0 1 3 2.</_></rects>
      <tilted>0</tilted></_>
    <_>
      <rects>
        <_>
          5 0 4 5 -1.</_>
        <_>
          6 0 2 5 2.</_></rects>
      <tilted>0</tilted></_>
    <_>
      <rects>
        <_>
          5 5 2 2 -1.</_>
        <_>
          5 5 1 1 2.</_>
        <_>
          6 6 1 1 2.</_></rects>
      <tilted>0</tilted></_>
    <_>
      <rects>
        <_>
          5 5 6 2 -1.</_>
        <_>
          5 5 3 1 2.</_>
        <_>
          8 6 3 1 2.</_></rects>
      <tilted>0</tilted></_>
    <_>
      <rects>
        <_>
          5 10 2 4 -1.</_>
        <_>
          5 10 1 2 2.</_>
        <_>
          6 12 1 2 2.</_></rects>
      <tilted>0</tilted></_>
    <_>
      <rects>
        <_>
          5 18 2 4 -1.</_>
        <_>
          6 18 1 4 2.</_></rects>
      <tilted>0</tilted></_>
    <_>
      <rects>
        <_>
          5 19 1 4 -1.</_>
        <_>
          5 20 1 2 2.</_></rects>
      <tilted>0</tilted></_>
    <_>
      <rects>
        <_>
          5 22 2 1 -1.</_>
        <_>
          6 22 1 1 2.</_></rects>
      <tilted>0</tilted></_>
    <_>
      <rects>
        <_>
          5 22 2 2 -1.</_>
        <_>
          6 22 1 2 2.</_></rects>
      <tilted>0</tilted></_>
    <_>
      <rects>
        <_>
          5 23 6 1 -1.</_>
        <_>
          8 23 3 1 2.</_></rects>
      <tilted>0</tilted></_>
    <_>
      <rects>
        <_>
          6 9 8 6 -1.</_>
        <_>
          4 11 8 2 3.</_></rects>
      <tilted>1</tilted></_>
    <_>
      <rects>
        <_>
          6 11 2 2 -1.</_>
        <_>
          6 11 1 1 2.</_>
        <_>
          7 12 1 1 2.</_></rects>
      <tilted>0</tilted></_>
    <_>
      <rects>
        <_>
          6 12 2 2 -1.</_>
        <_>
          6 12 1 1 2.</_>
        <_>
          7 13 1 1 2.</_></rects>
      <tilted>0</tilted></_>
    <_>
      <rects>
        <_>
          6 16 11 8 -1.</_>
        <_>
          6 18 11 4 2.</_></rects>
      <tilted>0</tilted></_>
    <_>
      <rects>
        <_>
          6 19 2 2 -1.</_>
        <_>
          6 19 1 1 2.</_>
        <_>
          7 20 1 1 2.</_></rects>
      <tilted>0</tilted></_>
    <_>
      <rects>
        <_>
          6 22 11 2 -1.</_>
        <_>
          6 23 11 1 2.</_></rects>
      <tilted>0</tilted></_>
    <_>
      <rects>
        <_>
          7 4 2 2 -1.</_>
        <_>
          7 4 1 1 2.</_>
        <_>
          8 5 1 1 2.</_></rects>
      <tilted>0</tilted></_>
    <_>
      <rects>
        <_>
          7 9 6 2 -1.</_>
        <_>
          7 10 6 1 2.</_></rects>
      <tilted>0</tilted></_>
    <_>
      <rects>
        <_>
          7 9 9 4 -1.</_>
        <_>
          7 10 9 2 2.</_></rects>
      <tilted>0</tilted></_>
    <_>
      <rects>
        <_>
          7 10 13 6 -1.</_>
        <_>
          7 12 13 2 2.</_></rects>
      <tilted>0</tilted></_>
    <_>
      <rects>
        <_>
          7 15 2 2 -1.</_>
        <_>
          7 15 1 1 2.</_>
        <_>
          8 16 1 1 2.</_></rects>
      <tilted>0</tilted></_>
    <_>
      <rects>
        <_>
          8 0 12 1 -1.</_>
        <_>
          14 0 6 1 2.</_></rects>
      <tilted>0</tilted></_>
    <_>
      <rects>
        <_>
          8 0 16 24 -1.</_>
        <_>
          8 12 16 12 2.</_></rects>
      <tilted>0</tilted></_>
    <_>
      <rects>
        <_>
          8 1 6 1 -1.</_>
        <_>
          10 3 2 1 3.</_></rects>
      <tilted>1</tilted></_>
    <_>
      <rects>
        <_>
          8 2 2 4 -1.</_>
        <_>
          8 2 1 2 2.</_>
        <_>
          9 4 1 2 2.</_></rects>
      <tilted>0</tilted></_>
    <_>
      <rects>
        <_>
          8 4 4 8 -1.</_>
        <_>
          9 4 2 8 2.</_></rects>
      <tilted>0</tilted></_>
    <_>
      <rects>
        <_>
          8 5 2 2 -1.</_>
        <_>
          8 5 1 1 2.</_>
        <_>
          9 6 1 1 2.</_></rects>
      <tilted>0</tilted></_>
    <_>
      <rects>
        <_>
          8 6 3 4 -1.</_>
        <_>
          9 7 1 4 3.</_></rects>
      <tilted>1</tilted></_>
    <_>
      <rects>
        <_>
          8 14 2 2 -1.</_>
        <_>
          8 14 1 1 2.</_>
        <_>
          9 15 1 1 2.</_></rects>
      <tilted>0</tilted></_>
    <_>
      <rects>
        <_>
          8 14 14 4 -1.</_>
        <_>
          8 14 7 2 2.</_>
        <_>
          15 16 7 2 2.</_></rects>
      <tilted>0</tilted></_>
    <_>
      <rects>
        <_>
          8 16 2 2 -1.</_>
        <_>
          8 16 1 1 2.</_>
        <_>
          9 17 1 1 2.</_></rects>
      <tilted>0</tilted></_>
    <_>
      <rects>
        <_>
          8 17 1 3 -1.</_>
        <_>
          7 18 1 1 3.</_></rects>
      <tilted>1</tilted></_>
    <_>
      <rects>
        <_>
          8 19 4 2 -1.</_>
        <_>
          8 20 4 1 2.</_></rects>
      <tilted>0</tilted></_>
    <_>
      <rects>
        <_>
          8 21 1 2 -1.</_>
        <_>
          8 22 1 1 2.</_></rects>
      <tilted>0</tilted></_>
    <_>
      <rects>
        <_>
          8 23 4 1 -1.</_>
        <_>
          10 23 2 1 2.</_></rects>
      <tilted>0</tilted></_>
    <_>
      <rects>
        <_>
          9 1 2 1 -1.</_>
        <_>
          10 1 1 1 2.</_></rects>
      <tilted>0</tilted></_>
    <_>
      <rects>
        <_>
          9 3 10 2 -1.</_>
        <_>
          9 3 10 1 2.</_></rects>
      <tilted>1</tilted></_>
    <_>
      <rects>
        <_>
          9 6 8 4 -1.</_>
        <_>
          8 7 8 2 2.</_></rects>
      <tilted>1</tilted></_>
    <_>
      <rects>
        <_>
          9 7 2 2 -1.</_>
        <_>
          9 7 1 1 2.</_>
        <_>
          10 8 1 1 2.</_></rects>
      <tilted>0</tilted></_>
    <_>
      <rects>
        <_>
          9 13 2 2 -1.</_>
        <_>
          9 13 1 1 2.</_>
        <_>
          10 14 1 1 2.</_></rects>
      <tilted>0</tilted></_>
    <_>
      <rects>
        <_>
          9 15 4 1 -1.</_>
        <_>
          11 15 2 1 2.</_></rects>
      <tilted>0</tilted></_>
    <_>
      <rects>
        <_>
          9 21 8 2 -1.</_>
        <_>
          9 21 4 1 2.</_>
        <_>
          13 22 4 1 2.</_></rects>
      <tilted>0</tilted></_>
    <_>
      <rects>
        <_>
          9 22 8 2 -1.</_>
        <_>
          9 23 8 1 2.</_></rects>
      <tilted>0</tilted></_>
    <_>
      <rects>
        <_>
          10 0 2 10 -1.</_>
        <_>
          10 0 2 5 2.</_></rects>
      <tilted>1</tilted></_>
    <_>
      <rects>
        <_>
          10 0 8 1 -1.</_>
        <_>
          14 0 4 1 2.</_></rects>
      <tilted>0</tilted></_>
    <_>
      <rects>
        <_>
          10 2 14 16 -1.</_>
        <_>
          17 2 7 16 2.</_></rects>
      <tilted>0</tilted></_>
    <_>
      <rects>
        <_>
          10 12 2 4 -1.</_>
        <_>
          10 12 1 2 2.</_>
        <_>
          11 14 1 2 2.</_></rects>
      <tilted>0</tilted></_>
    <_>
      <rects>
        <_>
          10 15 7 6 -1.</_>
        <_>
          10 17 7 2 2.</_></rects>
      <tilted>0</tilted></_>
    <_>
      <rects>
        <_>
          10 20 4 2 -1.</_>
        <_>
          10 20 2 1 2.</_>
        <_>
          12 21 2 1 2.</_></rects>
      <tilted>0</tilted></_>
    <_>
      <rects>
        <_>
          10 20 6 2 -1.</_>
        <_>
          10 20 3 1 2.</_>
        <_>
          13 21 3 1 2.</_></rects>
      <tilted>0</tilted></_>
    <_>
      <rects>
        <_>
          10 22 1 2 -1.</_>
        <_>
          10 23 1 1 2.</_></rects>
      <tilted>0</tilted></_>
    <_>
      <rects>
        <_>
          11 0 8 1 -1.</_>
        <_>
          15 0 4 1 2.</_></rects>
      <tilted>0</tilted></_>
    <_>
      <rects>
        <_>
          11 0 5 24 -1.</_>
        <_>
          11 8 5 8 2.</_></rects>
      <tilted>0</tilted></_>
    <_>
      <rects>
        <_>
          11 6 2 4 -1.</_>
        <_>
          11 6 1 2 2.</_>
        <_>
          12 8 1 2 2.</_></rects>
      <tilted>0</tilted></_>
    <_>
      <rects>
        <_>
          11 6 4 3 -1.</_>
        <_>
          12 6 2 3 2.</_></rects>
      <tilted>0</tilted></_>
    <_>
      <rects>
        <_>
          11 7 6 3 -1.</_>
        <_>
          11 8 6 1 2.</_></rects>
      <tilted>0</tilted></_>
    <_>
      <rects>
        <_>
          11 9 5 8 -1.</_>
        <_>
          9 11 5 4 2.</_></rects>
      <tilted>1</tilted></_>
    <_>
      <rects>
        <_>
          12 0 9 4 -1.</_>
        <_>
          15 0 3 4 2.</_></rects>
      <tilted>0</tilted></_>
    <_>
      <rects>
        <_>
          12 2 12 21 -1.</_>
        <_>
          18 2 6 21 2.</_></rects>
      <tilted>0</tilted></_>
    <_>
      <rects>
        <_>
          12 6 3 6 -1.</_>
        <_>
          13 7 1 6 3.</_></rects>
      <tilted>1</tilted></_>
    <_>
      <rects>
        <_>
          12 6 6 2 -1.</_>
        <_>
          12 6 3 1 2.</_>
        <_>
          15 7 3 1 2.</_></rects>
      <tilted>0</tilted></_>
    <_>
      <rects>
        <_>
          12 7 2 2 -1.</_>
        <_>
          12 7 1 1 2.</_>
        <_>
          13 8 1 1 2.</_></rects>
      <tilted>0</tilted></_>
    <_>
      <rects>
        <_>
          12 8 6 4 -1.</_>
        <_>
          12 8 3 2 2.</_>
        <_>
          15 10 3 2 2.</_></rects>
      <tilted>0</tilted></_>
    <_>
      <rects>
        <_>
          12 11 6 6 -1.</_>
        <_>
          12 14 6 3 2.</_></rects>
      <tilted>0</tilted></_>
    <_>
      <rects>
        <_>
          12 14 4 2 -1.</_>
        <_>
          12 15 4 1 2.</_></rects>
      <tilted>0</tilted></_>
    <_>
      <rects>
        <_>
          12 14 7 4 -1.</_>
        <_>
          12 15 7 2 2.</_></rects>
      <tilted>0</tilted></_>
    <_>
      <rects>
        <_>
          12 16 2 2 -1.</_>
        <_>
          12 16 1 1 2.</_>
        <_>
          13 17 1 1 2.</_></rects>
      <tilted>0</tilted></_>
    <_>
      <rects>
        <_>
          12 17 2 1 -1.</_>
        <_>
          13 17 1 1 2.</_></rects>
      <tilted>0</tilted></_>
    <_>
      <rects>
        <_>
          12 17 2 3 -1.</_>
        <_>
          13 17 1 3 2.</_></rects>
      <tilted>0</tilted></_>
    <_>
      <rects>
        <_>
          12 20 12 4 -1.</_>
        <_>
          18 20 6 4 2.</_></rects>
      <tilted>0</tilted></_>
    <_>
      <rects>
        <_>
          13 0 3 6 -1.</_>
        <_>
          14 1 1 6 3.</_></rects>
      <tilted>1</tilted></_>
    <_>
      <rects>
        <_>
          13 7 2 1 -1.</_>
        <_>
          14 7 1 1 2.</_></rects>
      <tilted>0</tilted></_>
    <_>
      <rects>
        <_>
          13 12 1 2 -1.</_>
        <_>
          13 13 1 1 2.</_></rects>
      <tilted>0</tilted></_>
    <_>
      <rects>
        <_>
          13 14 2 2 -1.</_>
        <_>
          13 14 1 1 2.</_>
        <_>
          14 15 1 1 2.</_></rects>
      <tilted>0</tilted></_>
    <_>
      <rects>
        <_>
          13 16 3 3 -1.</_>
        <_>
          12 17 3 1 3.</_></rects>
      <tilted>1</tilted></_>
    <_>
      <rects>
        <_>
          13 19 2 3 -1.</_>
        <_>
          12 20 2 1 3.</_></rects>
      <tilted>1</tilted></_>
    <_>
      <rects>
        <_>
          14 0 2 2 -1.</_>
        <_>
          15 0 1 2 2.</_></rects>
      <tilted>0</tilted></_>
    <_>
      <rects>
        <_>
          14 0 4 1 -1.</_>
        <_>
          16 0 2 1 2.</_></rects>
      <tilted>0</tilted></_>
    <_>
      <rects>
        <_>
          14 1 2 16 -1.</_>
        <_>
          14 1 1 8 2.</_>
        <_>
          15 9 1 8 2.</_></rects>
      <tilted>0</tilted></_>
    <_>
      <rects>
        <_>
          14 4 2 2 -1.</_>
        <_>
          14 4 1 1 2.</_>
        <_>
          15 5 1 1 2.</_></rects>
      <tilted>0</tilted></_>
    <_>
      <rects>
        <_>
          14 6 4 7 -1.</_>
        <_>
          15 6 2 7 2.</_></rects>
      <tilted>0</tilted></_>
    <_>
      <rects>
        <_>
          14 7 2 6 -1.</_>
        <_>
          14 7 1 3 2.</_>
        <_>
          15 10 1 3 2.</_></rects>
      <tilted>0</tilted></_>
    <_>
      <rects>
        <_>
          14 12 2 2 -1.</_>
        <_>
          14 12 1 1 2.</_>
        <_>
          15 13 1 1 2.</_></rects>
      <tilted>0</tilted></_>
    <_>
      <rects>
        <_>
          14 14 2 2 -1.</_>
        <_>
          14 14 1 1 2.</_>
        <_>
          15 15 1 1 2.</_></rects>
      <tilted>0</tilted></_>
    <_>
      <rects>
        <_>
          14 18 6 6 -1.</_>
        <_>
          14 18 3 3 2.</_>
        <_>
          17 21 3 3 2.</_></rects>
      <tilted>0</tilted></_>
    <_>
      <rects>
        <_>
          14 19 4 2 -1.</_>
        <_>
          14 19 2 1 2.</_>
        <_>
          16 20 2 1 2.</_></rects>
      <tilted>0</tilted></_>
    <_>
      <rects>
        <_>
          14 21 10 3 -1.</_>
        <_>
          19 21 5 3 2.</_></rects>
      <tilted>0</tilted></_>
    <_>
      <rects>
        <_>
          15 0 3 8 -1.</_>
        <_>
          16 1 1 8 3.</_></rects>
      <tilted>1</tilted></_>
    <_>
      <rects>
        <_>
          15 3 2 2 -1.</_>
        <_>
          15 3 1 1 2.</_>
        <_>
          16 4 1 1 2.</_></rects>
      <tilted>0</tilted></_>
    <_>
      <rects>
        <_>
          15 16 2 2 -1.</_>
        <_>
          15 16 1 1 2.</_>
        <_>
          16 17 1 1 2.</_></rects>
      <tilted>0</tilted></_>
    <_>
      <rects>
        <_>
          15 17 4 1 -1.</_>
        <_>
          16 18 2 1 2.</_></rects>
      <tilted>1</tilted></_>
    <_>
      <rects>
        <_>
          15 19 2 2 -1.</_>
        <_>
          15 19 1 1 2.</_>
        <_>
          16 20 1 1 2.</_></rects>
      <tilted>0</tilted></_>
    <_>
      <rects>
        <_>
          15 19 3 4 -1.</_>
        <_>
          15 21 3 2 2.</_></rects>
      <tilted>0</tilted></_>
    <_>
      <rects>
        <_>
          16 0 4 1 -1.</_>
        <_>
          17 0 2 1 2.</_></rects>
      <tilted>0</tilted></_>
    <_>
      <rects>
        <_>
          16 9 2 4 -1.</_>
        <_>
          16 9 1 2 2.</_>
        <_>
          17 11 1 2 2.</_></rects>
      <tilted>0</tilted></_>
    <_>
      <rects>
        <_>
          16 10 2 4 -1.</_>
        <_>
          16 11 2 2 2.</_></rects>
      <tilted>0</tilted></_>
    <_>
      <rects>
        <_>
          16 14 3 4 -1.</_>
        <_>
          16 15 3 2 2.</_></rects>
      <tilted>0</tilted></_>
    <_>
      <rects>
        <_>
          16 15 4 2 -1.</_>
        <_>
          17 15 2 2 2.</_></rects>
      <tilted>0</tilted></_>
    <_>
      <rects>
        <_>
          17 0 4 4 -1.</_>
        <_>
          18 0 2 4 2.</_></rects>
      <tilted>0</tilted></_>
    <_>
      <rects>
        <_>
          17 9 5 8 -1.</_>
        <_>
          17 13 5 4 2.</_></rects>
      <tilted>0</tilted></_>
    <_>
      <rects>
        <_>
          17 17 2 2 -1.</_>
        <_>
          17 17 1 1 2.</_>
        <_>
          18 18 1 1 2.</_></rects>
      <tilted>0</tilted></_>
    <_>
      <rects>
        <_>
          17 17 3 4 -1.</_>
        <_>
          17 19 3 2 2.</_></rects>
      <tilted>0</tilted></_>
    <_>
      <rects>
        <_>
          17 20 2 2 -1.</_>
        <_>
          17 20 1 1 2.</_>
        <_>
          18 21 1 1 2.</_></rects>
      <tilted>0</tilted></_>
    <_>
      <rects>
        <_>
          17 23 6 1 -1.</_>
        <_>
          20 23 3 1 2.</_></rects>
      <tilted>0</tilted></_>
    <_>
      <rects>
        <_>
          18 0 3 2 -1.</_>
        <_>
          19 0 1 2 2.</_></rects>
      <tilted>0</tilted></_>
    <_>
      <rects>
        <_>
          18 6 6 18 -1.</_>
        <_>
          21 6 3 18 2.</_></rects>
      <tilted>0</tilted></_>
    <_>
      <rects>
        <_>
          18 15 4 5 -1.</_>
        <_>
          19 16 2 5 2.</_></rects>
      <tilted>1</tilted></_>
    <_>
      <rects>
        <_>
          18 17 4 2 -1.</_>
        <_>
          18 17 2 1 2.</_>
        <_>
          20 18 2 1 2.</_></rects>
      <tilted>0</tilted></_>
    <_>
      <rects>
        <_>
          18 17 6 4 -1.</_>
        <_>
          21 17 3 4 2.</_></rects>
      <tilted>0</tilted></_>
    <_>
      <rects>
        <_>
          19 1 4 1 -1.</_>
        <_>
          21 1 2 1 2.</_></rects>
      <tilted>0</tilted></_>
    <_>
      <rects>
        <_>
          19 3 2 10 -1.</_>
        <_>
          19 3 1 5 2.</_>
        <_>
          20 8 1 5 2.</_></rects>
      <tilted>0</tilted></_>
    <_>
      <rects>
        <_>
          19 5 5 6 -1.</_>
        <_>
          17 7 5 2 3.</_></rects>
      <tilted>1</tilted></_>
    <_>
      <rects>
        <_>
          19 19 1 2 -1.</_>
        <_>
          19 20 1 1 2.</_></rects>
      <tilted>0</tilted></_>
    <_>
      <rects>
        <_>
          20 1 2 1 -1.</_>
        <_>
          20 1 1 1 2.</_></rects>
      <tilted>1</tilted></_>
    <_>
      <rects>
        <_>
          20 1 2 2 -1.</_>
        <_>
          21 1 1 2 2.</_></rects>
      <tilted>0</tilted></_>
    <_>
      <rects>
        <_>
          20 4 2 4 -1.</_>
        <_>
          20 4 2 2 2.</_></rects>
      <tilted>1</tilted></_>
    <_>
      <rects>
        <_>
          20 6 4 18 -1.</_>
        <_>
          21 6 2 18 2.</_></rects>
      <tilted>0</tilted></_>
    <_>
      <rects>
        <_>
          20 10 2 4 -1.</_>
        <_>
          20 10 1 2 2.</_>
        <_>
          21 12 1 2 2.</_></rects>
      <tilted>0</tilted></_>
    <_>
      <rects>
        <_>
          20 12 4 7 -1.</_>
        <_>
          21 12 2 7 2.</_></rects>
      <tilted>0</tilted></_>
    <_>
      <rects>
        <_>
          20 14 4 8 -1.</_>
        <_>
          22 14 2 8 2.</_></rects>
      <tilted>0</tilted></_>
    <_>
      <rects>
        <_>
          20 18 2 6 -1.</_>
        <_>
          20 20 2 2 2.</_></rects>
      <tilted>0</tilted></_>
    <_>
      <rects>
        <_>
          20 21 1 2 -1.</_>
        <_>
          20 21 1 1 2.</_></rects>
      <tilted>1</tilted></_>
    <_>
      <rects>
        <_>
          21 13 2 2 -1.</_>
        <_>
          21 13 1 1 2.</_>
        <_>
          22 14 1 1 2.</_></rects>
      <tilted>0</tilted></_>
    <_>
      <rects>
        <_>
          21 15 1 2 -1.</_>
        <_>
          21 16 1 1 2.</_></rects>
      <tilted>0</tilted></_>
    <_>
      <rects>
        <_>
          22 6 2 3 -1.</_>
        <_>
          23 6 1 3 2.</_></rects>
      <tilted>0</tilted></_>
    <_>
      <rects>
        <_>
          22 14 2 8 -1.</_>
        <_>
          23 14 1 8 2.</_></rects>
      <tilted>0</tilted></_>
    <_>
      <rects>
        <_>
          23 4 1 9 -1.</_>
        <_>
          23 7 1 3 2.</_></rects>
      <tilted>0</tilted></_>
    <_>
      <rects>
        <_>
          23 6 1 14 -1.</_>
        <_>
          23 13 1 7 2.</_></rects>
      <tilted>0</tilted></_>
    <_>
      <rects>
        <_>
          23 7 1 10 -1.</_>
        <_>
          23 12 1 5 2.</_></rects>
      <tilted>0</tilted></_>
    <_>
      <rects>
        <_>
          23 8 1 16 -1.</_>
        <_>
          23 12 1 8 2.</_></rects>
      <tilted>0</tilted></_>
    <_>
      <rects>
        <_>
          23 8 1 12 -1.</_>
        <_>
          23 14 1 6 2.</_></rects>
      <tilted>0</tilted></_></features></cascade>
</opencv_storage>
